digraph Tree {
node [shape=box];
0 [label="X[1] <= 534.5\ngini = 0.5585\nsamples = 61839\nvalue = [36597, 16524, 8718]"];
1 [label="X[1] <= 89.5\ngini = 0.3699\nsamples = 29868\nvalue = [22972, 5749, 1147]"];
0 -> 1  [headlabel="True", labeldistance="2.5", labelangle=45];
2 [label="X[1] <= 66.0\ngini = 0.6616\nsamples = 3205\nvalue = [895, 1216, 1094]"];
1 -> 2;
3 [label="X[1] <= 12.5\ngini = 0.6231\nsamples = 2128\nvalue = [733, 384, 1011]"];
2 -> 3;
4 [label="X[1] <= 6.5\ngini = 0.5473\nsamples = 636\nvalue = [361, 224, 51]"];
3 -> 4;
5 [label="X[1] <= 1.5\ngini = 0.5033\nsamples = 315\nvalue = [107, 194, 14]"];
4 -> 5;
6 [label="X[0] <= 8079.5\ngini = 0.5694\nsamples = 163\nvalue = [83, 66, 14]"];
5 -> 6;
7 [label="X[0] <= 1241.0\ngini = 0.4311\nsamples = 97\nvalue = [69, 24, 4]"];
6 -> 7;
8 [label="gini = 0.0\nsamples = 8\nvalue = [0, 8, 0]"];
7 -> 8;
9 [label="X[0] <= 3429.0\ngini = 0.3646\nsamples = 89\nvalue = [69, 16, 4]"];
7 -> 9;
10 [label="gini = 0.0\nsamples = 24\nvalue = [24, 0, 0]"];
9 -> 10;
11 [label="X[0] <= 4775.5\ngini = 0.4563\nsamples = 65\nvalue = [45, 16, 4]"];
9 -> 11;
12 [label="gini = 0.4444\nsamples = 12\nvalue = [0, 8, 4]"];
11 -> 12;
13 [label="gini = 0.2563\nsamples = 53\nvalue = [45, 8, 0]"];
11 -> 13;
14 [label="X[0] <= 17318.0\ngini = 0.5271\nsamples = 66\nvalue = [14, 42, 10]"];
6 -> 14;
15 [label="X[5] <= 66.0\ngini = 0.375\nsamples = 56\nvalue = [14, 42, 0]"];
14 -> 15;
16 [label="gini = 0.0\nsamples = 4\nvalue = [4, 0, 0]"];
15 -> 16;
17 [label="X[0] <= 16995.0\ngini = 0.3107\nsamples = 52\nvalue = [10, 42, 0]"];
15 -> 17;
18 [label="gini = 0.4152\nsamples = 34\nvalue = [10, 24, 0]"];
17 -> 18;
19 [label="gini = 0.0\nsamples = 18\nvalue = [0, 18, 0]"];
17 -> 19;
20 [label="gini = 0.0\nsamples = 10\nvalue = [0, 0, 10]"];
14 -> 20;
21 [label="X[0] <= 10362.0\ngini = 0.2659\nsamples = 152\nvalue = [24, 128, 0]"];
5 -> 21;
22 [label="X[0] <= 6852.0\ngini = 0.4412\nsamples = 70\nvalue = [23, 47, 0]"];
21 -> 22;
23 [label="X[2] <= 19.0\ngini = 0.1128\nsamples = 50\nvalue = [3, 47, 0]"];
22 -> 23;
24 [label="gini = 0.0\nsamples = 47\nvalue = [0, 47, 0]"];
23 -> 24;
25 [label="gini = 0.0\nsamples = 3\nvalue = [3, 0, 0]"];
23 -> 25;
26 [label="gini = 0.0\nsamples = 20\nvalue = [20, 0, 0]"];
22 -> 26;
27 [label="X[1] <= 2.5\ngini = 0.0241\nsamples = 82\nvalue = [1, 81, 0]"];
21 -> 27;
28 [label="gini = 0.0\nsamples = 78\nvalue = [0, 78, 0]"];
27 -> 28;
29 [label="X[5] <= 61.5\ngini = 0.375\nsamples = 4\nvalue = [1, 3, 0]"];
27 -> 29;
30 [label="gini = 0.0\nsamples = 1\nvalue = [1, 0, 0]"];
29 -> 30;
31 [label="gini = 0.0\nsamples = 3\nvalue = [0, 3, 0]"];
29 -> 31;
32 [label="X[1] <= 7.5\ngini = 0.3519\nsamples = 321\nvalue = [254, 30, 37]"];
4 -> 32;
33 [label="X[2] <= 37.0\ngini = 0.5324\nsamples = 110\nvalue = [65, 8, 37]"];
32 -> 33;
34 [label="X[0] <= 11425.0\ngini = 0.4772\nsamples = 96\nvalue = [65, 8, 23]"];
33 -> 34;
35 [label="X[0] <= 5187.5\ngini = 0.2499\nsamples = 41\nvalue = [35, 6, 0]"];
34 -> 35;
36 [label="X[0] <= 2323.5\ngini = 0.1327\nsamples = 28\nvalue = [26, 2, 0]"];
35 -> 36;
37 [label="gini = 0.375\nsamples = 8\nvalue = [6, 2, 0]"];
36 -> 37;
38 [label="gini = 0.0\nsamples = 20\nvalue = [20, 0, 0]"];
36 -> 38;
39 [label="X[0] <= 5563.5\ngini = 0.426\nsamples = 13\nvalue = [9, 4, 0]"];
35 -> 39;
40 [label="gini = 0.0\nsamples = 4\nvalue = [0, 4, 0]"];
39 -> 40;
41 [label="gini = 0.0\nsamples = 9\nvalue = [9, 0, 0]"];
39 -> 41;
42 [label="X[0] <= 11886.0\ngini = 0.5263\nsamples = 55\nvalue = [30, 2, 23]"];
34 -> 42;
43 [label="gini = 0.0\nsamples = 14\nvalue = [0, 0, 14]"];
42 -> 43;
44 [label="X[0] <= 16187.0\ngini = 0.414\nsamples = 41\nvalue = [30, 2, 9]"];
42 -> 44;
45 [label="gini = 0.1327\nsamples = 28\nvalue = [26, 2, 0]"];
44 -> 45;
46 [label="gini = 0.426\nsamples = 13\nvalue = [4, 0, 9]"];
44 -> 46;
47 [label="gini = 0.0\nsamples = 14\nvalue = [0, 0, 14]"];
33 -> 47;
48 [label="X[2] <= 10.5\ngini = 0.1868\nsamples = 211\nvalue = [189, 22, 0]"];
32 -> 48;
49 [label="gini = 0.0\nsamples = 5\nvalue = [0, 5, 0]"];
48 -> 49;
50 [label="X[1] <= 11.0\ngini = 0.1514\nsamples = 206\nvalue = [189, 17, 0]"];
48 -> 50;
51 [label="X[5] <= 209.0\ngini = 0.0533\nsamples = 146\nvalue = [142, 4, 0]"];
50 -> 51;
52 [label="X[3] <= 8.5\ngini = 0.0274\nsamples = 144\nvalue = [142, 2, 0]"];
51 -> 52;
53 [label="gini = 0.014\nsamples = 142\nvalue = [141, 1, 0]"];
52 -> 53;
54 [label="gini = 0.5\nsamples = 2\nvalue = [1, 1, 0]"];
52 -> 54;
55 [label="gini = 0.0\nsamples = 2\nvalue = [0, 2, 0]"];
51 -> 55;
56 [label="X[5] <= 67.0\ngini = 0.3394\nsamples = 60\nvalue = [47, 13, 0]"];
50 -> 56;
57 [label="X[5] <= 61.0\ngini = 0.4444\nsamples = 9\nvalue = [3, 6, 0]"];
56 -> 57;
58 [label="gini = 0.0\nsamples = 3\nvalue = [3, 0, 0]"];
57 -> 58;
59 [label="gini = 0.0\nsamples = 6\nvalue = [0, 6, 0]"];
57 -> 59;
60 [label="X[5] <= 192.0\ngini = 0.2368\nsamples = 51\nvalue = [44, 7, 0]"];
56 -> 60;
61 [label="gini = 0.3841\nsamples = 27\nvalue = [20, 7, 0]"];
60 -> 61;
62 [label="gini = 0.0\nsamples = 24\nvalue = [24, 0, 0]"];
60 -> 62;
63 [label="X[0] <= 10374.5\ngini = 0.5123\nsamples = 1492\nvalue = [372, 160, 960]"];
3 -> 63;
64 [label="X[1] <= 33.5\ngini = 0.3218\nsamples = 1142\nvalue = [120, 94, 928]"];
63 -> 64;
65 [label="X[4] <= 1.5\ngini = 0.2484\nsamples = 1050\nvalue = [93, 53, 904]"];
64 -> 65;
66 [label="X[0] <= 311.5\ngini = 0.2147\nsamples = 1025\nvalue = [76, 45, 904]"];
65 -> 66;
67 [label="gini = 0.0\nsamples = 16\nvalue = [0, 16, 0]"];
66 -> 67;
68 [label="X[2] <= 25.0\ngini = 0.1908\nsamples = 1009\nvalue = [76, 29, 904]"];
66 -> 68;
69 [label="X[2] <= 13.5\ngini = 0.1371\nsamples = 841\nvalue = [36, 25, 780]"];
68 -> 69;
70 [label="gini = 0.2547\nsamples = 406\nvalue = [35, 23, 348]"];
69 -> 70;
71 [label="gini = 0.0137\nsamples = 435\nvalue = [1, 2, 432]"];
69 -> 71;
72 [label="X[0] <= 7019.5\ngini = 0.398\nsamples = 168\nvalue = [40, 4, 124]"];
68 -> 72;
73 [label="gini = 0.18\nsamples = 40\nvalue = [36, 4, 0]"];
72 -> 73;
74 [label="gini = 0.0605\nsamples = 128\nvalue = [4, 0, 124]"];
72 -> 74;
75 [label="X[5] <= 188.0\ngini = 0.4352\nsamples = 25\nvalue = [17, 8, 0]"];
65 -> 75;
76 [label="gini = 0.0\nsamples = 16\nvalue = [16, 0, 0]"];
75 -> 76;
77 [label="X[0] <= 10191.0\ngini = 0.1975\nsamples = 9\nvalue = [1, 8, 0]"];
75 -> 77;
78 [label="gini = 0.0\nsamples = 8\nvalue = [0, 8, 0]"];
77 -> 78;
79 [label="gini = 0.0\nsamples = 1\nvalue = [1, 0, 0]"];
77 -> 79;
80 [label="X[0] <= 9859.0\ngini = 0.6472\nsamples = 92\nvalue = [27, 41, 24]"];
64 -> 80;
81 [label="X[1] <= 36.5\ngini = 0.4788\nsamples = 68\nvalue = [27, 41, 0]"];
80 -> 81;
82 [label="gini = 0.0\nsamples = 12\nvalue = [12, 0, 0]"];
81 -> 82;
83 [label="X[0] <= 6940.0\ngini = 0.3922\nsamples = 56\nvalue = [15, 41, 0]"];
81 -> 83;
84 [label="X[4] <= 4.5\ngini = 0.162\nsamples = 45\nvalue = [4, 41, 0]"];
83 -> 84;
85 [label="gini = 0.1271\nsamples = 44\nvalue = [3, 41, 0]"];
84 -> 85;
86 [label="gini = 0.0\nsamples = 1\nvalue = [1, 0, 0]"];
84 -> 86;
87 [label="gini = 0.0\nsamples = 11\nvalue = [11, 0, 0]"];
83 -> 87;
88 [label="gini = 0.0\nsamples = 24\nvalue = [0, 0, 24]"];
80 -> 88;
89 [label="X[0] <= 15570.5\ngini = 0.4377\nsamples = 350\nvalue = [252, 66, 32]"];
63 -> 89;
90 [label="X[0] <= 14643.5\ngini = 0.6187\nsamples = 143\nvalue = [73, 38, 32]"];
89 -> 90;
91 [label="X[2] <= 17.0\ngini = 0.4082\nsamples = 95\nvalue = [69, 24, 2]"];
90 -> 91;
92 [label="X[0] <= 13110.5\ngini = 0.4995\nsamples = 66\nvalue = [40, 24, 2]"];
91 -> 92;
93 [label="X[1] <= 13.5\ngini = 0.5322\nsamples = 35\nvalue = [13, 20, 2]"];
92 -> 93;
94 [label="gini = 0.0\nsamples = 16\nvalue = [0, 16, 0]"];
93 -> 94;
95 [label="gini = 0.4765\nsamples = 19\nvalue = [13, 4, 2]"];
93 -> 95;
96 [label="X[0] <= 13858.0\ngini = 0.2248\nsamples = 31\nvalue = [27, 4, 0]"];
92 -> 96;
97 [label="gini = 0.0\nsamples = 21\nvalue = [21, 0, 0]"];
96 -> 97;
98 [label="gini = 0.48\nsamples = 10\nvalue = [6, 4, 0]"];
96 -> 98;
99 [label="gini = 0.0\nsamples = 29\nvalue = [29, 0, 0]"];
91 -> 99;
100 [label="X[0] <= 14750.5\ngini = 0.5174\nsamples = 48\nvalue = [4, 14, 30]"];
90 -> 100;
101 [label="gini = 0.0\nsamples = 30\nvalue = [0, 0, 30]"];
100 -> 101;
102 [label="X[0] <= 14849.5\ngini = 0.3457\nsamples = 18\nvalue = [4, 14, 0]"];
100 -> 102;
103 [label="gini = 0.0\nsamples = 2\nvalue = [2, 0, 0]"];
102 -> 103;
104 [label="X[4] <= 1.5\ngini = 0.2188\nsamples = 16\nvalue = [2, 14, 0]"];
102 -> 104;
105 [label="gini = 0.0\nsamples = 10\nvalue = [0, 10, 0]"];
104 -> 105;
106 [label="gini = 0.4444\nsamples = 6\nvalue = [2, 4, 0]"];
104 -> 106;
107 [label="X[0] <= 16510.0\ngini = 0.2339\nsamples = 207\nvalue = [179, 28, 0]"];
89 -> 107;
108 [label="X[4] <= 3.5\ngini = 0.0595\nsamples = 163\nvalue = [158, 5, 0]"];
107 -> 108;
109 [label="X[0] <= 16030.5\ngini = 0.0482\nsamples = 162\nvalue = [158, 4, 0]"];
108 -> 109;
110 [label="X[2] <= 18.0\ngini = 0.2449\nsamples = 28\nvalue = [24, 4, 0]"];
109 -> 110;
111 [label="gini = 0.0\nsamples = 4\nvalue = [0, 4, 0]"];
110 -> 111;
112 [label="gini = 0.0\nsamples = 24\nvalue = [24, 0, 0]"];
110 -> 112;
113 [label="gini = 0.0\nsamples = 134\nvalue = [134, 0, 0]"];
109 -> 113;
114 [label="gini = 0.0\nsamples = 1\nvalue = [0, 1, 0]"];
108 -> 114;
115 [label="X[0] <= 17610.0\ngini = 0.499\nsamples = 44\nvalue = [21, 23, 0]"];
107 -> 115;
116 [label="X[2] <= 28.5\ngini = 0.2524\nsamples = 27\nvalue = [4, 23, 0]"];
115 -> 116;
117 [label="gini = 0.0\nsamples = 23\nvalue = [0, 23, 0]"];
116 -> 117;
118 [label="gini = 0.0\nsamples = 4\nvalue = [4, 0, 0]"];
116 -> 118;
119 [label="gini = 0.0\nsamples = 17\nvalue = [17, 0, 0]"];
115 -> 119;
120 [label="X[0] <= 13770.0\ngini = 0.3747\nsamples = 1077\nvalue = [162, 832, 83]"];
2 -> 120;
121 [label="X[4] <= 1.5\ngini = 0.216\nsamples = 709\nvalue = [66, 624, 19]"];
120 -> 121;
122 [label="X[1] <= 84.5\ngini = 0.0803\nsamples = 577\nvalue = [5, 553, 19]"];
121 -> 122;
123 [label="X[1] <= 67.5\ngini = 0.0194\nsamples = 510\nvalue = [5, 505, 0]"];
122 -> 123;
124 [label="gini = 0.0\nsamples = 2\nvalue = [2, 0, 0]"];
123 -> 124;
125 [label="X[1] <= 72.5\ngini = 0.0117\nsamples = 508\nvalue = [3, 505, 0]"];
123 -> 125;
126 [label="X[0] <= 12116.0\ngini = 0.2778\nsamples = 6\nvalue = [1, 5, 0]"];
125 -> 126;
127 [label="gini = 0.0\nsamples = 5\nvalue = [0, 5, 0]"];
126 -> 127;
128 [label="gini = 0.0\nsamples = 1\nvalue = [1, 0, 0]"];
126 -> 128;
129 [label="X[3] <= 8.5\ngini = 0.0079\nsamples = 502\nvalue = [2, 500, 0]"];
125 -> 129;
130 [label="gini = 0.0\nsamples = 379\nvalue = [0, 379, 0]"];
129 -> 130;
131 [label="X[0] <= 6669.0\ngini = 0.032\nsamples = 123\nvalue = [2, 121, 0]"];
129 -> 131;
132 [label="gini = 0.0\nsamples = 87\nvalue = [0, 87, 0]"];
131 -> 132;
133 [label="gini = 0.1049\nsamples = 36\nvalue = [2, 34, 0]"];
131 -> 133;
134 [label="X[1] <= 86.5\ngini = 0.4063\nsamples = 67\nvalue = [0, 48, 19]"];
122 -> 134;
135 [label="gini = 0.0\nsamples = 18\nvalue = [0, 0, 18]"];
134 -> 135;
136 [label="X[0] <= 10864.0\ngini = 0.04\nsamples = 49\nvalue = [0, 48, 1]"];
134 -> 136;
137 [label="gini = 0.0\nsamples = 46\nvalue = [0, 46, 0]"];
136 -> 137;
138 [label="X[1] <= 87.5\ngini = 0.4444\nsamples = 3\nvalue = [0, 2, 1]"];
136 -> 138;
139 [label="gini = 0.0\nsamples = 1\nvalue = [0, 0, 1]"];
138 -> 139;
140 [label="gini = 0.0\nsamples = 2\nvalue = [0, 2, 0]"];
138 -> 140;
141 [label="X[1] <= 80.5\ngini = 0.4971\nsamples = 132\nvalue = [61, 71, 0]"];
121 -> 141;
142 [label="X[1] <= 73.0\ngini = 0.2008\nsamples = 53\nvalue = [47, 6, 0]"];
141 -> 142;
143 [label="X[0] <= 4977.0\ngini = 0.32\nsamples = 5\nvalue = [1, 4, 0]"];
142 -> 143;
144 [label="gini = 0.0\nsamples = 4\nvalue = [0, 4, 0]"];
143 -> 144;
145 [label="gini = 0.0\nsamples = 1\nvalue = [1, 0, 0]"];
143 -> 145;
146 [label="X[0] <= 11452.5\ngini = 0.0799\nsamples = 48\nvalue = [46, 2, 0]"];
142 -> 146;
147 [label="gini = 0.0\nsamples = 46\nvalue = [46, 0, 0]"];
146 -> 147;
148 [label="gini = 0.0\nsamples = 2\nvalue = [0, 2, 0]"];
146 -> 148;
149 [label="X[6] <= 1.5\ngini = 0.2916\nsamples = 79\nvalue = [14, 65, 0]"];
141 -> 149;
150 [label="X[0] <= 7039.0\ngini = 0.1631\nsamples = 67\nvalue = [6, 61, 0]"];
149 -> 150;
151 [label="X[0] <= 3740.0\ngini = 0.4444\nsamples = 18\nvalue = [6, 12, 0]"];
150 -> 151;
152 [label="gini = 0.0\nsamples = 12\nvalue = [0, 12, 0]"];
151 -> 152;
153 [label="gini = 0.0\nsamples = 6\nvalue = [6, 0, 0]"];
151 -> 153;
154 [label="gini = 0.0\nsamples = 49\nvalue = [0, 49, 0]"];
150 -> 154;
155 [label="X[0] <= 9628.5\ngini = 0.4444\nsamples = 12\nvalue = [8, 4, 0]"];
149 -> 155;
156 [label="gini = 0.0\nsamples = 4\nvalue = [0, 4, 0]"];
155 -> 156;
157 [label="gini = 0.0\nsamples = 8\nvalue = [8, 0, 0]"];
155 -> 157;
158 [label="X[0] <= 16294.5\ngini = 0.5822\nsamples = 368\nvalue = [96, 208, 64]"];
120 -> 158;
159 [label="X[0] <= 15613.0\ngini = 0.48\nsamples = 160\nvalue = [96, 0, 64]"];
158 -> 159;
160 [label="X[0] <= 14562.5\ngini = 0.2659\nsamples = 76\nvalue = [12, 0, 64]"];
159 -> 160;
161 [label="gini = 0.0\nsamples = 12\nvalue = [12, 0, 0]"];
160 -> 161;
162 [label="gini = 0.0\nsamples = 64\nvalue = [0, 0, 64]"];
160 -> 162;
163 [label="gini = 0.0\nsamples = 84\nvalue = [84, 0, 0]"];
159 -> 163;
164 [label="gini = 0.0\nsamples = 208\nvalue = [0, 208, 0]"];
158 -> 164;
165 [label="X[1] <= 460.5\ngini = 0.2855\nsamples = 26663\nvalue = [22077, 4533, 53]"];
1 -> 165;
166 [label="X[1] <= 158.5\ngini = 0.3889\nsamples = 17034\nvalue = [12559, 4427, 48]"];
165 -> 166;
167 [label="X[1] <= 129.0\ngini = 0.1916\nsamples = 6682\nvalue = [5965, 717, 0]"];
166 -> 167;
168 [label="X[1] <= 121.0\ngini = 0.1445\nsamples = 5064\nvalue = [4667, 397, 0]"];
167 -> 168;
169 [label="X[0] <= 388.0\ngini = 0.2729\nsamples = 2239\nvalue = [1874, 365, 0]"];
168 -> 169;
170 [label="gini = 0.0\nsamples = 16\nvalue = [0, 16, 0]"];
169 -> 170;
171 [label="X[0] <= 13836.5\ngini = 0.2647\nsamples = 2223\nvalue = [1874, 349, 0]"];
169 -> 171;
172 [label="X[6] <= 0.5\ngini = 0.3126\nsamples = 1676\nvalue = [1351, 325, 0]"];
171 -> 172;
173 [label="X[1] <= 106.5\ngini = 0.3512\nsamples = 1404\nvalue = [1085, 319, 0]"];
172 -> 173;
174 [label="gini = 0.2923\nsamples = 1097\nvalue = [902, 195, 0]"];
173 -> 174;
175 [label="gini = 0.4815\nsamples = 307\nvalue = [183, 124, 0]"];
173 -> 175;
176 [label="X[0] <= 5495.5\ngini = 0.0431\nsamples = 272\nvalue = [266, 6, 0]"];
172 -> 176;
177 [label="gini = 0.1195\nsamples = 94\nvalue = [88, 6, 0]"];
176 -> 177;
178 [label="gini = 0.0\nsamples = 178\nvalue = [178, 0, 0]"];
176 -> 178;
179 [label="X[0] <= 18120.0\ngini = 0.0839\nsamples = 547\nvalue = [523, 24, 0]"];
171 -> 179;
180 [label="X[1] <= 117.0\ngini = 0.0519\nsamples = 525\nvalue = [511, 14, 0]"];
179 -> 180;
181 [label="gini = 0.0213\nsamples = 371\nvalue = [367, 4, 0]"];
180 -> 181;
182 [label="gini = 0.1214\nsamples = 154\nvalue = [144, 10, 0]"];
180 -> 182;
183 [label="X[0] <= 18199.5\ngini = 0.4959\nsamples = 22\nvalue = [12, 10, 0]"];
179 -> 183;
184 [label="gini = 0.0\nsamples = 10\nvalue = [0, 10, 0]"];
183 -> 184;
185 [label="gini = 0.0\nsamples = 12\nvalue = [12, 0, 0]"];
183 -> 185;
186 [label="X[1] <= 125.5\ngini = 0.0224\nsamples = 2825\nvalue = [2793, 32, 0]"];
168 -> 186;
187 [label="gini = 0.0\nsamples = 1566\nvalue = [1566, 0, 0]"];
186 -> 187;
188 [label="X[0] <= 9307.0\ngini = 0.0495\nsamples = 1259\nvalue = [1227, 32, 0]"];
186 -> 188;
189 [label="X[0] <= 9195.5\ngini = 0.0858\nsamples = 712\nvalue = [680, 32, 0]"];
188 -> 189;
190 [label="X[0] <= 5604.0\ngini = 0.0659\nsamples = 704\nvalue = [680, 24, 0]"];
189 -> 190;
191 [label="gini = 0.0\nsamples = 434\nvalue = [434, 0, 0]"];
190 -> 191;
192 [label="gini = 0.162\nsamples = 270\nvalue = [246, 24, 0]"];
190 -> 192;
193 [label="gini = 0.0\nsamples = 8\nvalue = [0, 8, 0]"];
189 -> 193;
194 [label="gini = 0.0\nsamples = 547\nvalue = [547, 0, 0]"];
188 -> 194;
195 [label="X[1] <= 145.5\ngini = 0.3173\nsamples = 1618\nvalue = [1298, 320, 0]"];
167 -> 195;
196 [label="X[4] <= 1.5\ngini = 0.4248\nsamples = 784\nvalue = [544, 240, 0]"];
195 -> 196;
197 [label="X[0] <= 11461.5\ngini = 0.4875\nsamples = 221\nvalue = [93, 128, 0]"];
196 -> 197;
198 [label="X[0] <= 4955.5\ngini = 0.3397\nsamples = 83\nvalue = [65, 18, 0]"];
197 -> 198;
199 [label="X[1] <= 142.0\ngini = 0.4592\nsamples = 28\nvalue = [10, 18, 0]"];
198 -> 199;
200 [label="gini = 0.2975\nsamples = 22\nvalue = [4, 18, 0]"];
199 -> 200;
201 [label="gini = 0.0\nsamples = 6\nvalue = [6, 0, 0]"];
199 -> 201;
202 [label="gini = 0.0\nsamples = 55\nvalue = [55, 0, 0]"];
198 -> 202;
203 [label="X[1] <= 136.0\ngini = 0.3235\nsamples = 138\nvalue = [28, 110, 0]"];
197 -> 203;
204 [label="X[0] <= 15891.5\ngini = 0.1398\nsamples = 119\nvalue = [9, 110, 0]"];
203 -> 204;
205 [label="gini = 0.0\nsamples = 92\nvalue = [0, 92, 0]"];
204 -> 205;
206 [label="gini = 0.4444\nsamples = 27\nvalue = [9, 18, 0]"];
204 -> 206;
207 [label="gini = 0.0\nsamples = 19\nvalue = [19, 0, 0]"];
203 -> 207;
208 [label="X[0] <= 792.0\ngini = 0.3187\nsamples = 563\nvalue = [451, 112, 0]"];
196 -> 208;
209 [label="gini = 0.0\nsamples = 18\nvalue = [0, 18, 0]"];
208 -> 209;
210 [label="X[1] <= 132.0\ngini = 0.2855\nsamples = 545\nvalue = [451, 94, 0]"];
208 -> 210;
211 [label="X[4] <= 3.0\ngini = 0.2975\nsamples = 22\nvalue = [4, 18, 0]"];
210 -> 211;
212 [label="gini = 0.0\nsamples = 18\nvalue = [0, 18, 0]"];
211 -> 212;
213 [label="gini = 0.0\nsamples = 4\nvalue = [4, 0, 0]"];
211 -> 213;
214 [label="X[1] <= 138.0\ngini = 0.2484\nsamples = 523\nvalue = [447, 76, 0]"];
210 -> 214;
215 [label="gini = 0.0863\nsamples = 354\nvalue = [338, 16, 0]"];
214 -> 215;
216 [label="gini = 0.458\nsamples = 169\nvalue = [109, 60, 0]"];
214 -> 216;
217 [label="X[6] <= 0.5\ngini = 0.1734\nsamples = 834\nvalue = [754, 80, 0]"];
195 -> 217;
218 [label="X[1] <= 150.5\ngini = 0.2037\nsamples = 695\nvalue = [615, 80, 0]"];
217 -> 218;
219 [label="X[0] <= 7524.0\ngini = 0.14\nsamples = 449\nvalue = [415, 34, 0]"];
218 -> 219;
220 [label="X[0] <= 7455.0\ngini = 0.2416\nsamples = 185\nvalue = [159, 26, 0]"];
219 -> 220;
221 [label="gini = 0.2135\nsamples = 181\nvalue = [159, 22, 0]"];
220 -> 221;
222 [label="gini = 0.0\nsamples = 4\nvalue = [0, 4, 0]"];
220 -> 222;
223 [label="X[0] <= 11453.0\ngini = 0.0588\nsamples = 264\nvalue = [256, 8, 0]"];
219 -> 223;
224 [label="gini = 0.0\nsamples = 114\nvalue = [114, 0, 0]"];
223 -> 224;
225 [label="gini = 0.101\nsamples = 150\nvalue = [142, 8, 0]"];
223 -> 225;
226 [label="X[1] <= 154.5\ngini = 0.3041\nsamples = 246\nvalue = [200, 46, 0]"];
218 -> 226;
227 [label="X[0] <= 15610.0\ngini = 0.4628\nsamples = 66\nvalue = [42, 24, 0]"];
226 -> 227;
228 [label="gini = 0.4932\nsamples = 43\nvalue = [19, 24, 0]"];
227 -> 228;
229 [label="gini = 0.0\nsamples = 23\nvalue = [23, 0, 0]"];
227 -> 229;
230 [label="X[0] <= 12164.0\ngini = 0.2146\nsamples = 180\nvalue = [158, 22, 0]"];
226 -> 230;
231 [label="gini = 0.0\nsamples = 90\nvalue = [90, 0, 0]"];
230 -> 231;
232 [label="gini = 0.3694\nsamples = 90\nvalue = [68, 22, 0]"];
230 -> 232;
233 [label="gini = 0.0\nsamples = 139\nvalue = [139, 0, 0]"];
217 -> 233;
234 [label="X[6] <= 0.5\ngini = 0.4658\nsamples = 10352\nvalue = [6594, 3710, 48]"];
166 -> 234;
235 [label="X[1] <= 384.5\ngini = 0.4846\nsamples = 9146\nvalue = [5478, 3620, 48]"];
234 -> 235;
236 [label="X[3] <= 5.0\ngini = 0.4552\nsamples = 6722\nvalue = [4367, 2355, 0]"];
235 -> 236;
237 [label="X[1] <= 377.0\ngini = 0.4366\nsamples = 5792\nvalue = [3927, 1865, 0]"];
236 -> 237;
238 [label="X[4] <= 3.0\ngini = 0.445\nsamples = 5547\nvalue = [3693, 1854, 0]"];
237 -> 238;
239 [label="X[5] <= 125.5\ngini = 0.4524\nsamples = 5348\nvalue = [3499, 1849, 0]"];
238 -> 239;
240 [label="gini = 0.4684\nsamples = 187\nvalue = [70, 117, 0]"];
239 -> 240;
241 [label="gini = 0.4459\nsamples = 5161\nvalue = [3429, 1732, 0]"];
239 -> 241;
242 [label="X[5] <= 304.0\ngini = 0.049\nsamples = 199\nvalue = [194, 5, 0]"];
238 -> 242;
243 [label="gini = 0.2355\nsamples = 22\nvalue = [19, 3, 0]"];
242 -> 243;
244 [label="gini = 0.0223\nsamples = 177\nvalue = [175, 2, 0]"];
242 -> 244;
245 [label="X[0] <= 17756.0\ngini = 0.0858\nsamples = 245\nvalue = [234, 11, 0]"];
237 -> 245;
246 [label="X[1] <= 381.5\ngini = 0.0427\nsamples = 229\nvalue = [224, 5, 0]"];
245 -> 246;
247 [label="gini = 0.0\nsamples = 191\nvalue = [191, 0, 0]"];
246 -> 247;
248 [label="gini = 0.2285\nsamples = 38\nvalue = [33, 5, 0]"];
246 -> 248;
249 [label="X[1] <= 379.0\ngini = 0.4688\nsamples = 16\nvalue = [10, 6, 0]"];
245 -> 249;
250 [label="gini = 0.0\nsamples = 6\nvalue = [0, 6, 0]"];
249 -> 250;
251 [label="gini = 0.0\nsamples = 10\nvalue = [10, 0, 0]"];
249 -> 251;
252 [label="X[1] <= 361.0\ngini = 0.4986\nsamples = 930\nvalue = [440, 490, 0]"];
236 -> 252;
253 [label="X[1] <= 245.5\ngini = 0.492\nsamples = 870\nvalue = [380, 490, 0]"];
252 -> 253;
254 [label="X[4] <= 1.5\ngini = 0.4828\nsamples = 410\nvalue = [243, 167, 0]"];
253 -> 254;
255 [label="gini = 0.4846\nsamples = 262\nvalue = [108, 154, 0]"];
254 -> 255;
256 [label="gini = 0.1602\nsamples = 148\nvalue = [135, 13, 0]"];
254 -> 256;
257 [label="X[1] <= 282.0\ngini = 0.4183\nsamples = 460\nvalue = [137, 323, 0]"];
253 -> 257;
258 [label="gini = 0.1089\nsamples = 225\nvalue = [13, 212, 0]"];
257 -> 258;
259 [label="gini = 0.4985\nsamples = 235\nvalue = [124, 111, 0]"];
257 -> 259;
260 [label="gini = 0.0\nsamples = 60\nvalue = [60, 0, 0]"];
252 -> 260;
261 [label="X[1] <= 438.0\ngini = 0.5172\nsamples = 2424\nvalue = [1111, 1265, 48]"];
235 -> 261;
262 [label="X[1] <= 401.5\ngini = 0.4439\nsamples = 1402\nvalue = [382, 972, 48]"];
261 -> 262;
263 [label="X[1] <= 390.5\ngini = 0.5724\nsamples = 562\nvalue = [239, 275, 48]"];
262 -> 263;
264 [label="X[4] <= 1.5\ngini = 0.2378\nsamples = 174\nvalue = [24, 150, 0]"];
263 -> 264;
265 [label="gini = 0.0\nsamples = 94\nvalue = [0, 94, 0]"];
264 -> 265;
266 [label="gini = 0.42\nsamples = 80\nvalue = [24, 56, 0]"];
264 -> 266;
267 [label="X[1] <= 393.5\ngini = 0.5739\nsamples = 388\nvalue = [215, 125, 48]"];
263 -> 267;
268 [label="gini = 0.0649\nsamples = 149\nvalue = [144, 5, 0]"];
267 -> 268;
269 [label="gini = 0.6193\nsamples = 239\nvalue = [71, 120, 48]"];
267 -> 269;
270 [label="X[4] <= 3.0\ngini = 0.2825\nsamples = 840\nvalue = [143, 697, 0]"];
262 -> 270;
271 [label="X[0] <= 11168.0\ngini = 0.2523\nsamples = 817\nvalue = [121, 696, 0]"];
270 -> 271;
272 [label="gini = 0.1209\nsamples = 495\nvalue = [32, 463, 0]"];
271 -> 272;
273 [label="gini = 0.4\nsamples = 322\nvalue = [89, 233, 0]"];
271 -> 273;
274 [label="X[0] <= 13039.0\ngini = 0.0832\nsamples = 23\nvalue = [22, 1, 0]"];
270 -> 274;
275 [label="gini = 0.0\nsamples = 19\nvalue = [19, 0, 0]"];
274 -> 275;
276 [label="gini = 0.375\nsamples = 4\nvalue = [3, 1, 0]"];
274 -> 276;
277 [label="X[0] <= 17769.0\ngini = 0.409\nsamples = 1022\nvalue = [729, 293, 0]"];
261 -> 277;
278 [label="X[1] <= 459.5\ngini = 0.375\nsamples = 948\nvalue = [711, 237, 0]"];
277 -> 278;
279 [label="X[1] <= 449.0\ngini = 0.3034\nsamples = 799\nvalue = [650, 149, 0]"];
278 -> 279;
280 [label="gini = 0.4345\nsamples = 467\nvalue = [318, 149, 0]"];
279 -> 280;
281 [label="gini = 0.0\nsamples = 332\nvalue = [332, 0, 0]"];
279 -> 281;
282 [label="X[0] <= 2044.5\ngini = 0.4836\nsamples = 149\nvalue = [61, 88, 0]"];
278 -> 282;
283 [label="gini = 0.0\nsamples = 14\nvalue = [14, 0, 0]"];
282 -> 283;
284 [label="gini = 0.4539\nsamples = 135\nvalue = [47, 88, 0]"];
282 -> 284;
285 [label="X[0] <= 18269.5\ngini = 0.3682\nsamples = 74\nvalue = [18, 56, 0]"];
277 -> 285;
286 [label="X[1] <= 448.5\ngini = 0.1244\nsamples = 60\nvalue = [4, 56, 0]"];
285 -> 286;
287 [label="gini = 0.0\nsamples = 56\nvalue = [0, 56, 0]"];
286 -> 287;
288 [label="gini = 0.0\nsamples = 4\nvalue = [4, 0, 0]"];
286 -> 288;
289 [label="gini = 0.0\nsamples = 14\nvalue = [14, 0, 0]"];
285 -> 289;
290 [label="X[5] <= 227.5\ngini = 0.1381\nsamples = 1206\nvalue = [1116, 90, 0]"];
234 -> 290;
291 [label="X[1] <= 238.0\ngini = 0.2449\nsamples = 42\nvalue = [6, 36, 0]"];
290 -> 291;
292 [label="gini = 0.0\nsamples = 34\nvalue = [0, 34, 0]"];
291 -> 292;
293 [label="X[0] <= 6951.5\ngini = 0.375\nsamples = 8\nvalue = [6, 2, 0]"];
291 -> 293;
294 [label="gini = 0.0\nsamples = 2\nvalue = [0, 2, 0]"];
293 -> 294;
295 [label="gini = 0.0\nsamples = 6\nvalue = [6, 0, 0]"];
293 -> 295;
296 [label="X[1] <= 458.5\ngini = 0.0885\nsamples = 1164\nvalue = [1110, 54, 0]"];
290 -> 296;
297 [label="X[3] <= 5.0\ngini = 0.0675\nsamples = 1144\nvalue = [1104, 40, 0]"];
296 -> 297;
298 [label="X[2] <= 15.5\ngini = 0.0564\nsamples = 1137\nvalue = [1104, 33, 0]"];
297 -> 298;
299 [label="gini = 0.0\nsamples = 2\nvalue = [0, 2, 0]"];
298 -> 299;
300 [label="X[1] <= 238.0\ngini = 0.0531\nsamples = 1135\nvalue = [1104, 31, 0]"];
298 -> 300;
301 [label="gini = 0.3599\nsamples = 34\nvalue = [26, 8, 0]"];
300 -> 301;
302 [label="gini = 0.0409\nsamples = 1101\nvalue = [1078, 23, 0]"];
300 -> 302;
303 [label="gini = 0.0\nsamples = 7\nvalue = [0, 7, 0]"];
297 -> 303;
304 [label="X[0] <= 16291.0\ngini = 0.42\nsamples = 20\nvalue = [6, 14, 0]"];
296 -> 304;
305 [label="X[0] <= 1365.0\ngini = 0.2188\nsamples = 16\nvalue = [2, 14, 0]"];
304 -> 305;
306 [label="gini = 0.0\nsamples = 2\nvalue = [2, 0, 0]"];
305 -> 306;
307 [label="gini = 0.0\nsamples = 14\nvalue = [0, 14, 0]"];
305 -> 307;
308 [label="gini = 0.0\nsamples = 4\nvalue = [4, 0, 0]"];
304 -> 308;
309 [label="X[1] <= 529.5\ngini = 0.0228\nsamples = 9629\nvalue = [9518, 106, 5]"];
165 -> 309;
310 [label="X[0] <= 3506.5\ngini = 0.0069\nsamples = 9294\nvalue = [9262, 30, 2]"];
309 -> 310;
311 [label="X[0] <= 3462.0\ngini = 0.0227\nsamples = 1744\nvalue = [1724, 20, 0]"];
310 -> 311;
312 [label="X[4] <= 1.5\ngini = 0.0069\nsamples = 1730\nvalue = [1724, 6, 0]"];
311 -> 312;
313 [label="X[0] <= 946.5\ngini = 0.0317\nsamples = 372\nvalue = [366, 6, 0]"];
312 -> 313;
314 [label="X[0] <= 454.0\ngini = 0.5\nsamples = 12\nvalue = [6, 6, 0]"];
313 -> 314;
315 [label="gini = 0.0\nsamples = 6\nvalue = [6, 0, 0]"];
314 -> 315;
316 [label="gini = 0.0\nsamples = 6\nvalue = [0, 6, 0]"];
314 -> 316;
317 [label="gini = 0.0\nsamples = 360\nvalue = [360, 0, 0]"];
313 -> 317;
318 [label="gini = 0.0\nsamples = 1358\nvalue = [1358, 0, 0]"];
312 -> 318;
319 [label="gini = 0.0\nsamples = 14\nvalue = [0, 14, 0]"];
311 -> 319;
320 [label="X[1] <= 462.5\ngini = 0.0032\nsamples = 7550\nvalue = [7538, 10, 2]"];
310 -> 320;
321 [label="X[2] <= 15.5\ngini = 0.0832\nsamples = 46\nvalue = [44, 2, 0]"];
320 -> 321;
322 [label="gini = 0.0\nsamples = 2\nvalue = [0, 2, 0]"];
321 -> 322;
323 [label="gini = 0.0\nsamples = 44\nvalue = [44, 0, 0]"];
321 -> 323;
324 [label="X[5] <= 64.5\ngini = 0.0027\nsamples = 7504\nvalue = [7494, 8, 2]"];
320 -> 324;
325 [label="X[5] <= 52.5\ngini = 0.0425\nsamples = 92\nvalue = [90, 0, 2]"];
324 -> 325;
326 [label="X[0] <= 15897.5\ngini = 0.0222\nsamples = 89\nvalue = [88, 0, 1]"];
325 -> 326;
327 [label="gini = 0.0\nsamples = 70\nvalue = [70, 0, 0]"];
326 -> 327;
328 [label="X[0] <= 16845.0\ngini = 0.0997\nsamples = 19\nvalue = [18, 0, 1]"];
326 -> 328;
329 [label="gini = 0.0\nsamples = 1\nvalue = [0, 0, 1]"];
328 -> 329;
330 [label="gini = 0.0\nsamples = 18\nvalue = [18, 0, 0]"];
328 -> 330;
331 [label="X[0] <= 15609.5\ngini = 0.4444\nsamples = 3\nvalue = [2, 0, 1]"];
325 -> 331;
332 [label="gini = 0.0\nsamples = 2\nvalue = [2, 0, 0]"];
331 -> 332;
333 [label="gini = 0.0\nsamples = 1\nvalue = [0, 0, 1]"];
331 -> 333;
334 [label="X[0] <= 8062.0\ngini = 0.0022\nsamples = 7412\nvalue = [7404, 8, 0]"];
324 -> 334;
335 [label="X[0] <= 8054.5\ngini = 0.0068\nsamples = 2344\nvalue = [2336, 8, 0]"];
334 -> 335;
336 [label="gini = 0.0\nsamples = 2336\nvalue = [2336, 0, 0]"];
335 -> 336;
337 [label="gini = 0.0\nsamples = 8\nvalue = [0, 8, 0]"];
335 -> 337;
338 [label="gini = 0.0\nsamples = 5068\nvalue = [5068, 0, 0]"];
334 -> 338;
339 [label="X[1] <= 532.5\ngini = 0.3645\nsamples = 335\nvalue = [256, 76, 3]"];
309 -> 339;
340 [label="X[0] <= 15698.5\ngini = 0.4958\nsamples = 193\nvalue = [114, 76, 3]"];
339 -> 340;
341 [label="X[0] <= 10431.0\ngini = 0.0731\nsamples = 79\nvalue = [0, 76, 3]"];
340 -> 341;
342 [label="gini = 0.0\nsamples = 3\nvalue = [0, 0, 3]"];
341 -> 342;
343 [label="gini = 0.0\nsamples = 76\nvalue = [0, 76, 0]"];
341 -> 343;
344 [label="gini = 0.0\nsamples = 114\nvalue = [114, 0, 0]"];
340 -> 344;
345 [label="gini = 0.0\nsamples = 142\nvalue = [142, 0, 0]"];
339 -> 345;
346 [label="X[6] <= 0.5\ngini = 0.6487\nsamples = 31971\nvalue = [13625, 10775, 7571]"];
0 -> 346  [headlabel="False", labeldistance="2.5", labelangle="-45"];
347 [label="X[4] <= 1.5\ngini = 0.6382\nsamples = 26751\nvalue = [11629, 9718, 5404]"];
346 -> 347;
348 [label="X[1] <= 817.5\ngini = 0.6465\nsamples = 22567\nvalue = [9576, 7902, 5089]"];
347 -> 348;
349 [label="X[1] <= 791.0\ngini = 0.6337\nsamples = 10339\nvalue = [4912, 3101, 2326]"];
348 -> 349;
350 [label="X[1] <= 733.5\ngini = 0.662\nsamples = 7012\nvalue = [2534, 2533, 1945]"];
349 -> 350;
351 [label="X[0] <= 6294.5\ngini = 0.6411\nsamples = 4266\nvalue = [1650, 1748, 868]"];
350 -> 351;
352 [label="X[1] <= 654.0\ngini = 0.5908\nsamples = 1742\nvalue = [483, 958, 301]"];
351 -> 352;
353 [label="X[1] <= 641.5\ngini = 0.6665\nsamples = 817\nvalue = [276, 278, 263]"];
352 -> 353;
354 [label="X[1] <= 542.0\ngini = 0.6382\nsamples = 553\nvalue = [203, 239, 111]"];
353 -> 354;
355 [label="gini = 0.4742\nsamples = 88\nvalue = [0, 34, 54]"];
354 -> 355;
356 [label="gini = 0.6\nsamples = 465\nvalue = [203, 205, 57]"];
354 -> 356;
357 [label="X[0] <= 1098.5\ngini = 0.5702\nsamples = 264\nvalue = [73, 39, 152]"];
353 -> 357;
358 [label="gini = 0.417\nsamples = 27\nvalue = [19, 8, 0]"];
357 -> 358;
359 [label="gini = 0.5196\nsamples = 237\nvalue = [54, 31, 152]"];
357 -> 359;
360 [label="X[3] <= 7.5\ngini = 0.4078\nsamples = 925\nvalue = [207, 680, 38]"];
352 -> 360;
361 [label="X[0] <= 607.5\ngini = 0.106\nsamples = 463\nvalue = [26, 437, 0]"];
360 -> 361;
362 [label="gini = 0.0997\nsamples = 19\nvalue = [18, 1, 0]"];
361 -> 362;
363 [label="gini = 0.0354\nsamples = 444\nvalue = [8, 436, 0]"];
361 -> 363;
364 [label="X[1] <= 663.0\ngini = 0.5631\nsamples = 462\nvalue = [181, 243, 38]"];
360 -> 364;
365 [label="gini = 0.283\nsamples = 170\nvalue = [29, 141, 0]"];
364 -> 365;
366 [label="gini = 0.5901\nsamples = 292\nvalue = [152, 102, 38]"];
364 -> 366;
367 [label="X[1] <= 656.5\ngini = 0.6378\nsamples = 2524\nvalue = [1167, 790, 567]"];
351 -> 367;
368 [label="X[0] <= 7066.5\ngini = 0.6605\nsamples = 1644\nvalue = [576, 622, 446]"];
367 -> 368;
369 [label="X[0] <= 6846.5\ngini = 0.4245\nsamples = 147\nvalue = [17, 22, 108]"];
368 -> 369;
370 [label="gini = 0.6474\nsamples = 51\nvalue = [17, 22, 12]"];
369 -> 370;
371 [label="gini = 0.0\nsamples = 96\nvalue = [0, 0, 96]"];
369 -> 371;
372 [label="X[1] <= 630.5\ngini = 0.6489\nsamples = 1497\nvalue = [559, 600, 338]"];
368 -> 372;
373 [label="gini = 0.585\nsamples = 799\nvalue = [391, 324, 84]"];
372 -> 373;
374 [label="gini = 0.6533\nsamples = 698\nvalue = [168, 276, 254]"];
372 -> 374;
375 [label="X[5] <= 218.0\ngini = 0.4936\nsamples = 880\nvalue = [591, 168, 121]"];
367 -> 375;
376 [label="X[1] <= 699.5\ngini = 0.5707\nsamples = 645\nvalue = [377, 151, 117]"];
375 -> 376;
377 [label="gini = 0.447\nsamples = 338\nvalue = [242, 46, 50]"];
376 -> 377;
378 [label="gini = 0.642\nsamples = 307\nvalue = [135, 105, 67]"];
376 -> 378;
379 [label="X[0] <= 11132.5\ngini = 0.1652\nsamples = 235\nvalue = [214, 17, 4]"];
375 -> 379;
380 [label="gini = 0.5714\nsamples = 42\nvalue = [22, 16, 4]"];
379 -> 380;
381 [label="gini = 0.0103\nsamples = 193\nvalue = [192, 1, 0]"];
379 -> 381;
382 [label="X[1] <= 745.5\ngini = 0.6608\nsamples = 2746\nvalue = [884, 785, 1077]"];
350 -> 382;
383 [label="X[0] <= 11697.0\ngini = 0.6272\nsamples = 2106\nvalue = [592, 477, 1037]"];
382 -> 383;
384 [label="X[1] <= 743.0\ngini = 0.5152\nsamples = 1365\nvalue = [313, 171, 881]"];
383 -> 384;
385 [label="X[1] <= 734.5\ngini = 0.6162\nsamples = 553\nvalue = [231, 83, 239]"];
384 -> 385;
386 [label="gini = 0.5881\nsamples = 431\nvalue = [118, 74, 239]"];
385 -> 386;
387 [label="gini = 0.1367\nsamples = 122\nvalue = [113, 9, 0]"];
385 -> 387;
388 [label="X[0] <= 1368.5\ngini = 0.3529\nsamples = 812\nvalue = [82, 88, 642]"];
384 -> 388;
389 [label="gini = 0.4281\nsamples = 29\nvalue = [20, 9, 0]"];
388 -> 389;
390 [label="gini = 0.3113\nsamples = 783\nvalue = [62, 79, 642]"];
388 -> 390;
391 [label="X[0] <= 14709.0\ngini = 0.6434\nsamples = 741\nvalue = [279, 306, 156]"];
383 -> 391;
392 [label="X[0] <= 12963.0\ngini = 0.4087\nsamples = 327\nvalue = [243, 60, 24]"];
391 -> 392;
393 [label="gini = 0.2784\nsamples = 228\nvalue = [192, 18, 18]"];
392 -> 393;
394 [label="gini = 0.551\nsamples = 99\nvalue = [51, 42, 6]"];
392 -> 394;
395 [label="X[1] <= 740.0\ngini = 0.5377\nsamples = 414\nvalue = [36, 246, 132]"];
391 -> 395;
396 [label="gini = 0.5423\nsamples = 184\nvalue = [30, 40, 114]"];
395 -> 396;
397 [label="gini = 0.191\nsamples = 230\nvalue = [6, 206, 18]"];
395 -> 397;
398 [label="X[0] <= 5267.5\ngini = 0.5563\nsamples = 640\nvalue = [292, 308, 40]"];
382 -> 398;
399 [label="X[0] <= 5106.5\ngini = 0.4505\nsamples = 255\nvalue = [58, 179, 18]"];
398 -> 399;
400 [label="X[0] <= 2568.5\ngini = 0.548\nsamples = 183\nvalue = [58, 107, 18]"];
399 -> 400;
401 [label="gini = 0.4561\nsamples = 113\nvalue = [17, 80, 16]"];
400 -> 401;
402 [label="gini = 0.5073\nsamples = 70\nvalue = [41, 27, 2]"];
400 -> 402;
403 [label="gini = 0.0\nsamples = 72\nvalue = [0, 72, 0]"];
399 -> 403;
404 [label="X[1] <= 776.5\ngini = 0.5151\nsamples = 385\nvalue = [234, 129, 22]"];
398 -> 404;
405 [label="X[1] <= 761.0\ngini = 0.4723\nsamples = 338\nvalue = [225, 97, 16]"];
404 -> 405;
406 [label="gini = 0.498\nsamples = 215\nvalue = [125, 87, 3]"];
405 -> 406;
407 [label="gini = 0.3212\nsamples = 123\nvalue = [100, 10, 13]"];
405 -> 407;
408 [label="X[1] <= 784.5\ngini = 0.4835\nsamples = 47\nvalue = [9, 32, 6]"];
404 -> 408;
409 [label="gini = 0.64\nsamples = 15\nvalue = [3, 6, 6]"];
408 -> 409;
410 [label="gini = 0.3047\nsamples = 32\nvalue = [6, 26, 0]"];
408 -> 410;
411 [label="X[0] <= 1214.0\ngini = 0.4469\nsamples = 3327\nvalue = [2378, 568, 381]"];
349 -> 411;
412 [label="X[0] <= 1138.0\ngini = 0.3029\nsamples = 172\nvalue = [32, 0, 140]"];
411 -> 412;
413 [label="X[1] <= 810.5\ngini = 0.3967\nsamples = 44\nvalue = [32, 0, 12]"];
412 -> 413;
414 [label="gini = 0.0\nsamples = 31\nvalue = [31, 0, 0]"];
413 -> 414;
415 [label="X[0] <= 537.5\ngini = 0.142\nsamples = 13\nvalue = [1, 0, 12]"];
413 -> 415;
416 [label="gini = 0.0\nsamples = 12\nvalue = [0, 0, 12]"];
415 -> 416;
417 [label="gini = 0.0\nsamples = 1\nvalue = [1, 0, 0]"];
415 -> 417;
418 [label="gini = 0.0\nsamples = 128\nvalue = [0, 0, 128]"];
412 -> 418;
419 [label="X[1] <= 809.5\ngini = 0.4088\nsamples = 3155\nvalue = [2346, 568, 241]"];
411 -> 419;
420 [label="X[0] <= 1843.5\ngini = 0.2729\nsamples = 2380\nvalue = [1993, 383, 4]"];
419 -> 420;
421 [label="X[1] <= 803.5\ngini = 0.4945\nsamples = 114\nvalue = [51, 63, 0]"];
420 -> 421;
422 [label="X[1] <= 793.5\ngini = 0.1362\nsamples = 68\nvalue = [5, 63, 0]"];
421 -> 422;
423 [label="gini = 0.0\nsamples = 3\nvalue = [3, 0, 0]"];
422 -> 423;
424 [label="gini = 0.0596\nsamples = 65\nvalue = [2, 63, 0]"];
422 -> 424;
425 [label="gini = 0.0\nsamples = 46\nvalue = [46, 0, 0]"];
421 -> 425;
426 [label="X[0] <= 14762.0\ngini = 0.2456\nsamples = 2266\nvalue = [1942, 320, 4]"];
420 -> 426;
427 [label="X[1] <= 795.0\ngini = 0.2001\nsamples = 1943\nvalue = [1724, 218, 1]"];
426 -> 427;
428 [label="gini = 0.064\nsamples = 1087\nvalue = [1051, 36, 0]"];
427 -> 428;
429 [label="gini = 0.3367\nsamples = 856\nvalue = [673, 182, 1]"];
427 -> 429;
430 [label="X[0] <= 15174.5\ngini = 0.4447\nsamples = 323\nvalue = [218, 102, 3]"];
426 -> 430;
431 [label="gini = 0.088\nsamples = 65\nvalue = [0, 62, 3]"];
430 -> 431;
432 [label="gini = 0.262\nsamples = 258\nvalue = [218, 40, 0]"];
430 -> 432;
433 [label="X[0] <= 15438.5\ngini = 0.642\nsamples = 775\nvalue = [353, 185, 237]"];
419 -> 433;
434 [label="X[0] <= 14926.0\ngini = 0.603\nsamples = 647\nvalue = [345, 179, 123]"];
433 -> 434;
435 [label="X[1] <= 814.5\ngini = 0.6583\nsamples = 430\nvalue = [132, 175, 123]"];
434 -> 435;
436 [label="gini = 0.6341\nsamples = 295\nvalue = [117, 55, 123]"];
435 -> 436;
437 [label="gini = 0.1975\nsamples = 135\nvalue = [15, 120, 0]"];
435 -> 437;
438 [label="X[1] <= 813.5\ngini = 0.0362\nsamples = 217\nvalue = [213, 4, 0]"];
434 -> 438;
439 [label="gini = 0.32\nsamples = 20\nvalue = [16, 4, 0]"];
438 -> 439;
440 [label="gini = 0.0\nsamples = 197\nvalue = [197, 0, 0]"];
438 -> 440;
441 [label="X[5] <= 192.0\ngini = 0.2007\nsamples = 128\nvalue = [8, 6, 114]"];
433 -> 441;
442 [label="X[0] <= 17625.0\ngini = 0.64\nsamples = 20\nvalue = [8, 4, 8]"];
441 -> 442;
443 [label="gini = 0.4444\nsamples = 6\nvalue = [0, 4, 2]"];
442 -> 443;
444 [label="gini = 0.4898\nsamples = 14\nvalue = [8, 0, 6]"];
442 -> 444;
445 [label="X[0] <= 17051.5\ngini = 0.0364\nsamples = 108\nvalue = [0, 2, 106]"];
441 -> 445;
446 [label="gini = 0.5\nsamples = 4\nvalue = [0, 2, 2]"];
445 -> 446;
447 [label="gini = 0.0\nsamples = 104\nvalue = [0, 0, 104]"];
445 -> 447;
448 [label="X[0] <= 3693.0\ngini = 0.6493\nsamples = 12228\nvalue = [4664, 4801, 2763]"];
348 -> 448;
449 [label="X[0] <= 3545.0\ngini = 0.6487\nsamples = 2871\nvalue = [1265, 748, 858]"];
448 -> 449;
450 [label="X[0] <= 342.0\ngini = 0.6411\nsamples = 2697\nvalue = [1251, 738, 708]"];
449 -> 450;
451 [label="X[0] <= 260.0\ngini = 0.4772\nsamples = 268\nvalue = [33, 51, 184]"];
450 -> 451;
452 [label="X[2] <= 31.0\ngini = 0.6511\nsamples = 90\nvalue = [27, 39, 24]"];
451 -> 452;
453 [label="X[0] <= 188.5\ngini = 0.5856\nsamples = 75\nvalue = [27, 39, 9]"];
452 -> 453;
454 [label="gini = 0.5349\nsamples = 59\nvalue = [13, 37, 9]"];
453 -> 454;
455 [label="gini = 0.2188\nsamples = 16\nvalue = [14, 2, 0]"];
453 -> 455;
456 [label="gini = 0.0\nsamples = 15\nvalue = [0, 0, 15]"];
452 -> 456;
457 [label="X[1] <= 1072.5\ngini = 0.1863\nsamples = 178\nvalue = [6, 12, 160]"];
451 -> 457;
458 [label="X[1] <= 893.5\ngini = 0.5391\nsamples = 32\nvalue = [2, 12, 18]"];
457 -> 458;
459 [label="gini = 0.0\nsamples = 18\nvalue = [0, 0, 18]"];
458 -> 459;
460 [label="gini = 0.2449\nsamples = 14\nvalue = [2, 12, 0]"];
458 -> 460;
461 [label="X[5] <= 70.5\ngini = 0.0533\nsamples = 146\nvalue = [4, 0, 142]"];
457 -> 461;
462 [label="gini = 0.0\nsamples = 1\nvalue = [1, 0, 0]"];
461 -> 462;
463 [label="gini = 0.0405\nsamples = 145\nvalue = [3, 0, 142]"];
461 -> 463;
464 [label="X[1] <= 898.0\ngini = 0.622\nsamples = 2429\nvalue = [1218, 687, 524]"];
450 -> 464;
465 [label="X[0] <= 1880.0\ngini = 0.6632\nsamples = 712\nvalue = [233, 210, 269]"];
464 -> 465;
466 [label="X[2] <= 33.0\ngini = 0.5869\nsamples = 358\nvalue = [191, 48, 119]"];
465 -> 466;
467 [label="gini = 0.3517\nsamples = 211\nvalue = [167, 24, 20]"];
466 -> 467;
468 [label="gini = 0.4931\nsamples = 147\nvalue = [24, 24, 99]"];
466 -> 468;
469 [label="X[0] <= 3269.0\ngini = 0.597\nsamples = 354\nvalue = [42, 162, 150]"];
465 -> 469;
470 [label="gini = 0.5931\nsamples = 290\nvalue = [39, 101, 150]"];
469 -> 470;
471 [label="gini = 0.0894\nsamples = 64\nvalue = [3, 61, 0]"];
469 -> 471;
472 [label="X[1] <= 1097.5\ngini = 0.5717\nsamples = 1717\nvalue = [985, 477, 255]"];
464 -> 472;
473 [label="X[1] <= 1092.5\ngini = 0.5148\nsamples = 1497\nvalue = [942, 429, 126]"];
472 -> 473;
474 [label="gini = 0.5685\nsamples = 1215\nvalue = [663, 426, 126]"];
473 -> 474;
475 [label="gini = 0.0211\nsamples = 282\nvalue = [279, 3, 0]"];
473 -> 475;
476 [label="X[1] <= 1103.5\ngini = 0.5704\nsamples = 220\nvalue = [43, 48, 129]"];
472 -> 476;
477 [label="gini = 0.1658\nsamples = 135\nvalue = [5, 7, 123]"];
476 -> 477;
478 [label="gini = 0.5625\nsamples = 85\nvalue = [38, 41, 6]"];
476 -> 478;
479 [label="X[1] <= 903.5\ngini = 0.2471\nsamples = 174\nvalue = [14, 10, 150]"];
449 -> 479;
480 [label="gini = 0.0\nsamples = 7\nvalue = [0, 7, 0]"];
479 -> 480;
481 [label="X[1] <= 1052.5\ngini = 0.1859\nsamples = 167\nvalue = [14, 3, 150]"];
479 -> 481;
482 [label="X[3] <= 3.0\ngini = 0.1281\nsamples = 161\nvalue = [10, 1, 150]"];
481 -> 482;
483 [label="gini = 0.0\nsamples = 2\nvalue = [2, 0, 0]"];
482 -> 483;
484 [label="X[0] <= 3627.5\ngini = 0.1074\nsamples = 159\nvalue = [8, 1, 150]"];
482 -> 484;
485 [label="gini = 0.0172\nsamples = 115\nvalue = [0, 1, 114]"];
484 -> 485;
486 [label="gini = 0.2975\nsamples = 44\nvalue = [8, 0, 36]"];
484 -> 486;
487 [label="X[1] <= 1069.5\ngini = 0.4444\nsamples = 6\nvalue = [4, 2, 0]"];
481 -> 487;
488 [label="gini = 0.0\nsamples = 4\nvalue = [4, 0, 0]"];
487 -> 488;
489 [label="gini = 0.0\nsamples = 2\nvalue = [0, 2, 0]"];
487 -> 489;
490 [label="X[0] <= 3745.0\ngini = 0.639\nsamples = 9357\nvalue = [3399, 4053, 1905]"];
448 -> 490;
491 [label="X[2] <= 38.5\ngini = 0.0619\nsamples = 252\nvalue = [6, 244, 2]"];
490 -> 491;
492 [label="X[1] <= 981.5\ngini = 0.0471\nsamples = 250\nvalue = [4, 244, 2]"];
491 -> 492;
493 [label="gini = 0.0\nsamples = 212\nvalue = [0, 212, 0]"];
492 -> 493;
494 [label="X[1] <= 1059.5\ngini = 0.277\nsamples = 38\nvalue = [4, 32, 2]"];
492 -> 494;
495 [label="X[1] <= 992.5\ngini = 0.4444\nsamples = 6\nvalue = [4, 0, 2]"];
494 -> 495;
496 [label="gini = 0.0\nsamples = 2\nvalue = [0, 0, 2]"];
495 -> 496;
497 [label="gini = 0.0\nsamples = 4\nvalue = [4, 0, 0]"];
495 -> 497;
498 [label="gini = 0.0\nsamples = 32\nvalue = [0, 32, 0]"];
494 -> 498;
499 [label="gini = 0.0\nsamples = 2\nvalue = [2, 0, 0]"];
491 -> 499;
500 [label="X[1] <= 863.5\ngini = 0.6424\nsamples = 9105\nvalue = [3393, 3809, 1903]"];
490 -> 500;
501 [label="X[0] <= 15918.5\ngini = 0.5693\nsamples = 1967\nvalue = [630, 1102, 235]"];
500 -> 501;
502 [label="X[1] <= 855.0\ngini = 0.619\nsamples = 1395\nvalue = [556, 620, 219]"];
501 -> 502;
503 [label="X[2] <= 9.0\ngini = 0.6256\nsamples = 1301\nvalue = [554, 528, 219]"];
502 -> 503;
504 [label="gini = 0.0\nsamples = 62\nvalue = [62, 0, 0]"];
503 -> 504;
505 [label="gini = 0.6295\nsamples = 1239\nvalue = [492, 528, 219]"];
503 -> 505;
506 [label="X[3] <= 4.0\ngini = 0.0416\nsamples = 94\nvalue = [2, 92, 0]"];
502 -> 506;
507 [label="gini = 0.5\nsamples = 4\nvalue = [2, 2, 0]"];
506 -> 507;
508 [label="gini = 0.0\nsamples = 90\nvalue = [0, 90, 0]"];
506 -> 508;
509 [label="X[1] <= 824.0\ngini = 0.2724\nsamples = 572\nvalue = [74, 482, 16]"];
501 -> 509;
510 [label="X[0] <= 16217.5\ngini = 0.5817\nsamples = 136\nvalue = [54, 68, 14]"];
509 -> 510;
511 [label="gini = 0.0\nsamples = 38\nvalue = [0, 38, 0]"];
510 -> 511;
512 [label="gini = 0.5823\nsamples = 98\nvalue = [54, 30, 14]"];
510 -> 512;
513 [label="X[2] <= 13.5\ngini = 0.0962\nsamples = 436\nvalue = [20, 414, 2]"];
509 -> 513;
514 [label="gini = 0.1896\nsamples = 172\nvalue = [16, 154, 2]"];
513 -> 514;
515 [label="gini = 0.0298\nsamples = 264\nvalue = [4, 260, 0]"];
513 -> 515;
516 [label="X[1] <= 894.5\ngini = 0.6517\nsamples = 7138\nvalue = [2763, 2707, 1668]"];
500 -> 516;
517 [label="X[1] <= 892.5\ngini = 0.5015\nsamples = 1062\nvalue = [690, 278, 94]"];
516 -> 517;
518 [label="X[0] <= 7668.0\ngini = 0.5931\nsamples = 605\nvalue = [289, 246, 70]"];
517 -> 518;
519 [label="gini = 0.3353\nsamples = 144\nvalue = [114, 2, 28]"];
518 -> 519;
520 [label="gini = 0.5675\nsamples = 461\nvalue = [175, 244, 42]"];
518 -> 520;
521 [label="X[0] <= 8368.5\ngini = 0.2224\nsamples = 457\nvalue = [401, 32, 24]"];
517 -> 521;
522 [label="gini = 0.6605\nsamples = 54\nvalue = [21, 15, 18]"];
521 -> 522;
523 [label="gini = 0.1089\nsamples = 403\nvalue = [380, 17, 6]"];
521 -> 523;
524 [label="X[0] <= 11823.0\ngini = 0.6567\nsamples = 6076\nvalue = [2073, 2429, 1574]"];
516 -> 524;
525 [label="X[0] <= 5339.5\ngini = 0.6544\nsamples = 3378\nvalue = [930, 1427, 1021]"];
524 -> 525;
526 [label="gini = 0.5741\nsamples = 525\nvalue = [297, 154, 74]"];
525 -> 526;
527 [label="gini = 0.6415\nsamples = 2853\nvalue = [633, 1273, 947]"];
525 -> 527;
528 [label="X[0] <= 13165.5\ngini = 0.6406\nsamples = 2698\nvalue = [1143, 1002, 553]"];
524 -> 528;
529 [label="gini = 0.5159\nsamples = 650\nvalue = [420, 144, 86]"];
528 -> 529;
530 [label="gini = 0.6479\nsamples = 2048\nvalue = [723, 858, 467]"];
528 -> 530;
531 [label="X[5] <= 196.0\ngini = 0.5652\nsamples = 4184\nvalue = [2053, 1816, 315]"];
347 -> 531;
532 [label="X[3] <= 7.5\ngini = 0.5367\nsamples = 2154\nvalue = [1241, 767, 146]"];
531 -> 532;
533 [label="X[1] <= 659.0\ngini = 0.4948\nsamples = 474\nvalue = [196, 274, 4]"];
532 -> 533;
534 [label="X[0] <= 14726.0\ngini = 0.4517\nsamples = 119\nvalue = [78, 41, 0]"];
533 -> 534;
535 [label="X[0] <= 9054.0\ngini = 0.4915\nsamples = 92\nvalue = [52, 40, 0]"];
534 -> 535;
536 [label="X[1] <= 571.0\ngini = 0.3863\nsamples = 65\nvalue = [48, 17, 0]"];
535 -> 536;
537 [label="gini = 0.0\nsamples = 8\nvalue = [0, 8, 0]"];
536 -> 537;
538 [label="X[1] <= 608.0\ngini = 0.2659\nsamples = 57\nvalue = [48, 9, 0]"];
536 -> 538;
539 [label="gini = 0.0\nsamples = 20\nvalue = [20, 0, 0]"];
538 -> 539;
540 [label="gini = 0.3682\nsamples = 37\nvalue = [28, 9, 0]"];
538 -> 540;
541 [label="X[1] <= 608.0\ngini = 0.2524\nsamples = 27\nvalue = [4, 23, 0]"];
535 -> 541;
542 [label="X[5] <= 62.0\ngini = 0.5\nsamples = 4\nvalue = [2, 2, 0]"];
541 -> 542;
543 [label="gini = 0.0\nsamples = 2\nvalue = [0, 2, 0]"];
542 -> 543;
544 [label="gini = 0.0\nsamples = 2\nvalue = [2, 0, 0]"];
542 -> 544;
545 [label="X[1] <= 622.5\ngini = 0.1588\nsamples = 23\nvalue = [2, 21, 0]"];
541 -> 545;
546 [label="gini = 0.0\nsamples = 12\nvalue = [0, 12, 0]"];
545 -> 546;
547 [label="gini = 0.2975\nsamples = 11\nvalue = [2, 9, 0]"];
545 -> 547;
548 [label="X[0] <= 18102.5\ngini = 0.0713\nsamples = 27\nvalue = [26, 1, 0]"];
534 -> 548;
549 [label="gini = 0.0\nsamples = 26\nvalue = [26, 0, 0]"];
548 -> 549;
550 [label="gini = 0.0\nsamples = 1\nvalue = [0, 1, 0]"];
548 -> 550;
551 [label="X[0] <= 9404.5\ngini = 0.4586\nsamples = 355\nvalue = [118, 233, 4]"];
533 -> 551;
552 [label="X[3] <= 3.0\ngini = 0.4979\nsamples = 154\nvalue = [72, 82, 0]"];
551 -> 552;
553 [label="gini = 0.0\nsamples = 25\nvalue = [25, 0, 0]"];
552 -> 553;
554 [label="X[0] <= 5750.0\ngini = 0.4632\nsamples = 129\nvalue = [47, 82, 0]"];
552 -> 554;
555 [label="X[1] <= 1058.0\ngini = 0.3386\nsamples = 88\nvalue = [19, 69, 0]"];
554 -> 555;
556 [label="gini = 0.2668\nsamples = 82\nvalue = [13, 69, 0]"];
555 -> 556;
557 [label="gini = 0.0\nsamples = 6\nvalue = [6, 0, 0]"];
555 -> 557;
558 [label="X[1] <= 821.0\ngini = 0.4331\nsamples = 41\nvalue = [28, 13, 0]"];
554 -> 558;
559 [label="gini = 0.2188\nsamples = 24\nvalue = [21, 3, 0]"];
558 -> 559;
560 [label="gini = 0.4844\nsamples = 17\nvalue = [7, 10, 0]"];
558 -> 560;
561 [label="X[0] <= 12730.0\ngini = 0.3829\nsamples = 201\nvalue = [46, 151, 4]"];
551 -> 561;
562 [label="X[0] <= 10755.5\ngini = 0.0997\nsamples = 76\nvalue = [4, 72, 0]"];
561 -> 562;
563 [label="X[0] <= 10136.5\ngini = 0.375\nsamples = 16\nvalue = [4, 12, 0]"];
562 -> 563;
564 [label="gini = 0.0\nsamples = 12\nvalue = [0, 12, 0]"];
563 -> 564;
565 [label="gini = 0.0\nsamples = 4\nvalue = [4, 0, 0]"];
563 -> 565;
566 [label="gini = 0.0\nsamples = 60\nvalue = [0, 60, 0]"];
562 -> 566;
567 [label="X[1] <= 879.0\ngini = 0.4867\nsamples = 125\nvalue = [42, 79, 4]"];
561 -> 567;
568 [label="X[0] <= 13138.5\ngini = 0.3457\nsamples = 99\nvalue = [22, 77, 0]"];
567 -> 568;
569 [label="gini = 0.0\nsamples = 14\nvalue = [14, 0, 0]"];
568 -> 569;
570 [label="gini = 0.1705\nsamples = 85\nvalue = [8, 77, 0]"];
568 -> 570;
571 [label="X[0] <= 14204.5\ngini = 0.3787\nsamples = 26\nvalue = [20, 2, 4]"];
567 -> 571;
572 [label="gini = 0.0\nsamples = 4\nvalue = [0, 0, 4]"];
571 -> 572;
573 [label="gini = 0.1653\nsamples = 22\nvalue = [20, 2, 0]"];
571 -> 573;
574 [label="X[2] <= 12.5\ngini = 0.5198\nsamples = 1680\nvalue = [1045, 493, 142]"];
532 -> 574;
575 [label="X[1] <= 766.5\ngini = 0.3616\nsamples = 648\nvalue = [497, 145, 6]"];
574 -> 575;
576 [label="X[2] <= 9.0\ngini = 0.4434\nsamples = 208\nvalue = [139, 69, 0]"];
575 -> 576;
577 [label="gini = 0.0\nsamples = 6\nvalue = [0, 6, 0]"];
576 -> 577;
578 [label="X[1] <= 560.0\ngini = 0.4292\nsamples = 202\nvalue = [139, 63, 0]"];
576 -> 578;
579 [label="gini = 0.0\nsamples = 4\nvalue = [0, 4, 0]"];
578 -> 579;
580 [label="X[1] <= 617.0\ngini = 0.4184\nsamples = 198\nvalue = [139, 59, 0]"];
578 -> 580;
581 [label="gini = 0.1709\nsamples = 53\nvalue = [48, 5, 0]"];
580 -> 581;
582 [label="gini = 0.4674\nsamples = 145\nvalue = [91, 54, 0]"];
580 -> 582;
583 [label="X[5] <= 46.5\ngini = 0.308\nsamples = 440\nvalue = [358, 76, 6]"];
575 -> 583;
584 [label="X[0] <= 1797.5\ngini = 0.32\nsamples = 5\nvalue = [1, 4, 0]"];
583 -> 584;
585 [label="gini = 0.0\nsamples = 2\nvalue = [0, 2, 0]"];
584 -> 585;
586 [label="X[5] <= 41.0\ngini = 0.4444\nsamples = 3\nvalue = [1, 2, 0]"];
584 -> 586;
587 [label="gini = 0.0\nsamples = 1\nvalue = [1, 0, 0]"];
586 -> 587;
588 [label="gini = 0.0\nsamples = 2\nvalue = [0, 2, 0]"];
586 -> 588;
589 [label="X[1] <= 1009.0\ngini = 0.2989\nsamples = 435\nvalue = [357, 72, 6]"];
583 -> 589;
590 [label="X[0] <= 1060.5\ngini = 0.2484\nsamples = 302\nvalue = [259, 38, 5]"];
589 -> 590;
591 [label="gini = 0.4608\nsamples = 25\nvalue = [16, 9, 0]"];
590 -> 591;
592 [label="gini = 0.2191\nsamples = 277\nvalue = [243, 29, 5]"];
590 -> 592;
593 [label="X[0] <= 13358.0\ngini = 0.3917\nsamples = 133\nvalue = [98, 34, 1]"];
589 -> 593;
594 [label="gini = 0.451\nsamples = 99\nvalue = [66, 32, 1]"];
593 -> 594;
595 [label="gini = 0.1107\nsamples = 34\nvalue = [32, 2, 0]"];
593 -> 595;
596 [label="X[1] <= 713.5\ngini = 0.587\nsamples = 1032\nvalue = [548, 348, 136]"];
574 -> 596;
597 [label="X[1] <= 705.5\ngini = 0.4621\nsamples = 346\nvalue = [238, 85, 23]"];
596 -> 597;
598 [label="X[1] <= 659.0\ngini = 0.5798\nsamples = 221\nvalue = [113, 85, 23]"];
597 -> 598;
599 [label="X[0] <= 14160.5\ngini = 0.4954\nsamples = 119\nvalue = [78, 31, 10]"];
598 -> 599;
600 [label="gini = 0.555\nsamples = 89\nvalue = [50, 31, 8]"];
599 -> 600;
601 [label="gini = 0.1244\nsamples = 30\nvalue = [28, 0, 2]"];
599 -> 601;
602 [label="X[0] <= 287.5\ngini = 0.5857\nsamples = 102\nvalue = [35, 54, 13]"];
598 -> 602;
603 [label="gini = 0.0\nsamples = 4\nvalue = [0, 0, 4]"];
602 -> 603;
604 [label="gini = 0.5604\nsamples = 98\nvalue = [35, 54, 9]"];
602 -> 604;
605 [label="gini = 0.0\nsamples = 125\nvalue = [125, 0, 0]"];
597 -> 605;
606 [label="X[0] <= 18171.0\ngini = 0.6217\nsamples = 686\nvalue = [310, 263, 113]"];
596 -> 606;
607 [label="X[2] <= 14.5\ngini = 0.6251\nsamples = 669\nvalue = [293, 263, 113]"];
606 -> 607;
608 [label="X[1] <= 1084.0\ngini = 0.4395\nsamples = 46\nvalue = [15, 31, 0]"];
607 -> 608;
609 [label="gini = 0.3866\nsamples = 42\nvalue = [11, 31, 0]"];
608 -> 609;
610 [label="gini = 0.0\nsamples = 4\nvalue = [4, 0, 0]"];
608 -> 610;
611 [label="X[2] <= 18.5\ngini = 0.6293\nsamples = 623\nvalue = [278, 232, 113]"];
607 -> 611;
612 [label="gini = 0.6338\nsamples = 543\nvalue = [248, 186, 109]"];
611 -> 612;
613 [label="gini = 0.5262\nsamples = 80\nvalue = [30, 46, 4]"];
611 -> 613;
614 [label="gini = 0.0\nsamples = 17\nvalue = [17, 0, 0]"];
606 -> 614;
615 [label="X[5] <= 258.0\ngini = 0.566\nsamples = 2030\nvalue = [812, 1049, 169]"];
531 -> 615;
616 [label="X[5] <= 204.5\ngini = 0.5745\nsamples = 1050\nvalue = [284, 601, 165]"];
615 -> 616;
617 [label="X[5] <= 202.5\ngini = 0.6222\nsamples = 742\nvalue = [209, 372, 161]"];
616 -> 617;
618 [label="X[5] <= 197.5\ngini = 0.5585\nsamples = 299\nvalue = [125, 153, 21]"];
617 -> 618;
619 [label="X[0] <= 8475.0\ngini = 0.4596\nsamples = 190\nvalue = [68, 122, 0]"];
618 -> 619;
620 [label="X[0] <= 5865.0\ngini = 0.4756\nsamples = 77\nvalue = [47, 30, 0]"];
619 -> 620;
621 [label="gini = 0.4882\nsamples = 52\nvalue = [22, 30, 0]"];
620 -> 621;
622 [label="gini = 0.0\nsamples = 25\nvalue = [25, 0, 0]"];
620 -> 622;
623 [label="X[0] <= 18371.5\ngini = 0.3026\nsamples = 113\nvalue = [21, 92, 0]"];
619 -> 623;
624 [label="gini = 0.2411\nsamples = 107\nvalue = [15, 92, 0]"];
623 -> 624;
625 [label="gini = 0.0\nsamples = 6\nvalue = [6, 0, 0]"];
623 -> 625;
626 [label="X[1] <= 966.5\ngini = 0.6085\nsamples = 109\nvalue = [57, 31, 21]"];
618 -> 626;
627 [label="X[1] <= 705.5\ngini = 0.4773\nsamples = 61\nvalue = [42, 10, 9]"];
626 -> 627;
628 [label="gini = 0.64\nsamples = 5\nvalue = [1, 2, 2]"];
627 -> 628;
629 [label="gini = 0.4279\nsamples = 56\nvalue = [41, 8, 7]"];
627 -> 629;
630 [label="X[1] <= 1001.5\ngini = 0.6484\nsamples = 48\nvalue = [15, 21, 12]"];
626 -> 630;
631 [label="gini = 0.2449\nsamples = 7\nvalue = [1, 6, 0]"];
630 -> 631;
632 [label="gini = 0.6639\nsamples = 41\nvalue = [14, 15, 12]"];
630 -> 632;
633 [label="X[1] <= 668.5\ngini = 0.6198\nsamples = 443\nvalue = [84, 219, 140]"];
617 -> 633;
634 [label="X[1] <= 599.5\ngini = 0.6606\nsamples = 48\nvalue = [15, 14, 19]"];
633 -> 634;
635 [label="X[0] <= 3949.0\ngini = 0.4082\nsamples = 7\nvalue = [0, 5, 2]"];
634 -> 635;
636 [label="gini = 0.0\nsamples = 1\nvalue = [0, 0, 1]"];
635 -> 636;
637 [label="gini = 0.2778\nsamples = 6\nvalue = [0, 5, 1]"];
635 -> 637;
638 [label="X[0] <= 6541.0\ngini = 0.646\nsamples = 41\nvalue = [15, 9, 17]"];
634 -> 638;
639 [label="gini = 0.602\nsamples = 14\nvalue = [2, 5, 7]"];
638 -> 639;
640 [label="gini = 0.6091\nsamples = 27\nvalue = [13, 4, 10]"];
638 -> 640;
641 [label="X[2] <= 13.0\ngini = 0.6063\nsamples = 395\nvalue = [69, 205, 121]"];
633 -> 641;
642 [label="gini = 0.0\nsamples = 2\nvalue = [2, 0, 0]"];
641 -> 642;
643 [label="X[0] <= 13230.5\ngini = 0.604\nsamples = 393\nvalue = [67, 205, 121]"];
641 -> 643;
644 [label="gini = 0.5935\nsamples = 285\nvalue = [51, 156, 78]"];
643 -> 644;
645 [label="gini = 0.6137\nsamples = 108\nvalue = [16, 49, 43]"];
643 -> 645;
646 [label="X[0] <= 8113.0\ngini = 0.3877\nsamples = 308\nvalue = [75, 229, 4]"];
616 -> 646;
647 [label="X[0] <= 6022.5\ngini = 0.4818\nsamples = 131\nvalue = [53, 78, 0]"];
646 -> 647;
648 [label="X[0] <= 1440.0\ngini = 0.288\nsamples = 86\nvalue = [15, 71, 0]"];
647 -> 648;
649 [label="X[1] <= 773.0\ngini = 0.4331\nsamples = 41\nvalue = [13, 28, 0]"];
648 -> 649;
650 [label="gini = 0.455\nsamples = 20\nvalue = [13, 7, 0]"];
649 -> 650;
651 [label="gini = 0.0\nsamples = 21\nvalue = [0, 21, 0]"];
649 -> 651;
652 [label="X[1] <= 914.0\ngini = 0.0849\nsamples = 45\nvalue = [2, 43, 0]"];
648 -> 652;
653 [label="gini = 0.0\nsamples = 40\nvalue = [0, 40, 0]"];
652 -> 653;
654 [label="gini = 0.48\nsamples = 5\nvalue = [2, 3, 0]"];
652 -> 654;
655 [label="X[0] <= 7534.5\ngini = 0.2627\nsamples = 45\nvalue = [38, 7, 0]"];
647 -> 655;
656 [label="X[0] <= 7232.0\ngini = 0.4321\nsamples = 19\nvalue = [13, 6, 0]"];
655 -> 656;
657 [label="gini = 0.0\nsamples = 13\nvalue = [13, 0, 0]"];
656 -> 657;
658 [label="gini = 0.0\nsamples = 6\nvalue = [0, 6, 0]"];
656 -> 658;
659 [label="X[1] <= 622.5\ngini = 0.074\nsamples = 26\nvalue = [25, 1, 0]"];
655 -> 659;
660 [label="gini = 0.0\nsamples = 1\nvalue = [0, 1, 0]"];
659 -> 660;
661 [label="gini = 0.0\nsamples = 25\nvalue = [25, 0, 0]"];
659 -> 661;
662 [label="X[0] <= 18209.0\ngini = 0.2562\nsamples = 177\nvalue = [22, 151, 4]"];
646 -> 662;
663 [label="X[1] <= 1106.5\ngini = 0.212\nsamples = 170\nvalue = [16, 150, 4]"];
662 -> 663;
664 [label="X[0] <= 13372.5\ngini = 0.1742\nsamples = 166\nvalue = [16, 150, 0]"];
663 -> 664;
665 [label="gini = 0.3306\nsamples = 67\nvalue = [14, 53, 0]"];
664 -> 665;
666 [label="gini = 0.0396\nsamples = 99\nvalue = [2, 97, 0]"];
664 -> 666;
667 [label="gini = 0.0\nsamples = 4\nvalue = [0, 0, 4]"];
663 -> 667;
668 [label="X[1] <= 796.5\ngini = 0.2449\nsamples = 7\nvalue = [6, 1, 0]"];
662 -> 668;
669 [label="gini = 0.0\nsamples = 6\nvalue = [6, 0, 0]"];
668 -> 669;
670 [label="gini = 0.0\nsamples = 1\nvalue = [0, 1, 0]"];
668 -> 670;
671 [label="X[5] <= 277.5\ngini = 0.5007\nsamples = 980\nvalue = [528, 448, 4]"];
615 -> 671;
672 [label="gini = 0.0\nsamples = 64\nvalue = [64, 0, 0]"];
671 -> 672;
673 [label="X[5] <= 311.5\ngini = 0.5042\nsamples = 916\nvalue = [464, 448, 4]"];
671 -> 673;
674 [label="X[0] <= 15754.5\ngini = 0.4859\nsamples = 644\nvalue = [268, 376, 0]"];
673 -> 674;
675 [label="X[0] <= 9071.5\ngini = 0.4605\nsamples = 548\nvalue = [197, 351, 0]"];
674 -> 675;
676 [label="X[0] <= 6006.5\ngini = 0.4988\nsamples = 305\nvalue = [160, 145, 0]"];
675 -> 676;
677 [label="gini = 0.4743\nsamples = 194\nvalue = [75, 119, 0]"];
676 -> 677;
678 [label="gini = 0.3587\nsamples = 111\nvalue = [85, 26, 0]"];
676 -> 678;
679 [label="X[1] <= 608.0\ngini = 0.2582\nsamples = 243\nvalue = [37, 206, 0]"];
675 -> 679;
680 [label="gini = 0.0\nsamples = 5\nvalue = [5, 0, 0]"];
679 -> 680;
681 [label="gini = 0.2328\nsamples = 238\nvalue = [32, 206, 0]"];
679 -> 681;
682 [label="X[0] <= 16734.5\ngini = 0.3852\nsamples = 96\nvalue = [71, 25, 0]"];
674 -> 682;
683 [label="gini = 0.0\nsamples = 37\nvalue = [37, 0, 0]"];
682 -> 683;
684 [label="X[0] <= 16862.5\ngini = 0.4884\nsamples = 59\nvalue = [34, 25, 0]"];
682 -> 684;
685 [label="gini = 0.0\nsamples = 13\nvalue = [0, 13, 0]"];
684 -> 685;
686 [label="gini = 0.3856\nsamples = 46\nvalue = [34, 12, 0]"];
684 -> 686;
687 [label="X[0] <= 422.5\ngini = 0.4105\nsamples = 272\nvalue = [196, 72, 4]"];
673 -> 687;
688 [label="gini = 0.0\nsamples = 11\nvalue = [0, 11, 0]"];
687 -> 688;
689 [label="X[1] <= 724.5\ngini = 0.3812\nsamples = 261\nvalue = [196, 61, 4]"];
687 -> 689;
690 [label="X[2] <= 52.0\ngini = 0.0588\nsamples = 66\nvalue = [64, 2, 0]"];
689 -> 690;
691 [label="gini = 0.0\nsamples = 63\nvalue = [63, 0, 0]"];
690 -> 691;
692 [label="gini = 0.4444\nsamples = 3\nvalue = [1, 2, 0]"];
690 -> 692;
693 [label="X[1] <= 884.5\ngini = 0.4498\nsamples = 195\nvalue = [132, 59, 4]"];
689 -> 693;
694 [label="gini = 0.375\nsamples = 32\nvalue = [8, 24, 0]"];
693 -> 694;
695 [label="gini = 0.3746\nsamples = 163\nvalue = [124, 35, 4]"];
693 -> 695;
696 [label="X[1] <= 1099.5\ngini = 0.6405\nsamples = 5220\nvalue = [1996, 1057, 2167]"];
346 -> 696;
697 [label="X[1] <= 1094.5\ngini = 0.6426\nsamples = 4717\nvalue = [1896, 975, 1846]"];
696 -> 697;
698 [label="X[1] <= 894.5\ngini = 0.6449\nsamples = 4560\nvalue = [1742, 974, 1844]"];
697 -> 698;
699 [label="X[1] <= 871.0\ngini = 0.638\nsamples = 3266\nvalue = [1414, 655, 1197]"];
698 -> 699;
700 [label="X[6] <= 16.0\ngini = 0.6406\nsamples = 2711\nvalue = [1034, 550, 1127]"];
699 -> 700;
701 [label="X[5] <= 202.5\ngini = 0.6407\nsamples = 2613\nvalue = [950, 542, 1121]"];
700 -> 701;
702 [label="X[1] <= 852.5\ngini = 0.6512\nsamples = 1948\nvalue = [766, 453, 729]"];
701 -> 702;
703 [label="X[5] <= 75.5\ngini = 0.6518\nsamples = 1908\nvalue = [766, 451, 691]"];
702 -> 703;
704 [label="gini = 0.6063\nsamples = 502\nvalue = [268, 119, 115]"];
703 -> 704;
705 [label="gini = 0.651\nsamples = 1406\nvalue = [498, 332, 576]"];
703 -> 705;
706 [label="X[0] <= 3777.5\ngini = 0.095\nsamples = 40\nvalue = [0, 2, 38]"];
702 -> 706;
707 [label="gini = 0.0\nsamples = 33\nvalue = [0, 0, 33]"];
706 -> 707;
708 [label="gini = 0.4082\nsamples = 7\nvalue = [0, 2, 5]"];
706 -> 708;
709 [label="X[2] <= 9.0\ngini = 0.5581\nsamples = 665\nvalue = [184, 89, 392]"];
701 -> 709;
710 [label="gini = 0.0\nsamples = 12\nvalue = [12, 0, 0]"];
709 -> 710;
711 [label="X[5] <= 298.0\ngini = 0.5517\nsamples = 653\nvalue = [172, 89, 392]"];
709 -> 711;
712 [label="gini = 0.5058\nsamples = 524\nvalue = [124, 58, 342]"];
711 -> 712;
713 [label="gini = 0.6536\nsamples = 129\nvalue = [48, 31, 50]"];
711 -> 713;
714 [label="X[0] <= 6192.0\ngini = 0.2549\nsamples = 98\nvalue = [84, 8, 6]"];
700 -> 714;
715 [label="X[0] <= 5416.0\ngini = 0.5442\nsamples = 21\nvalue = [13, 4, 4]"];
714 -> 715;
716 [label="X[5] <= 91.5\ngini = 0.3599\nsamples = 17\nvalue = [13, 0, 4]"];
715 -> 716;
717 [label="gini = 0.5\nsamples = 8\nvalue = [4, 0, 4]"];
716 -> 717;
718 [label="gini = 0.0\nsamples = 9\nvalue = [9, 0, 0]"];
716 -> 718;
719 [label="gini = 0.0\nsamples = 4\nvalue = [0, 4, 0]"];
715 -> 719;
720 [label="X[6] <= 44.5\ngini = 0.1464\nsamples = 77\nvalue = [71, 4, 2]"];
714 -> 720;
721 [label="X[5] <= 197.5\ngini = 0.1063\nsamples = 71\nvalue = [67, 4, 0]"];
720 -> 721;
722 [label="gini = 0.0\nsamples = 47\nvalue = [47, 0, 0]"];
721 -> 722;
723 [label="gini = 0.2778\nsamples = 24\nvalue = [20, 4, 0]"];
721 -> 723;
724 [label="X[0] <= 10924.5\ngini = 0.4444\nsamples = 6\nvalue = [4, 0, 2]"];
720 -> 724;
725 [label="gini = 0.0\nsamples = 2\nvalue = [0, 0, 2]"];
724 -> 725;
726 [label="gini = 0.0\nsamples = 4\nvalue = [4, 0, 0]"];
724 -> 726;
727 [label="X[0] <= 16733.0\ngini = 0.4795\nsamples = 555\nvalue = [380, 105, 70]"];
699 -> 727;
728 [label="X[0] <= 7343.0\ngini = 0.4327\nsamples = 521\nvalue = [376, 105, 40]"];
727 -> 728;
729 [label="X[0] <= 6299.5\ngini = 0.5898\nsamples = 143\nvalue = [80, 33, 30]"];
728 -> 729;
730 [label="X[0] <= 3209.5\ngini = 0.5115\nsamples = 125\nvalue = [80, 33, 12]"];
729 -> 730;
731 [label="gini = 0.294\nsamples = 74\nvalue = [61, 1, 12]"];
730 -> 731;
732 [label="gini = 0.4675\nsamples = 51\nvalue = [19, 32, 0]"];
730 -> 732;
733 [label="gini = 0.0\nsamples = 18\nvalue = [0, 0, 18]"];
729 -> 733;
734 [label="X[0] <= 15800.5\ngini = 0.3498\nsamples = 378\nvalue = [296, 72, 10]"];
728 -> 734;
735 [label="X[0] <= 10663.5\ngini = 0.3153\nsamples = 355\nvalue = [288, 57, 10]"];
734 -> 735;
736 [label="gini = 0.0\nsamples = 85\nvalue = [85, 0, 0]"];
735 -> 736;
737 [label="gini = 0.3888\nsamples = 270\nvalue = [203, 57, 10]"];
735 -> 737;
738 [label="X[2] <= 27.5\ngini = 0.4537\nsamples = 23\nvalue = [8, 15, 0]"];
734 -> 738;
739 [label="gini = 0.0\nsamples = 8\nvalue = [8, 0, 0]"];
738 -> 739;
740 [label="gini = 0.0\nsamples = 15\nvalue = [0, 15, 0]"];
738 -> 740;
741 [label="X[2] <= 26.5\ngini = 0.2076\nsamples = 34\nvalue = [4, 0, 30]"];
727 -> 741;
742 [label="gini = 0.0\nsamples = 4\nvalue = [4, 0, 0]"];
741 -> 742;
743 [label="gini = 0.0\nsamples = 30\nvalue = [0, 0, 30]"];
741 -> 743;
744 [label="X[0] <= 697.5\ngini = 0.625\nsamples = 1294\nvalue = [328, 319, 647]"];
698 -> 744;
745 [label="X[1] <= 1009.0\ngini = 0.1496\nsamples = 50\nvalue = [3, 46, 1]"];
744 -> 745;
746 [label="gini = 0.0\nsamples = 41\nvalue = [0, 41, 0]"];
745 -> 746;
747 [label="X[0] <= 590.0\ngini = 0.5679\nsamples = 9\nvalue = [3, 5, 1]"];
745 -> 747;
748 [label="X[1] <= 1064.0\ngini = 0.56\nsamples = 5\nvalue = [3, 1, 1]"];
747 -> 748;
749 [label="X[1] <= 1026.0\ngini = 0.375\nsamples = 4\nvalue = [3, 1, 0]"];
748 -> 749;
750 [label="gini = 0.0\nsamples = 2\nvalue = [2, 0, 0]"];
749 -> 750;
751 [label="gini = 0.5\nsamples = 2\nvalue = [1, 1, 0]"];
749 -> 751;
752 [label="gini = 0.0\nsamples = 1\nvalue = [0, 0, 1]"];
748 -> 752;
753 [label="gini = 0.0\nsamples = 4\nvalue = [0, 4, 0]"];
747 -> 753;
754 [label="X[3] <= 7.5\ngini = 0.6139\nsamples = 1244\nvalue = [325, 273, 646]"];
744 -> 754;
755 [label="X[6] <= 1.5\ngini = 0.4882\nsamples = 366\nvalue = [26, 99, 241]"];
754 -> 755;
756 [label="X[5] <= 174.5\ngini = 0.5688\nsamples = 218\nvalue = [17, 99, 102]"];
755 -> 756;
757 [label="X[1] <= 968.0\ngini = 0.3991\nsamples = 92\nvalue = [6, 69, 17]"];
756 -> 757;
758 [label="gini = 0.1082\nsamples = 53\nvalue = [1, 50, 2]"];
757 -> 758;
759 [label="gini = 0.5983\nsamples = 39\nvalue = [5, 19, 15]"];
757 -> 759;
760 [label="X[0] <= 11504.0\ngini = 0.4806\nsamples = 126\nvalue = [11, 30, 85]"];
756 -> 760;
761 [label="gini = 0.2571\nsamples = 66\nvalue = [10, 0, 56]"];
760 -> 761;
762 [label="gini = 0.5161\nsamples = 60\nvalue = [1, 30, 29]"];
760 -> 762;
763 [label="X[1] <= 1028.0\ngini = 0.1142\nsamples = 148\nvalue = [9, 0, 139]"];
755 -> 763;
764 [label="X[6] <= 14.0\ngini = 0.0296\nsamples = 133\nvalue = [2, 0, 131]"];
763 -> 764;
765 [label="gini = 0.0\nsamples = 131\nvalue = [0, 0, 131]"];
764 -> 765;
766 [label="gini = 0.0\nsamples = 2\nvalue = [2, 0, 0]"];
764 -> 766;
767 [label="X[1] <= 1043.5\ngini = 0.4978\nsamples = 15\nvalue = [7, 0, 8]"];
763 -> 767;
768 [label="gini = 0.0\nsamples = 4\nvalue = [4, 0, 0]"];
767 -> 768;
769 [label="gini = 0.3967\nsamples = 11\nvalue = [3, 0, 8]"];
767 -> 769;
770 [label="X[5] <= 202.5\ngini = 0.632\nsamples = 878\nvalue = [299, 174, 405]"];
754 -> 770;
771 [label="X[2] <= 12.0\ngini = 0.6477\nsamples = 747\nvalue = [267, 169, 311]"];
770 -> 771;
772 [label="X[2] <= 8.0\ngini = 0.6245\nsamples = 338\nvalue = [153, 58, 127]"];
771 -> 772;
773 [label="gini = 0.1327\nsamples = 14\nvalue = [1, 0, 13]"];
772 -> 773;
774 [label="gini = 0.6241\nsamples = 324\nvalue = [152, 58, 114]"];
772 -> 774;
775 [label="X[6] <= 1.5\ngini = 0.6463\nsamples = 409\nvalue = [114, 111, 184]"];
771 -> 775;
776 [label="gini = 0.6637\nsamples = 217\nvalue = [63, 79, 75]"];
775 -> 776;
777 [label="gini = 0.5794\nsamples = 192\nvalue = [51, 32, 109]"];
775 -> 777;
778 [label="X[0] <= 16251.5\ngini = 0.424\nsamples = 131\nvalue = [32, 5, 94]"];
770 -> 778;
779 [label="X[1] <= 1056.5\ngini = 0.3761\nsamples = 119\nvalue = [23, 5, 91]"];
778 -> 779;
780 [label="gini = 0.3958\nsamples = 101\nvalue = [23, 3, 75]"];
779 -> 780;
781 [label="gini = 0.1975\nsamples = 18\nvalue = [0, 2, 16]"];
779 -> 781;
782 [label="X[0] <= 18272.5\ngini = 0.375\nsamples = 12\nvalue = [9, 0, 3]"];
778 -> 782;
783 [label="gini = 0.18\nsamples = 10\nvalue = [9, 0, 1]"];
782 -> 783;
784 [label="gini = 0.0\nsamples = 2\nvalue = [0, 0, 2]"];
782 -> 784;
785 [label="X[1] <= 1098.5\ngini = 0.0376\nsamples = 157\nvalue = [154, 1, 2]"];
697 -> 785;
786 [label="gini = 0.0\nsamples = 145\nvalue = [145, 0, 0]"];
785 -> 786;
787 [label="X[0] <= 3948.0\ngini = 0.4028\nsamples = 12\nvalue = [9, 1, 2]"];
785 -> 787;
788 [label="X[0] <= 2153.0\ngini = 0.4444\nsamples = 3\nvalue = [0, 1, 2]"];
787 -> 788;
789 [label="gini = 0.0\nsamples = 2\nvalue = [0, 0, 2]"];
788 -> 789;
790 [label="gini = 0.0\nsamples = 1\nvalue = [0, 1, 0]"];
788 -> 790;
791 [label="gini = 0.0\nsamples = 9\nvalue = [9, 0, 0]"];
787 -> 791;
792 [label="X[1] <= 1113.5\ngini = 0.5266\nsamples = 503\nvalue = [100, 82, 321]"];
696 -> 792;
793 [label="X[1] <= 1103.0\ngini = 0.4906\nsamples = 472\nvalue = [74, 79, 319]"];
792 -> 793;
794 [label="X[0] <= 15532.0\ngini = 0.288\nsamples = 176\nvalue = [3, 27, 146]"];
793 -> 794;
795 [label="X[0] <= 748.5\ngini = 0.194\nsamples = 150\nvalue = [3, 13, 134]"];
794 -> 795;
796 [label="X[0] <= 375.0\ngini = 0.562\nsamples = 11\nvalue = [1, 4, 6]"];
795 -> 796;
797 [label="gini = 0.0\nsamples = 6\nvalue = [0, 0, 6]"];
796 -> 797;
798 [label="X[0] <= 526.5\ngini = 0.32\nsamples = 5\nvalue = [1, 4, 0]"];
796 -> 798;
799 [label="gini = 0.0\nsamples = 4\nvalue = [0, 4, 0]"];
798 -> 799;
800 [label="gini = 0.0\nsamples = 1\nvalue = [1, 0, 0]"];
798 -> 800;
801 [label="X[0] <= 9769.0\ngini = 0.1476\nsamples = 139\nvalue = [2, 9, 128]"];
795 -> 801;
802 [label="X[0] <= 8243.5\ngini = 0.251\nsamples = 77\nvalue = [2, 9, 66]"];
801 -> 802;
803 [label="X[4] <= 1.5\ngini = 0.1309\nsamples = 71\nvalue = [0, 5, 66]"];
802 -> 803;
804 [label="gini = 0.1078\nsamples = 70\nvalue = [0, 4, 66]"];
803 -> 804;
805 [label="gini = 0.0\nsamples = 1\nvalue = [0, 1, 0]"];
803 -> 805;
806 [label="X[0] <= 9352.5\ngini = 0.4444\nsamples = 6\nvalue = [2, 4, 0]"];
802 -> 806;
807 [label="gini = 0.0\nsamples = 2\nvalue = [2, 0, 0]"];
806 -> 807;
808 [label="gini = 0.0\nsamples = 4\nvalue = [0, 4, 0]"];
806 -> 808;
809 [label="gini = 0.0\nsamples = 62\nvalue = [0, 0, 62]"];
801 -> 809;
810 [label="X[0] <= 16115.5\ngini = 0.497\nsamples = 26\nvalue = [0, 14, 12]"];
794 -> 810;
811 [label="gini = 0.0\nsamples = 10\nvalue = [0, 10, 0]"];
810 -> 811;
812 [label="X[0] <= 17350.0\ngini = 0.375\nsamples = 16\nvalue = [0, 4, 12]"];
810 -> 812;
813 [label="gini = 0.0\nsamples = 12\nvalue = [0, 0, 12]"];
812 -> 813;
814 [label="gini = 0.0\nsamples = 4\nvalue = [0, 4, 0]"];
812 -> 814;
815 [label="X[0] <= 17579.0\ngini = 0.57\nsamples = 296\nvalue = [71, 52, 173]"];
793 -> 815;
816 [label="X[0] <= 16397.5\ngini = 0.5617\nsamples = 290\nvalue = [65, 52, 173]"];
815 -> 816;
817 [label="X[1] <= 1106.5\ngini = 0.6017\nsamples = 254\nvalue = [65, 52, 137]"];
816 -> 817;
818 [label="X[6] <= 1.5\ngini = 0.375\nsamples = 8\nvalue = [6, 2, 0]"];
817 -> 818;
819 [label="X[0] <= 7843.5\ngini = 0.4444\nsamples = 3\nvalue = [1, 2, 0]"];
818 -> 819;
820 [label="gini = 0.0\nsamples = 1\nvalue = [1, 0, 0]"];
819 -> 820;
821 [label="gini = 0.0\nsamples = 2\nvalue = [0, 2, 0]"];
819 -> 821;
822 [label="gini = 0.0\nsamples = 5\nvalue = [5, 0, 0]"];
818 -> 822;
823 [label="X[0] <= 1500.5\ngini = 0.591\nsamples = 246\nvalue = [59, 50, 137]"];
817 -> 823;
824 [label="X[0] <= 324.0\ngini = 0.5\nsamples = 24\nvalue = [0, 12, 12]"];
823 -> 824;
825 [label="gini = 0.0\nsamples = 12\nvalue = [0, 0, 12]"];
824 -> 825;
826 [label="gini = 0.0\nsamples = 12\nvalue = [0, 12, 0]"];
824 -> 826;
827 [label="X[0] <= 1689.5\ngini = 0.583\nsamples = 222\nvalue = [59, 38, 125]"];
823 -> 827;
828 [label="gini = 0.0\nsamples = 8\nvalue = [8, 0, 0]"];
827 -> 828;
829 [label="gini = 0.5705\nsamples = 214\nvalue = [51, 38, 125]"];
827 -> 829;
830 [label="gini = 0.0\nsamples = 36\nvalue = [0, 0, 36]"];
816 -> 830;
831 [label="gini = 0.0\nsamples = 6\nvalue = [6, 0, 0]"];
815 -> 831;
832 [label="X[0] <= 14185.0\ngini = 0.283\nsamples = 31\nvalue = [26, 3, 2]"];
792 -> 832;
833 [label="X[6] <= 2.0\ngini = 0.1327\nsamples = 28\nvalue = [26, 0, 2]"];
832 -> 833;
834 [label="X[5] <= 202.0\ngini = 0.0768\nsamples = 25\nvalue = [24, 0, 1]"];
833 -> 834;
835 [label="gini = 0.0\nsamples = 18\nvalue = [18, 0, 0]"];
834 -> 835;
836 [label="X[1] <= 1122.5\ngini = 0.2449\nsamples = 7\nvalue = [6, 0, 1]"];
834 -> 836;
837 [label="gini = 0.0\nsamples = 1\nvalue = [0, 0, 1]"];
836 -> 837;
838 [label="gini = 0.0\nsamples = 6\nvalue = [6, 0, 0]"];
836 -> 838;
839 [label="X[6] <= 4.0\ngini = 0.4444\nsamples = 3\nvalue = [2, 0, 1]"];
833 -> 839;
840 [label="gini = 0.0\nsamples = 1\nvalue = [0, 0, 1]"];
839 -> 840;
841 [label="gini = 0.0\nsamples = 2\nvalue = [2, 0, 0]"];
839 -> 841;
842 [label="gini = 0.0\nsamples = 3\nvalue = [0, 3, 0]"];
832 -> 842;
}
