digraph Tree {
node [shape=box];
0 [label="X[0] <= 534.5\ngini = 0.5585\nsamples = 61839\nvalue = [36597, 16524, 8718]"];
1 [label="X[0] <= 89.5\ngini = 0.3699\nsamples = 29868\nvalue = [22972, 5749, 1147]"];
0 -> 1  [headlabel="True", labeldistance="2.5", labelangle=45];
2 [label="X[0] <= 66.0\ngini = 0.6616\nsamples = 3205\nvalue = [895, 1216, 1094]"];
1 -> 2;
3 [label="X[0] <= 12.5\ngini = 0.6231\nsamples = 2128\nvalue = [733, 384, 1011]"];
2 -> 3;
4 [label="X[0] <= 6.5\ngini = 0.5473\nsamples = 636\nvalue = [361, 224, 51]"];
3 -> 4;
5 [label="X[0] <= 1.5\ngini = 0.5033\nsamples = 315\nvalue = [107, 194, 14]"];
4 -> 5;
6 [label="X[4] <= 73.5\ngini = 0.5694\nsamples = 163\nvalue = [83, 66, 14]"];
5 -> 6;
7 [label="gini = 0.0\nsamples = 16\nvalue = [16, 0, 0]"];
6 -> 7;
8 [label="X[2] <= 1.5\ngini = 0.5816\nsamples = 147\nvalue = [67, 66, 14]"];
6 -> 8;
9 [label="gini = 0.0\nsamples = 9\nvalue = [0, 9, 0]"];
8 -> 9;
10 [label="X[2] <= 5.0\ngini = 0.5834\nsamples = 138\nvalue = [67, 57, 14]"];
8 -> 10;
11 [label="gini = 0.0\nsamples = 12\nvalue = [12, 0, 0]"];
10 -> 11;
12 [label="X[1] <= 17.5\ngini = 0.5925\nsamples = 126\nvalue = [55, 57, 14]"];
10 -> 12;
13 [label="X[1] <= 9.0\ngini = 0.5938\nsamples = 122\nvalue = [51, 57, 14]"];
12 -> 13;
14 [label="gini = 0.0\nsamples = 3\nvalue = [0, 3, 0]"];
13 -> 14;
15 [label="X[4] <= 202.0\ngini = 0.5966\nsamples = 119\nvalue = [51, 54, 14]"];
13 -> 15;
16 [label="X[4] <= 122.5\ngini = 0.5961\nsamples = 102\nvalue = [47, 43, 12]"];
15 -> 16;
17 [label="X[4] <= 96.5\ngini = 0.5826\nsamples = 59\nvalue = [24, 29, 6]"];
16 -> 17;
18 [label="X[4] <= 78.0\ngini = 0.5667\nsamples = 53\nvalue = [24, 25, 4]"];
17 -> 18;
19 [label="gini = 0.0\nsamples = 1\nvalue = [0, 1, 0]"];
18 -> 19;
20 [label="X[3] <= 1.5\ngini = 0.568\nsamples = 52\nvalue = [24, 24, 4]"];
18 -> 20;
21 [label="X[5] <= 0.5\ngini = 0.5747\nsamples = 46\nvalue = [20, 22, 4]"];
20 -> 21;
22 [label="X[4] <= 81.0\ngini = 0.5494\nsamples = 36\nvalue = [16, 18, 2]"];
21 -> 22;
23 [label="X[1] <= 13.0\ngini = 0.58\nsamples = 20\nvalue = [8, 10, 2]"];
22 -> 23;
24 [label="gini = 0.58\nsamples = 10\nvalue = [4, 5, 1]"];
23 -> 24;
25 [label="gini = 0.58\nsamples = 10\nvalue = [4, 5, 1]"];
23 -> 25;
26 [label="X[1] <= 13.0\ngini = 0.5\nsamples = 16\nvalue = [8, 8, 0]"];
22 -> 26;
27 [label="gini = 0.5\nsamples = 8\nvalue = [4, 4, 0]"];
26 -> 27;
28 [label="gini = 0.5\nsamples = 8\nvalue = [4, 4, 0]"];
26 -> 28;
29 [label="X[4] <= 81.0\ngini = 0.64\nsamples = 10\nvalue = [4, 4, 2]"];
21 -> 29;
30 [label="X[1] <= 13.0\ngini = 0.4444\nsamples = 6\nvalue = [4, 2, 0]"];
29 -> 30;
31 [label="gini = 0.4444\nsamples = 3\nvalue = [2, 1, 0]"];
30 -> 31;
32 [label="gini = 0.4444\nsamples = 3\nvalue = [2, 1, 0]"];
30 -> 32;
33 [label="X[1] <= 13.0\ngini = 0.5\nsamples = 4\nvalue = [0, 2, 2]"];
29 -> 33;
34 [label="gini = 0.5\nsamples = 2\nvalue = [0, 1, 1]"];
33 -> 34;
35 [label="gini = 0.5\nsamples = 2\nvalue = [0, 1, 1]"];
33 -> 35;
36 [label="X[4] <= 81.0\ngini = 0.4444\nsamples = 6\nvalue = [4, 2, 0]"];
20 -> 36;
37 [label="gini = 0.4444\nsamples = 3\nvalue = [2, 1, 0]"];
36 -> 37;
38 [label="gini = 0.4444\nsamples = 3\nvalue = [2, 1, 0]"];
36 -> 38;
39 [label="X[1] <= 13.0\ngini = 0.4444\nsamples = 6\nvalue = [0, 4, 2]"];
17 -> 39;
40 [label="gini = 0.4444\nsamples = 3\nvalue = [0, 2, 1]"];
39 -> 40;
41 [label="gini = 0.4444\nsamples = 3\nvalue = [0, 2, 1]"];
39 -> 41;
42 [label="X[4] <= 195.5\ngini = 0.5884\nsamples = 43\nvalue = [23, 14, 6]"];
16 -> 42;
43 [label="X[1] <= 13.0\ngini = 0.4063\nsamples = 16\nvalue = [12, 2, 2]"];
42 -> 43;
44 [label="X[4] <= 165.5\ngini = 0.4938\nsamples = 9\nvalue = [6, 1, 2]"];
43 -> 44;
45 [label="X[4] <= 146.5\ngini = 0.5\nsamples = 2\nvalue = [1, 0, 1]"];
44 -> 45;
46 [label="gini = 0.0\nsamples = 1\nvalue = [1, 0, 0]"];
45 -> 46;
47 [label="gini = 0.0\nsamples = 1\nvalue = [0, 0, 1]"];
45 -> 47;
48 [label="X[4] <= 182.5\ngini = 0.449\nsamples = 7\nvalue = [5, 1, 1]"];
44 -> 48;
49 [label="gini = 0.375\nsamples = 4\nvalue = [3, 1, 0]"];
48 -> 49;
50 [label="X[5] <= 0.5\ngini = 0.4444\nsamples = 3\nvalue = [2, 0, 1]"];
48 -> 50;
51 [label="gini = 0.5\nsamples = 2\nvalue = [1, 0, 1]"];
50 -> 51;
52 [label="gini = 0.0\nsamples = 1\nvalue = [1, 0, 0]"];
50 -> 52;
53 [label="X[4] <= 182.5\ngini = 0.2449\nsamples = 7\nvalue = [6, 1, 0]"];
43 -> 53;
54 [label="X[4] <= 153.0\ngini = 0.32\nsamples = 5\nvalue = [4, 1, 0]"];
53 -> 54;
55 [label="gini = 0.0\nsamples = 1\nvalue = [1, 0, 0]"];
54 -> 55;
56 [label="gini = 0.375\nsamples = 4\nvalue = [3, 1, 0]"];
54 -> 56;
57 [label="gini = 0.0\nsamples = 2\nvalue = [2, 0, 0]"];
53 -> 57;
58 [label="X[5] <= 0.5\ngini = 0.6145\nsamples = 27\nvalue = [11, 12, 4]"];
42 -> 58;
59 [label="X[4] <= 199.5\ngini = 0.6144\nsamples = 25\nvalue = [9, 12, 4]"];
58 -> 59;
60 [label="X[3] <= 1.5\ngini = 0.5\nsamples = 2\nvalue = [0, 1, 1]"];
59 -> 60;
61 [label="gini = 0.0\nsamples = 1\nvalue = [0, 0, 1]"];
60 -> 61;
62 [label="gini = 0.0\nsamples = 1\nvalue = [0, 1, 0]"];
60 -> 62;
63 [label="X[1] <= 13.0\ngini = 0.6011\nsamples = 23\nvalue = [9, 11, 3]"];
59 -> 63;
64 [label="gini = 0.6281\nsamples = 11\nvalue = [4, 5, 2]"];
63 -> 64;
65 [label="X[3] <= 1.5\ngini = 0.5694\nsamples = 12\nvalue = [5, 6, 1]"];
63 -> 65;
66 [label="gini = 0.58\nsamples = 10\nvalue = [4, 5, 1]"];
65 -> 66;
67 [label="gini = 0.5\nsamples = 2\nvalue = [1, 1, 0]"];
65 -> 67;
68 [label="gini = 0.0\nsamples = 2\nvalue = [2, 0, 0]"];
58 -> 68;
69 [label="X[5] <= 0.5\ngini = 0.5121\nsamples = 17\nvalue = [4, 11, 2]"];
15 -> 69;
70 [label="X[4] <= 211.0\ngini = 0.3911\nsamples = 15\nvalue = [4, 11, 0]"];
69 -> 70;
71 [label="X[3] <= 1.5\ngini = 0.2604\nsamples = 13\nvalue = [2, 11, 0]"];
70 -> 71;
72 [label="X[1] <= 13.0\ngini = 0.2778\nsamples = 12\nvalue = [2, 10, 0]"];
71 -> 72;
73 [label="gini = 0.2778\nsamples = 6\nvalue = [1, 5, 0]"];
72 -> 73;
74 [label="gini = 0.2778\nsamples = 6\nvalue = [1, 5, 0]"];
72 -> 74;
75 [label="gini = 0.0\nsamples = 1\nvalue = [0, 1, 0]"];
71 -> 75;
76 [label="gini = 0.0\nsamples = 2\nvalue = [2, 0, 0]"];
70 -> 76;
77 [label="gini = 0.0\nsamples = 2\nvalue = [0, 0, 2]"];
69 -> 77;
78 [label="gini = 0.0\nsamples = 4\nvalue = [4, 0, 0]"];
12 -> 78;
79 [label="X[1] <= 19.0\ngini = 0.2659\nsamples = 152\nvalue = [24, 128, 0]"];
5 -> 79;
80 [label="X[1] <= 13.5\ngini = 0.2435\nsamples = 148\nvalue = [21, 127, 0]"];
79 -> 80;
81 [label="X[2] <= 9.0\ngini = 0.3068\nsamples = 111\nvalue = [21, 90, 0]"];
80 -> 81;
82 [label="X[4] <= 54.5\ngini = 0.3606\nsamples = 89\nvalue = [21, 68, 0]"];
81 -> 82;
83 [label="gini = 0.0\nsamples = 11\nvalue = [0, 11, 0]"];
82 -> 83;
84 [label="X[4] <= 119.0\ngini = 0.3935\nsamples = 78\nvalue = [21, 57, 0]"];
82 -> 84;
85 [label="X[3] <= 1.5\ngini = 0.4861\nsamples = 12\nvalue = [7, 5, 0]"];
84 -> 85;
86 [label="X[0] <= 3.5\ngini = 0.5\nsamples = 10\nvalue = [5, 5, 0]"];
85 -> 86;
87 [label="X[0] <= 2.5\ngini = 0.4938\nsamples = 9\nvalue = [5, 4, 0]"];
86 -> 87;
88 [label="X[2] <= 7.0\ngini = 0.5\nsamples = 8\nvalue = [4, 4, 0]"];
87 -> 88;
89 [label="X[1] <= 12.0\ngini = 0.5\nsamples = 4\nvalue = [2, 2, 0]"];
88 -> 89;
90 [label="gini = 0.5\nsamples = 2\nvalue = [1, 1, 0]"];
89 -> 90;
91 [label="gini = 0.5\nsamples = 2\nvalue = [1, 1, 0]"];
89 -> 91;
92 [label="X[1] <= 12.0\ngini = 0.5\nsamples = 4\nvalue = [2, 2, 0]"];
88 -> 92;
93 [label="gini = 0.5\nsamples = 2\nvalue = [1, 1, 0]"];
92 -> 93;
94 [label="gini = 0.5\nsamples = 2\nvalue = [1, 1, 0]"];
92 -> 94;
95 [label="gini = 0.0\nsamples = 1\nvalue = [1, 0, 0]"];
87 -> 95;
96 [label="gini = 0.0\nsamples = 1\nvalue = [0, 1, 0]"];
86 -> 96;
97 [label="gini = 0.0\nsamples = 2\nvalue = [2, 0, 0]"];
85 -> 97;
98 [label="X[4] <= 170.5\ngini = 0.3343\nsamples = 66\nvalue = [14, 52, 0]"];
84 -> 98;
99 [label="gini = 0.0\nsamples = 12\nvalue = [0, 12, 0]"];
98 -> 99;
100 [label="X[4] <= 216.0\ngini = 0.3841\nsamples = 54\nvalue = [14, 40, 0]"];
98 -> 100;
101 [label="X[3] <= 1.5\ngini = 0.48\nsamples = 10\nvalue = [6, 4, 0]"];
100 -> 101;
102 [label="X[4] <= 175.0\ngini = 0.4938\nsamples = 9\nvalue = [5, 4, 0]"];
101 -> 102;
103 [label="gini = 0.0\nsamples = 1\nvalue = [1, 0, 0]"];
102 -> 103;
104 [label="X[1] <= 12.0\ngini = 0.5\nsamples = 8\nvalue = [4, 4, 0]"];
102 -> 104;
105 [label="X[2] <= 7.0\ngini = 0.5\nsamples = 4\nvalue = [2, 2, 0]"];
104 -> 105;
106 [label="gini = 0.5\nsamples = 2\nvalue = [1, 1, 0]"];
105 -> 106;
107 [label="gini = 0.5\nsamples = 2\nvalue = [1, 1, 0]"];
105 -> 107;
108 [label="X[2] <= 7.0\ngini = 0.5\nsamples = 4\nvalue = [2, 2, 0]"];
104 -> 108;
109 [label="gini = 0.5\nsamples = 2\nvalue = [1, 1, 0]"];
108 -> 109;
110 [label="gini = 0.5\nsamples = 2\nvalue = [1, 1, 0]"];
108 -> 110;
111 [label="gini = 0.0\nsamples = 1\nvalue = [1, 0, 0]"];
101 -> 111;
112 [label="X[4] <= 263.0\ngini = 0.2975\nsamples = 44\nvalue = [8, 36, 0]"];
100 -> 112;
113 [label="gini = 0.0\nsamples = 4\nvalue = [0, 4, 0]"];
112 -> 113;
114 [label="X[4] <= 302.5\ngini = 0.32\nsamples = 40\nvalue = [8, 32, 0]"];
112 -> 114;
115 [label="X[1] <= 12.0\ngini = 0.375\nsamples = 16\nvalue = [4, 12, 0]"];
114 -> 115;
116 [label="X[2] <= 7.0\ngini = 0.375\nsamples = 8\nvalue = [2, 6, 0]"];
115 -> 116;
117 [label="gini = 0.375\nsamples = 4\nvalue = [1, 3, 0]"];
116 -> 117;
118 [label="gini = 0.375\nsamples = 4\nvalue = [1, 3, 0]"];
116 -> 118;
119 [label="X[2] <= 7.0\ngini = 0.375\nsamples = 8\nvalue = [2, 6, 0]"];
115 -> 119;
120 [label="gini = 0.375\nsamples = 4\nvalue = [1, 3, 0]"];
119 -> 120;
121 [label="gini = 0.375\nsamples = 4\nvalue = [1, 3, 0]"];
119 -> 121;
122 [label="X[4] <= 338.5\ngini = 0.2778\nsamples = 24\nvalue = [4, 20, 0]"];
114 -> 122;
123 [label="gini = 0.0\nsamples = 8\nvalue = [0, 8, 0]"];
122 -> 123;
124 [label="X[2] <= 7.0\ngini = 0.375\nsamples = 16\nvalue = [4, 12, 0]"];
122 -> 124;
125 [label="X[1] <= 12.0\ngini = 0.375\nsamples = 8\nvalue = [2, 6, 0]"];
124 -> 125;
126 [label="gini = 0.375\nsamples = 4\nvalue = [1, 3, 0]"];
125 -> 126;
127 [label="gini = 0.375\nsamples = 4\nvalue = [1, 3, 0]"];
125 -> 127;
128 [label="X[1] <= 12.0\ngini = 0.375\nsamples = 8\nvalue = [2, 6, 0]"];
124 -> 128;
129 [label="gini = 0.375\nsamples = 4\nvalue = [1, 3, 0]"];
128 -> 129;
130 [label="gini = 0.375\nsamples = 4\nvalue = [1, 3, 0]"];
128 -> 130;
131 [label="gini = 0.0\nsamples = 22\nvalue = [0, 22, 0]"];
81 -> 131;
132 [label="gini = 0.0\nsamples = 37\nvalue = [0, 37, 0]"];
80 -> 132;
133 [label="X[0] <= 5.5\ngini = 0.375\nsamples = 4\nvalue = [3, 1, 0]"];
79 -> 133;
134 [label="gini = 0.0\nsamples = 3\nvalue = [3, 0, 0]"];
133 -> 134;
135 [label="gini = 0.0\nsamples = 1\nvalue = [0, 1, 0]"];
133 -> 135;
136 [label="X[0] <= 7.5\ngini = 0.3519\nsamples = 321\nvalue = [254, 30, 37]"];
4 -> 136;
137 [label="X[1] <= 37.0\ngini = 0.5324\nsamples = 110\nvalue = [65, 8, 37]"];
136 -> 137;
138 [label="X[5] <= 4.5\ngini = 0.4772\nsamples = 96\nvalue = [65, 8, 23]"];
137 -> 138;
139 [label="X[4] <= 289.5\ngini = 0.4506\nsamples = 92\nvalue = [65, 8, 19]"];
138 -> 139;
140 [label="X[3] <= 1.5\ngini = 0.4171\nsamples = 88\nvalue = [65, 8, 15]"];
139 -> 140;
141 [label="X[4] <= 52.0\ngini = 0.3822\nsamples = 82\nvalue = [63, 8, 11]"];
140 -> 141;
142 [label="gini = 0.0\nsamples = 1\nvalue = [0, 0, 1]"];
141 -> 142;
143 [label="X[2] <= 5.0\ngini = 0.3701\nsamples = 81\nvalue = [63, 8, 10]"];
141 -> 143;
144 [label="X[5] <= 0.5\ngini = 0.48\nsamples = 10\nvalue = [6, 0, 4]"];
143 -> 144;
145 [label="X[1] <= 15.5\ngini = 0.375\nsamples = 8\nvalue = [6, 0, 2]"];
144 -> 145;
146 [label="X[4] <= 205.0\ngini = 0.48\nsamples = 5\nvalue = [3, 0, 2]"];
145 -> 146;
147 [label="X[4] <= 162.5\ngini = 0.5\nsamples = 4\nvalue = [2, 0, 2]"];
146 -> 147;
148 [label="X[4] <= 102.0\ngini = 0.4444\nsamples = 3\nvalue = [2, 0, 1]"];
147 -> 148;
149 [label="gini = 0.5\nsamples = 2\nvalue = [1, 0, 1]"];
148 -> 149;
150 [label="gini = 0.0\nsamples = 1\nvalue = [1, 0, 0]"];
148 -> 150;
151 [label="gini = 0.0\nsamples = 1\nvalue = [0, 0, 1]"];
147 -> 151;
152 [label="gini = 0.0\nsamples = 1\nvalue = [1, 0, 0]"];
146 -> 152;
153 [label="gini = 0.0\nsamples = 3\nvalue = [3, 0, 0]"];
145 -> 153;
154 [label="gini = 0.0\nsamples = 2\nvalue = [0, 0, 2]"];
144 -> 154;
155 [label="X[1] <= 15.5\ngini = 0.3356\nsamples = 71\nvalue = [57, 8, 6]"];
143 -> 155;
156 [label="X[4] <= 181.0\ngini = 0.3478\nsamples = 68\nvalue = [54, 8, 6]"];
155 -> 156;
157 [label="X[4] <= 149.5\ngini = 0.3664\nsamples = 41\nvalue = [32, 4, 5]"];
156 -> 157;
158 [label="X[4] <= 62.5\ngini = 0.3396\nsamples = 35\nvalue = [28, 4, 3]"];
157 -> 158;
159 [label="X[5] <= 0.5\ngini = 0.2778\nsamples = 6\nvalue = [5, 0, 1]"];
158 -> 159;
160 [label="gini = 0.0\nsamples = 4\nvalue = [4, 0, 0]"];
159 -> 160;
161 [label="gini = 0.5\nsamples = 2\nvalue = [1, 0, 1]"];
159 -> 161;
162 [label="X[5] <= 0.5\ngini = 0.3472\nsamples = 29\nvalue = [23, 4, 2]"];
158 -> 162;
163 [label="X[4] <= 75.5\ngini = 0.39\nsamples = 21\nvalue = [16, 3, 2]"];
162 -> 163;
164 [label="gini = 0.449\nsamples = 14\nvalue = [10, 2, 2]"];
163 -> 164;
165 [label="X[4] <= 107.5\ngini = 0.2449\nsamples = 7\nvalue = [6, 1, 0]"];
163 -> 165;
166 [label="gini = 0.2778\nsamples = 6\nvalue = [5, 1, 0]"];
165 -> 166;
167 [label="gini = 0.0\nsamples = 1\nvalue = [1, 0, 0]"];
165 -> 167;
168 [label="X[4] <= 75.5\ngini = 0.2188\nsamples = 8\nvalue = [7, 1, 0]"];
162 -> 168;
169 [label="gini = 0.2449\nsamples = 7\nvalue = [6, 1, 0]"];
168 -> 169;
170 [label="gini = 0.0\nsamples = 1\nvalue = [1, 0, 0]"];
168 -> 170;
171 [label="X[4] <= 168.0\ngini = 0.4444\nsamples = 6\nvalue = [4, 0, 2]"];
157 -> 171;
172 [label="gini = 0.0\nsamples = 1\nvalue = [0, 0, 1]"];
171 -> 172;
173 [label="X[5] <= 0.5\ngini = 0.32\nsamples = 5\nvalue = [4, 0, 1]"];
171 -> 173;
174 [label="gini = 0.0\nsamples = 3\nvalue = [3, 0, 0]"];
173 -> 174;
175 [label="gini = 0.5\nsamples = 2\nvalue = [1, 0, 1]"];
173 -> 175;
176 [label="X[4] <= 196.5\ngini = 0.3128\nsamples = 27\nvalue = [22, 4, 1]"];
156 -> 176;
177 [label="X[5] <= 0.5\ngini = 0.349\nsamples = 19\nvalue = [15, 3, 1]"];
176 -> 177;
178 [label="gini = 0.4028\nsamples = 12\nvalue = [9, 2, 1]"];
177 -> 178;
179 [label="X[5] <= 1.5\ngini = 0.2449\nsamples = 7\nvalue = [6, 1, 0]"];
177 -> 179;
180 [label="gini = 0.2778\nsamples = 6\nvalue = [5, 1, 0]"];
179 -> 180;
181 [label="gini = 0.0\nsamples = 1\nvalue = [1, 0, 0]"];
179 -> 181;
182 [label="X[4] <= 210.5\ngini = 0.2188\nsamples = 8\nvalue = [7, 1, 0]"];
176 -> 182;
183 [label="X[5] <= 0.5\ngini = 0.2449\nsamples = 7\nvalue = [6, 1, 0]"];
182 -> 183;
184 [label="gini = 0.2778\nsamples = 6\nvalue = [5, 1, 0]"];
183 -> 184;
185 [label="gini = 0.0\nsamples = 1\nvalue = [1, 0, 0]"];
183 -> 185;
186 [label="gini = 0.0\nsamples = 1\nvalue = [1, 0, 0]"];
182 -> 186;
187 [label="gini = 0.0\nsamples = 3\nvalue = [3, 0, 0]"];
155 -> 187;
188 [label="X[4] <= 196.5\ngini = 0.4444\nsamples = 6\nvalue = [2, 0, 4]"];
140 -> 188;
189 [label="X[4] <= 75.5\ngini = 0.48\nsamples = 5\nvalue = [2, 0, 3]"];
188 -> 189;
190 [label="gini = 0.5\nsamples = 2\nvalue = [1, 0, 1]"];
189 -> 190;
191 [label="X[4] <= 136.0\ngini = 0.4444\nsamples = 3\nvalue = [1, 0, 2]"];
189 -> 191;
192 [label="gini = 0.0\nsamples = 1\nvalue = [0, 0, 1]"];
191 -> 192;
193 [label="gini = 0.5\nsamples = 2\nvalue = [1, 0, 1]"];
191 -> 193;
194 [label="gini = 0.0\nsamples = 1\nvalue = [0, 0, 1]"];
188 -> 194;
195 [label="gini = 0.0\nsamples = 4\nvalue = [0, 0, 4]"];
139 -> 195;
196 [label="gini = 0.0\nsamples = 4\nvalue = [0, 0, 4]"];
138 -> 196;
197 [label="gini = 0.0\nsamples = 14\nvalue = [0, 0, 14]"];
137 -> 197;
198 [label="X[1] <= 10.5\ngini = 0.1868\nsamples = 211\nvalue = [189, 22, 0]"];
136 -> 198;
199 [label="gini = 0.0\nsamples = 5\nvalue = [0, 5, 0]"];
198 -> 199;
200 [label="X[0] <= 11.0\ngini = 0.1514\nsamples = 206\nvalue = [189, 17, 0]"];
198 -> 200;
201 [label="X[4] <= 209.0\ngini = 0.0533\nsamples = 146\nvalue = [142, 4, 0]"];
200 -> 201;
202 [label="X[2] <= 8.5\ngini = 0.0274\nsamples = 144\nvalue = [142, 2, 0]"];
201 -> 202;
203 [label="X[0] <= 8.5\ngini = 0.014\nsamples = 142\nvalue = [141, 1, 0]"];
202 -> 203;
204 [label="X[2] <= 5.0\ngini = 0.1244\nsamples = 15\nvalue = [14, 1, 0]"];
203 -> 204;
205 [label="gini = 0.0\nsamples = 1\nvalue = [0, 1, 0]"];
204 -> 205;
206 [label="gini = 0.0\nsamples = 14\nvalue = [14, 0, 0]"];
204 -> 206;
207 [label="gini = 0.0\nsamples = 127\nvalue = [127, 0, 0]"];
203 -> 207;
208 [label="gini = 0.5\nsamples = 2\nvalue = [1, 1, 0]"];
202 -> 208;
209 [label="gini = 0.0\nsamples = 2\nvalue = [0, 2, 0]"];
201 -> 209;
210 [label="X[4] <= 67.0\ngini = 0.3394\nsamples = 60\nvalue = [47, 13, 0]"];
200 -> 210;
211 [label="X[4] <= 61.0\ngini = 0.4444\nsamples = 9\nvalue = [3, 6, 0]"];
210 -> 211;
212 [label="gini = 0.0\nsamples = 3\nvalue = [3, 0, 0]"];
211 -> 212;
213 [label="gini = 0.0\nsamples = 6\nvalue = [0, 6, 0]"];
211 -> 213;
214 [label="X[4] <= 192.0\ngini = 0.2368\nsamples = 51\nvalue = [44, 7, 0]"];
210 -> 214;
215 [label="X[4] <= 183.0\ngini = 0.3841\nsamples = 27\nvalue = [20, 7, 0]"];
214 -> 215;
216 [label="gini = 0.0\nsamples = 20\nvalue = [20, 0, 0]"];
215 -> 216;
217 [label="gini = 0.0\nsamples = 7\nvalue = [0, 7, 0]"];
215 -> 217;
218 [label="gini = 0.0\nsamples = 24\nvalue = [24, 0, 0]"];
214 -> 218;
219 [label="X[3] <= 1.5\ngini = 0.5123\nsamples = 1492\nvalue = [372, 160, 960]"];
3 -> 219;
220 [label="X[2] <= 1.5\ngini = 0.4562\nsamples = 1368\nvalue = [284, 124, 960]"];
219 -> 220;
221 [label="gini = 0.0\nsamples = 44\nvalue = [44, 0, 0]"];
220 -> 221;
222 [label="X[0] <= 33.5\ngini = 0.4326\nsamples = 1324\nvalue = [240, 124, 960]"];
220 -> 222;
223 [label="X[5] <= 6.0\ngini = 0.3894\nsamples = 1229\nvalue = [204, 91, 934]"];
222 -> 223;
224 [label="X[1] <= 7.5\ngini = 0.3712\nsamples = 1205\nvalue = [180, 91, 934]"];
223 -> 224;
225 [label="gini = 0.0\nsamples = 16\nvalue = [16, 0, 0]"];
224 -> 225;
226 [label="X[4] <= 215.5\ngini = 0.3581\nsamples = 1189\nvalue = [164, 91, 934]"];
224 -> 226;
227 [label="X[0] <= 26.5\ngini = 0.446\nsamples = 749\nvalue = [143, 72, 534]"];
226 -> 227;
228 [label="X[0] <= 15.5\ngini = 0.5622\nsamples = 393\nvalue = [90, 69, 234]"];
227 -> 228;
229 [label="X[1] <= 21.5\ngini = 0.4401\nsamples = 328\nvalue = [78, 18, 232]"];
228 -> 229;
230 [label="X[1] <= 19.0\ngini = 0.5245\nsamples = 244\nvalue = [78, 18, 148]"];
229 -> 230;
231 [label="X[1] <= 13.5\ngini = 0.4735\nsamples = 202\nvalue = [46, 18, 138]"];
230 -> 231;
232 [label="X[2] <= 9.0\ngini = 0.5447\nsamples = 160\nvalue = [46, 18, 96]"];
231 -> 232;
233 [label="X[0] <= 13.5\ngini = 0.5737\nsamples = 144\nvalue = [46, 18, 80]"];
232 -> 233;
234 [label="X[5] <= 0.5\ngini = 0.5669\nsamples = 140\nvalue = [42, 18, 80]"];
233 -> 234;
235 [label="X[2] <= 3.0\ngini = 0.5589\nsamples = 114\nvalue = [28, 18, 68]"];
234 -> 235;
236 [label="X[1] <= 12.0\ngini = 0.4628\nsamples = 11\nvalue = [7, 0, 4]"];
235 -> 236;
237 [label="X[4] <= 134.5\ngini = 0.3457\nsamples = 9\nvalue = [7, 0, 2]"];
236 -> 237;
238 [label="X[4] <= 28.0\ngini = 0.48\nsamples = 5\nvalue = [3, 0, 2]"];
237 -> 238;
239 [label="gini = 0.0\nsamples = 1\nvalue = [1, 0, 0]"];
238 -> 239;
240 [label="X[4] <= 91.0\ngini = 0.5\nsamples = 4\nvalue = [2, 0, 2]"];
238 -> 240;
241 [label="gini = 0.5\nsamples = 2\nvalue = [1, 0, 1]"];
240 -> 241;
242 [label="gini = 0.5\nsamples = 2\nvalue = [1, 0, 1]"];
240 -> 242;
243 [label="gini = 0.0\nsamples = 4\nvalue = [4, 0, 0]"];
237 -> 243;
244 [label="gini = 0.0\nsamples = 2\nvalue = [0, 0, 2]"];
236 -> 244;
245 [label="X[2] <= 7.5\ngini = 0.5418\nsamples = 103\nvalue = [21, 18, 64]"];
235 -> 245;
246 [label="X[2] <= 6.5\ngini = 0.4352\nsamples = 58\nvalue = [6, 10, 42]"];
245 -> 246;
247 [label="X[4] <= 126.0\ngini = 0.5397\nsamples = 42\nvalue = [6, 10, 26]"];
246 -> 247;
248 [label="X[4] <= 61.0\ngini = 0.6044\nsamples = 30\nvalue = [6, 8, 16]"];
247 -> 248;
249 [label="X[4] <= 39.0\ngini = 0.3787\nsamples = 13\nvalue = [2, 1, 10]"];
248 -> 249;
250 [label="X[1] <= 12.0\ngini = 0.64\nsamples = 5\nvalue = [2, 1, 2]"];
249 -> 250;
251 [label="gini = 0.5\nsamples = 2\nvalue = [1, 0, 1]"];
250 -> 251;
252 [label="gini = 0.6667\nsamples = 3\nvalue = [1, 1, 1]"];
250 -> 252;
253 [label="gini = 0.0\nsamples = 8\nvalue = [0, 0, 8]"];
249 -> 253;
254 [label="X[4] <= 77.5\ngini = 0.6505\nsamples = 17\nvalue = [4, 7, 6]"];
248 -> 254;
255 [label="X[1] <= 12.0\ngini = 0.375\nsamples = 8\nvalue = [0, 6, 2]"];
254 -> 255;
256 [label="gini = 0.375\nsamples = 4\nvalue = [0, 3, 1]"];
255 -> 256;
257 [label="gini = 0.375\nsamples = 4\nvalue = [0, 3, 1]"];
255 -> 257;
258 [label="X[4] <= 102.5\ngini = 0.5926\nsamples = 9\nvalue = [4, 1, 4]"];
254 -> 258;
259 [label="gini = 0.0\nsamples = 2\nvalue = [0, 0, 2]"];
258 -> 259;
260 [label="X[1] <= 12.0\ngini = 0.5714\nsamples = 7\nvalue = [4, 1, 2]"];
258 -> 260;
261 [label="gini = 0.4444\nsamples = 3\nvalue = [2, 0, 1]"];
260 -> 261;
262 [label="gini = 0.625\nsamples = 4\nvalue = [2, 1, 1]"];
260 -> 262;
263 [label="X[4] <= 174.5\ngini = 0.2778\nsamples = 12\nvalue = [0, 2, 10]"];
247 -> 263;
264 [label="gini = 0.0\nsamples = 6\nvalue = [0, 0, 6]"];
263 -> 264;
265 [label="X[4] <= 194.0\ngini = 0.4444\nsamples = 6\nvalue = [0, 2, 4]"];
263 -> 265;
266 [label="X[1] <= 12.0\ngini = 0.5\nsamples = 4\nvalue = [0, 2, 2]"];
265 -> 266;
267 [label="gini = 0.5\nsamples = 2\nvalue = [0, 1, 1]"];
266 -> 267;
268 [label="gini = 0.5\nsamples = 2\nvalue = [0, 1, 1]"];
266 -> 268;
269 [label="gini = 0.0\nsamples = 2\nvalue = [0, 0, 2]"];
265 -> 269;
270 [label="gini = 0.0\nsamples = 16\nvalue = [0, 0, 16]"];
246 -> 270;
271 [label="X[1] <= 12.0\ngini = 0.6183\nsamples = 45\nvalue = [15, 8, 22]"];
245 -> 271;
272 [label="X[4] <= 102.5\ngini = 0.6145\nsamples = 27\nvalue = [12, 4, 11]"];
271 -> 272;
273 [label="X[4] <= 61.0\ngini = 0.6391\nsamples = 13\nvalue = [4, 3, 6]"];
272 -> 273;
274 [label="X[4] <= 19.0\ngini = 0.5\nsamples = 8\nvalue = [4, 0, 4]"];
273 -> 274;
275 [label="gini = 0.0\nsamples = 1\nvalue = [1, 0, 0]"];
274 -> 275;
276 [label="X[4] <= 51.0\ngini = 0.4898\nsamples = 7\nvalue = [3, 0, 4]"];
274 -> 276;
277 [label="X[4] <= 39.0\ngini = 0.5\nsamples = 4\nvalue = [2, 0, 2]"];
276 -> 277;
278 [label="gini = 0.5\nsamples = 2\nvalue = [1, 0, 1]"];
277 -> 278;
279 [label="gini = 0.5\nsamples = 2\nvalue = [1, 0, 1]"];
277 -> 279;
280 [label="gini = 0.4444\nsamples = 3\nvalue = [1, 0, 2]"];
276 -> 280;
281 [label="X[4] <= 77.5\ngini = 0.48\nsamples = 5\nvalue = [0, 3, 2]"];
273 -> 281;
282 [label="gini = 0.375\nsamples = 4\nvalue = [0, 3, 1]"];
281 -> 282;
283 [label="gini = 0.0\nsamples = 1\nvalue = [0, 0, 1]"];
281 -> 283;
284 [label="X[4] <= 167.0\ngini = 0.5408\nsamples = 14\nvalue = [8, 1, 5]"];
272 -> 284;
285 [label="X[4] <= 134.5\ngini = 0.375\nsamples = 8\nvalue = [6, 0, 2]"];
284 -> 285;
286 [label="X[4] <= 126.0\ngini = 0.48\nsamples = 5\nvalue = [3, 0, 2]"];
285 -> 286;
287 [label="gini = 0.4444\nsamples = 3\nvalue = [2, 0, 1]"];
286 -> 287;
288 [label="gini = 0.5\nsamples = 2\nvalue = [1, 0, 1]"];
286 -> 288;
289 [label="gini = 0.0\nsamples = 3\nvalue = [3, 0, 0]"];
285 -> 289;
290 [label="X[4] <= 174.5\ngini = 0.6111\nsamples = 6\nvalue = [2, 1, 3]"];
284 -> 290;
291 [label="gini = 0.5\nsamples = 2\nvalue = [1, 0, 1]"];
290 -> 291;
292 [label="X[4] <= 194.0\ngini = 0.625\nsamples = 4\nvalue = [1, 1, 2]"];
290 -> 292;
293 [label="gini = 0.5\nsamples = 2\nvalue = [0, 1, 1]"];
292 -> 293;
294 [label="gini = 0.5\nsamples = 2\nvalue = [1, 0, 1]"];
292 -> 294;
295 [label="X[4] <= 61.0\ngini = 0.5494\nsamples = 18\nvalue = [3, 4, 11]"];
271 -> 295;
296 [label="X[4] <= 39.0\ngini = 0.32\nsamples = 5\nvalue = [1, 0, 4]"];
295 -> 296;
297 [label="gini = 0.5\nsamples = 2\nvalue = [1, 0, 1]"];
296 -> 297;
298 [label="gini = 0.0\nsamples = 3\nvalue = [0, 0, 3]"];
296 -> 298;
299 [label="X[4] <= 77.5\ngini = 0.5917\nsamples = 13\nvalue = [2, 4, 7]"];
295 -> 299;
300 [label="gini = 0.375\nsamples = 4\nvalue = [0, 3, 1]"];
299 -> 300;
301 [label="X[4] <= 126.0\ngini = 0.4938\nsamples = 9\nvalue = [2, 1, 6]"];
299 -> 301;
302 [label="X[4] <= 102.5\ngini = 0.5\nsamples = 4\nvalue = [2, 0, 2]"];
301 -> 302;
303 [label="gini = 0.0\nsamples = 1\nvalue = [0, 0, 1]"];
302 -> 303;
304 [label="gini = 0.4444\nsamples = 3\nvalue = [2, 0, 1]"];
302 -> 304;
305 [label="X[4] <= 174.5\ngini = 0.32\nsamples = 5\nvalue = [0, 1, 4]"];
301 -> 305;
306 [label="gini = 0.0\nsamples = 2\nvalue = [0, 0, 2]"];
305 -> 306;
307 [label="X[4] <= 194.0\ngini = 0.4444\nsamples = 3\nvalue = [0, 1, 2]"];
305 -> 307;
308 [label="gini = 0.5\nsamples = 2\nvalue = [0, 1, 1]"];
307 -> 308;
309 [label="gini = 0.0\nsamples = 1\nvalue = [0, 0, 1]"];
307 -> 309;
310 [label="X[5] <= 2.5\ngini = 0.497\nsamples = 26\nvalue = [14, 0, 12]"];
234 -> 310;
311 [label="gini = 0.0\nsamples = 12\nvalue = [12, 0, 0]"];
310 -> 311;
312 [label="X[2] <= 4.0\ngini = 0.2449\nsamples = 14\nvalue = [2, 0, 12]"];
310 -> 312;
313 [label="gini = 0.0\nsamples = 1\nvalue = [1, 0, 0]"];
312 -> 313;
314 [label="X[2] <= 7.5\ngini = 0.142\nsamples = 13\nvalue = [1, 0, 12]"];
312 -> 314;
315 [label="gini = 0.0\nsamples = 8\nvalue = [0, 0, 8]"];
314 -> 315;
316 [label="X[4] <= 123.5\ngini = 0.32\nsamples = 5\nvalue = [1, 0, 4]"];
314 -> 316;
317 [label="gini = 0.0\nsamples = 2\nvalue = [0, 0, 2]"];
316 -> 317;
318 [label="X[5] <= 3.5\ngini = 0.4444\nsamples = 3\nvalue = [1, 0, 2]"];
316 -> 318;
319 [label="gini = 0.0\nsamples = 2\nvalue = [0, 0, 2]"];
318 -> 319;
320 [label="gini = 0.0\nsamples = 1\nvalue = [1, 0, 0]"];
318 -> 320;
321 [label="gini = 0.0\nsamples = 4\nvalue = [4, 0, 0]"];
233 -> 321;
322 [label="gini = 0.0\nsamples = 16\nvalue = [0, 0, 16]"];
232 -> 322;
323 [label="gini = 0.0\nsamples = 42\nvalue = [0, 0, 42]"];
231 -> 323;
324 [label="X[4] <= 134.5\ngini = 0.3628\nsamples = 42\nvalue = [32, 0, 10]"];
230 -> 324;
325 [label="X[1] <= 20.5\ngini = 0.4959\nsamples = 22\nvalue = [12, 0, 10]"];
324 -> 325;
326 [label="X[4] <= 28.0\ngini = 0.4688\nsamples = 16\nvalue = [6, 0, 10]"];
325 -> 326;
327 [label="gini = 0.0\nsamples = 2\nvalue = [2, 0, 0]"];
326 -> 327;
328 [label="X[2] <= 3.0\ngini = 0.4082\nsamples = 14\nvalue = [4, 0, 10]"];
326 -> 328;
329 [label="X[4] <= 91.0\ngini = 0.5\nsamples = 4\nvalue = [2, 0, 2]"];
328 -> 329;
330 [label="gini = 0.5\nsamples = 2\nvalue = [1, 0, 1]"];
329 -> 330;
331 [label="gini = 0.5\nsamples = 2\nvalue = [1, 0, 1]"];
329 -> 331;
332 [label="X[2] <= 7.5\ngini = 0.32\nsamples = 10\nvalue = [2, 0, 8]"];
328 -> 332;
333 [label="gini = 0.0\nsamples = 6\nvalue = [0, 0, 6]"];
332 -> 333;
334 [label="X[4] <= 91.0\ngini = 0.5\nsamples = 4\nvalue = [2, 0, 2]"];
332 -> 334;
335 [label="gini = 0.5\nsamples = 2\nvalue = [1, 0, 1]"];
334 -> 335;
336 [label="gini = 0.5\nsamples = 2\nvalue = [1, 0, 1]"];
334 -> 336;
337 [label="gini = 0.0\nsamples = 6\nvalue = [6, 0, 0]"];
325 -> 337;
338 [label="gini = 0.0\nsamples = 20\nvalue = [20, 0, 0]"];
324 -> 338;
339 [label="gini = 0.0\nsamples = 84\nvalue = [0, 0, 84]"];
229 -> 339;
340 [label="X[5] <= 0.5\ngini = 0.3493\nsamples = 65\nvalue = [12, 51, 2]"];
228 -> 340;
341 [label="X[0] <= 17.5\ngini = 0.2594\nsamples = 60\nvalue = [8, 51, 1]"];
340 -> 341;
342 [label="X[2] <= 5.0\ngini = 0.4162\nsamples = 29\nvalue = [7, 21, 1]"];
341 -> 342;
343 [label="gini = 0.0\nsamples = 1\nvalue = [1, 0, 0]"];
342 -> 343;
344 [label="X[4] <= 65.0\ngini = 0.3903\nsamples = 28\nvalue = [6, 21, 1]"];
342 -> 344;
345 [label="X[0] <= 16.5\ngini = 0.1975\nsamples = 9\nvalue = [1, 8, 0]"];
344 -> 345;
346 [label="gini = 0.32\nsamples = 5\nvalue = [1, 4, 0]"];
345 -> 346;
347 [label="gini = 0.0\nsamples = 4\nvalue = [0, 4, 0]"];
345 -> 347;
348 [label="X[4] <= 77.0\ngini = 0.4598\nsamples = 19\nvalue = [5, 13, 1]"];
344 -> 348;
349 [label="X[0] <= 16.5\ngini = 0.5\nsamples = 2\nvalue = [1, 1, 0]"];
348 -> 349;
350 [label="gini = 0.0\nsamples = 1\nvalue = [1, 0, 0]"];
349 -> 350;
351 [label="gini = 0.0\nsamples = 1\nvalue = [0, 1, 0]"];
349 -> 351;
352 [label="X[4] <= 128.5\ngini = 0.4429\nsamples = 17\nvalue = [4, 12, 1]"];
348 -> 352;
353 [label="gini = 0.0\nsamples = 2\nvalue = [0, 2, 0]"];
352 -> 353;
354 [label="X[0] <= 16.5\ngini = 0.48\nsamples = 15\nvalue = [4, 10, 1]"];
352 -> 354;
355 [label="X[4] <= 189.5\ngini = 0.449\nsamples = 7\nvalue = [1, 5, 1]"];
354 -> 355;
356 [label="gini = 0.5\nsamples = 6\nvalue = [1, 4, 1]"];
355 -> 356;
357 [label="gini = 0.0\nsamples = 1\nvalue = [0, 1, 0]"];
355 -> 357;
358 [label="X[4] <= 176.0\ngini = 0.4688\nsamples = 8\nvalue = [3, 5, 0]"];
354 -> 358;
359 [label="gini = 0.375\nsamples = 4\nvalue = [1, 3, 0]"];
358 -> 359;
360 [label="X[4] <= 194.5\ngini = 0.5\nsamples = 4\nvalue = [2, 2, 0]"];
358 -> 360;
361 [label="gini = 0.5\nsamples = 2\nvalue = [1, 1, 0]"];
360 -> 361;
362 [label="gini = 0.5\nsamples = 2\nvalue = [1, 1, 0]"];
360 -> 362;
363 [label="X[0] <= 21.5\ngini = 0.0624\nsamples = 31\nvalue = [1, 30, 0]"];
341 -> 363;
364 [label="gini = 0.0\nsamples = 27\nvalue = [0, 27, 0]"];
363 -> 364;
365 [label="X[2] <= 5.0\ngini = 0.375\nsamples = 4\nvalue = [1, 3, 0]"];
363 -> 365;
366 [label="gini = 0.0\nsamples = 1\nvalue = [1, 0, 0]"];
365 -> 366;
367 [label="gini = 0.0\nsamples = 3\nvalue = [0, 3, 0]"];
365 -> 367;
368 [label="X[5] <= 1.5\ngini = 0.32\nsamples = 5\nvalue = [4, 0, 1]"];
340 -> 368;
369 [label="gini = 0.0\nsamples = 1\nvalue = [0, 0, 1]"];
368 -> 369;
370 [label="gini = 0.0\nsamples = 4\nvalue = [4, 0, 0]"];
368 -> 370;
371 [label="X[2] <= 8.5\ngini = 0.2676\nsamples = 356\nvalue = [53, 3, 300]"];
227 -> 371;
372 [label="X[4] <= 191.5\ngini = 0.1785\nsamples = 286\nvalue = [25, 3, 258]"];
371 -> 372;
373 [label="X[2] <= 4.0\ngini = 0.1627\nsamples = 283\nvalue = [22, 3, 258]"];
372 -> 373;
374 [label="X[2] <= 2.5\ngini = 0.2768\nsamples = 140\nvalue = [22, 1, 117]"];
373 -> 374;
375 [label="X[0] <= 32.5\ngini = 0.0733\nsamples = 53\nvalue = [1, 1, 51]"];
374 -> 375;
376 [label="gini = 0.0\nsamples = 51\nvalue = [0, 0, 51]"];
375 -> 376;
377 [label="gini = 0.5\nsamples = 2\nvalue = [1, 1, 0]"];
375 -> 377;
378 [label="X[0] <= 32.5\ngini = 0.3662\nsamples = 87\nvalue = [21, 0, 66]"];
374 -> 378;
379 [label="X[1] <= 23.5\ngini = 0.4444\nsamples = 63\nvalue = [21, 0, 42]"];
378 -> 379;
380 [label="X[1] <= 10.5\ngini = 0.32\nsamples = 35\nvalue = [7, 0, 28]"];
379 -> 380;
381 [label="X[4] <= 162.5\ngini = 0.5\nsamples = 14\nvalue = [7, 0, 7]"];
380 -> 381;
382 [label="X[4] <= 76.5\ngini = 0.497\nsamples = 13\nvalue = [7, 0, 6]"];
381 -> 382;
383 [label="X[4] <= 47.0\ngini = 0.48\nsamples = 5\nvalue = [2, 0, 3]"];
382 -> 383;
384 [label="X[4] <= 38.5\ngini = 0.5\nsamples = 4\nvalue = [2, 0, 2]"];
383 -> 384;
385 [label="gini = 0.5\nsamples = 2\nvalue = [1, 0, 1]"];
384 -> 385;
386 [label="gini = 0.5\nsamples = 2\nvalue = [1, 0, 1]"];
384 -> 386;
387 [label="gini = 0.0\nsamples = 1\nvalue = [0, 0, 1]"];
383 -> 387;
388 [label="X[4] <= 130.5\ngini = 0.4688\nsamples = 8\nvalue = [5, 0, 3]"];
382 -> 388;
389 [label="gini = 0.0\nsamples = 2\nvalue = [2, 0, 0]"];
388 -> 389;
390 [label="X[4] <= 143.0\ngini = 0.5\nsamples = 6\nvalue = [3, 0, 3]"];
388 -> 390;
391 [label="gini = 0.0\nsamples = 1\nvalue = [0, 0, 1]"];
390 -> 391;
392 [label="X[4] <= 152.5\ngini = 0.48\nsamples = 5\nvalue = [3, 0, 2]"];
390 -> 392;
393 [label="gini = 0.0\nsamples = 1\nvalue = [1, 0, 0]"];
392 -> 393;
394 [label="X[4] <= 153.5\ngini = 0.5\nsamples = 4\nvalue = [2, 0, 2]"];
392 -> 394;
395 [label="gini = 0.5\nsamples = 2\nvalue = [1, 0, 1]"];
394 -> 395;
396 [label="gini = 0.5\nsamples = 2\nvalue = [1, 0, 1]"];
394 -> 396;
397 [label="gini = 0.0\nsamples = 1\nvalue = [0, 0, 1]"];
381 -> 397;
398 [label="gini = 0.0\nsamples = 21\nvalue = [0, 0, 21]"];
380 -> 398;
399 [label="X[1] <= 33.5\ngini = 0.5\nsamples = 28\nvalue = [14, 0, 14]"];
379 -> 399;
400 [label="X[1] <= 27.5\ngini = 0.4444\nsamples = 21\nvalue = [14, 0, 7]"];
399 -> 400;
401 [label="X[4] <= 162.5\ngini = 0.5\nsamples = 14\nvalue = [7, 0, 7]"];
400 -> 401;
402 [label="X[4] <= 76.5\ngini = 0.497\nsamples = 13\nvalue = [7, 0, 6]"];
401 -> 402;
403 [label="X[4] <= 47.0\ngini = 0.48\nsamples = 5\nvalue = [2, 0, 3]"];
402 -> 403;
404 [label="X[4] <= 38.5\ngini = 0.5\nsamples = 4\nvalue = [2, 0, 2]"];
403 -> 404;
405 [label="gini = 0.5\nsamples = 2\nvalue = [1, 0, 1]"];
404 -> 405;
406 [label="gini = 0.5\nsamples = 2\nvalue = [1, 0, 1]"];
404 -> 406;
407 [label="gini = 0.0\nsamples = 1\nvalue = [0, 0, 1]"];
403 -> 407;
408 [label="X[4] <= 130.5\ngini = 0.4688\nsamples = 8\nvalue = [5, 0, 3]"];
402 -> 408;
409 [label="gini = 0.0\nsamples = 2\nvalue = [2, 0, 0]"];
408 -> 409;
410 [label="X[4] <= 143.0\ngini = 0.5\nsamples = 6\nvalue = [3, 0, 3]"];
408 -> 410;
411 [label="gini = 0.0\nsamples = 1\nvalue = [0, 0, 1]"];
410 -> 411;
412 [label="X[4] <= 152.5\ngini = 0.48\nsamples = 5\nvalue = [3, 0, 2]"];
410 -> 412;
413 [label="gini = 0.0\nsamples = 1\nvalue = [1, 0, 0]"];
412 -> 413;
414 [label="X[4] <= 153.5\ngini = 0.5\nsamples = 4\nvalue = [2, 0, 2]"];
412 -> 414;
415 [label="gini = 0.5\nsamples = 2\nvalue = [1, 0, 1]"];
414 -> 415;
416 [label="gini = 0.5\nsamples = 2\nvalue = [1, 0, 1]"];
414 -> 416;
417 [label="gini = 0.0\nsamples = 1\nvalue = [0, 0, 1]"];
401 -> 417;
418 [label="gini = 0.0\nsamples = 7\nvalue = [7, 0, 0]"];
400 -> 418;
419 [label="gini = 0.0\nsamples = 7\nvalue = [0, 0, 7]"];
399 -> 419;
420 [label="gini = 0.0\nsamples = 24\nvalue = [0, 0, 24]"];
378 -> 420;
421 [label="X[0] <= 31.0\ngini = 0.0276\nsamples = 143\nvalue = [0, 2, 141]"];
373 -> 421;
422 [label="X[1] <= 15.5\ngini = 0.2975\nsamples = 11\nvalue = [0, 2, 9]"];
421 -> 422;
423 [label="X[4] <= 94.5\ngini = 0.48\nsamples = 5\nvalue = [0, 2, 3]"];
422 -> 423;
424 [label="gini = 0.5\nsamples = 2\nvalue = [0, 1, 1]"];
423 -> 424;
425 [label="X[4] <= 152.5\ngini = 0.4444\nsamples = 3\nvalue = [0, 1, 2]"];
423 -> 425;
426 [label="gini = 0.0\nsamples = 1\nvalue = [0, 0, 1]"];
425 -> 426;
427 [label="gini = 0.5\nsamples = 2\nvalue = [0, 1, 1]"];
425 -> 427;
428 [label="gini = 0.0\nsamples = 6\nvalue = [0, 0, 6]"];
422 -> 428;
429 [label="gini = 0.0\nsamples = 132\nvalue = [0, 0, 132]"];
421 -> 429;
430 [label="gini = 0.0\nsamples = 3\nvalue = [3, 0, 0]"];
372 -> 430;
431 [label="X[1] <= 23.5\ngini = 0.48\nsamples = 70\nvalue = [28, 0, 42]"];
371 -> 431;
432 [label="X[1] <= 10.5\ngini = 0.3457\nsamples = 36\nvalue = [8, 0, 28]"];
431 -> 432;
433 [label="X[4] <= 191.5\ngini = 0.4978\nsamples = 15\nvalue = [8, 0, 7]"];
432 -> 433;
434 [label="X[4] <= 162.5\ngini = 0.5\nsamples = 14\nvalue = [7, 0, 7]"];
433 -> 434;
435 [label="X[4] <= 76.5\ngini = 0.497\nsamples = 13\nvalue = [7, 0, 6]"];
434 -> 435;
436 [label="X[4] <= 47.0\ngini = 0.48\nsamples = 5\nvalue = [2, 0, 3]"];
435 -> 436;
437 [label="X[4] <= 38.5\ngini = 0.5\nsamples = 4\nvalue = [2, 0, 2]"];
436 -> 437;
438 [label="gini = 0.5\nsamples = 2\nvalue = [1, 0, 1]"];
437 -> 438;
439 [label="gini = 0.5\nsamples = 2\nvalue = [1, 0, 1]"];
437 -> 439;
440 [label="gini = 0.0\nsamples = 1\nvalue = [0, 0, 1]"];
436 -> 440;
441 [label="X[4] <= 130.5\ngini = 0.4688\nsamples = 8\nvalue = [5, 0, 3]"];
435 -> 441;
442 [label="gini = 0.0\nsamples = 2\nvalue = [2, 0, 0]"];
441 -> 442;
443 [label="X[4] <= 143.0\ngini = 0.5\nsamples = 6\nvalue = [3, 0, 3]"];
441 -> 443;
444 [label="gini = 0.0\nsamples = 1\nvalue = [0, 0, 1]"];
443 -> 444;
445 [label="X[4] <= 152.5\ngini = 0.48\nsamples = 5\nvalue = [3, 0, 2]"];
443 -> 445;
446 [label="gini = 0.0\nsamples = 1\nvalue = [1, 0, 0]"];
445 -> 446;
447 [label="X[4] <= 153.5\ngini = 0.5\nsamples = 4\nvalue = [2, 0, 2]"];
445 -> 447;
448 [label="gini = 0.5\nsamples = 2\nvalue = [1, 0, 1]"];
447 -> 448;
449 [label="gini = 0.5\nsamples = 2\nvalue = [1, 0, 1]"];
447 -> 449;
450 [label="gini = 0.0\nsamples = 1\nvalue = [0, 0, 1]"];
434 -> 450;
451 [label="gini = 0.0\nsamples = 1\nvalue = [1, 0, 0]"];
433 -> 451;
452 [label="gini = 0.0\nsamples = 21\nvalue = [0, 0, 21]"];
432 -> 452;
453 [label="X[1] <= 34.5\ngini = 0.4844\nsamples = 34\nvalue = [20, 0, 14]"];
431 -> 453;
454 [label="X[1] <= 27.5\ngini = 0.3841\nsamples = 27\nvalue = [20, 0, 7]"];
453 -> 454;
455 [label="X[4] <= 191.5\ngini = 0.4978\nsamples = 15\nvalue = [8, 0, 7]"];
454 -> 455;
456 [label="X[4] <= 162.5\ngini = 0.5\nsamples = 14\nvalue = [7, 0, 7]"];
455 -> 456;
457 [label="X[4] <= 76.5\ngini = 0.497\nsamples = 13\nvalue = [7, 0, 6]"];
456 -> 457;
458 [label="X[4] <= 47.0\ngini = 0.48\nsamples = 5\nvalue = [2, 0, 3]"];
457 -> 458;
459 [label="X[4] <= 38.5\ngini = 0.5\nsamples = 4\nvalue = [2, 0, 2]"];
458 -> 459;
460 [label="gini = 0.5\nsamples = 2\nvalue = [1, 0, 1]"];
459 -> 460;
461 [label="gini = 0.5\nsamples = 2\nvalue = [1, 0, 1]"];
459 -> 461;
462 [label="gini = 0.0\nsamples = 1\nvalue = [0, 0, 1]"];
458 -> 462;
463 [label="X[4] <= 130.5\ngini = 0.4688\nsamples = 8\nvalue = [5, 0, 3]"];
457 -> 463;
464 [label="gini = 0.0\nsamples = 2\nvalue = [2, 0, 0]"];
463 -> 464;
465 [label="X[4] <= 143.0\ngini = 0.5\nsamples = 6\nvalue = [3, 0, 3]"];
463 -> 465;
466 [label="gini = 0.0\nsamples = 1\nvalue = [0, 0, 1]"];
465 -> 466;
467 [label="X[4] <= 152.5\ngini = 0.48\nsamples = 5\nvalue = [3, 0, 2]"];
465 -> 467;
468 [label="gini = 0.0\nsamples = 1\nvalue = [1, 0, 0]"];
467 -> 468;
469 [label="X[4] <= 153.5\ngini = 0.5\nsamples = 4\nvalue = [2, 0, 2]"];
467 -> 469;
470 [label="gini = 0.5\nsamples = 2\nvalue = [1, 0, 1]"];
469 -> 470;
471 [label="gini = 0.5\nsamples = 2\nvalue = [1, 0, 1]"];
469 -> 471;
472 [label="gini = 0.0\nsamples = 1\nvalue = [0, 0, 1]"];
456 -> 472;
473 [label="gini = 0.0\nsamples = 1\nvalue = [1, 0, 0]"];
455 -> 473;
474 [label="gini = 0.0\nsamples = 12\nvalue = [12, 0, 0]"];
454 -> 474;
475 [label="gini = 0.0\nsamples = 7\nvalue = [0, 0, 7]"];
453 -> 475;
476 [label="X[5] <= 0.5\ngini = 0.1694\nsamples = 440\nvalue = [21, 19, 400]"];
226 -> 476;
477 [label="X[1] <= 13.5\ngini = 0.1474\nsamples = 434\nvalue = [15, 19, 400]"];
476 -> 477;
478 [label="X[2] <= 5.5\ngini = 0.301\nsamples = 179\nvalue = [13, 18, 148]"];
477 -> 478;
479 [label="gini = 0.0\nsamples = 48\nvalue = [0, 0, 48]"];
478 -> 479;
480 [label="X[4] <= 260.5\ngini = 0.3886\nsamples = 131\nvalue = [13, 18, 100]"];
478 -> 480;
481 [label="gini = 0.0\nsamples = 35\nvalue = [0, 0, 35]"];
480 -> 481;
482 [label="X[4] <= 276.5\ngini = 0.4881\nsamples = 96\nvalue = [13, 18, 65]"];
480 -> 482;
483 [label="X[2] <= 9.0\ngini = 0.6016\nsamples = 25\nvalue = [4, 13, 8]"];
482 -> 483;
484 [label="X[2] <= 6.5\ngini = 0.5822\nsamples = 23\nvalue = [4, 13, 6]"];
483 -> 484;
485 [label="X[1] <= 12.0\ngini = 0.5289\nsamples = 11\nvalue = [2, 7, 2]"];
484 -> 485;
486 [label="gini = 0.56\nsamples = 5\nvalue = [1, 3, 1]"];
485 -> 486;
487 [label="gini = 0.5\nsamples = 6\nvalue = [1, 4, 1]"];
485 -> 487;
488 [label="X[2] <= 7.5\ngini = 0.6111\nsamples = 12\nvalue = [2, 6, 4]"];
484 -> 488;
489 [label="gini = 0.0\nsamples = 2\nvalue = [0, 0, 2]"];
488 -> 489;
490 [label="X[1] <= 12.0\ngini = 0.56\nsamples = 10\nvalue = [2, 6, 2]"];
488 -> 490;
491 [label="gini = 0.56\nsamples = 5\nvalue = [1, 3, 1]"];
490 -> 491;
492 [label="gini = 0.56\nsamples = 5\nvalue = [1, 3, 1]"];
490 -> 492;
493 [label="gini = 0.0\nsamples = 2\nvalue = [0, 0, 2]"];
483 -> 493;
494 [label="X[4] <= 325.5\ngini = 0.3345\nsamples = 71\nvalue = [9, 5, 57]"];
482 -> 494;
495 [label="X[4] <= 289.0\ngini = 0.0465\nsamples = 42\nvalue = [1, 0, 41]"];
494 -> 495;
496 [label="X[0] <= 23.5\ngini = 0.5\nsamples = 2\nvalue = [1, 0, 1]"];
495 -> 496;
497 [label="gini = 0.0\nsamples = 1\nvalue = [1, 0, 0]"];
496 -> 497;
498 [label="gini = 0.0\nsamples = 1\nvalue = [0, 0, 1]"];
496 -> 498;
499 [label="gini = 0.0\nsamples = 40\nvalue = [0, 0, 40]"];
495 -> 499;
500 [label="X[4] <= 364.0\ngini = 0.5898\nsamples = 29\nvalue = [8, 5, 16]"];
494 -> 500;
501 [label="X[2] <= 6.5\ngini = 0.6427\nsamples = 23\nvalue = [8, 5, 10]"];
500 -> 501;
502 [label="X[1] <= 12.0\ngini = 0.6612\nsamples = 11\nvalue = [4, 3, 4]"];
501 -> 502;
503 [label="gini = 0.64\nsamples = 5\nvalue = [2, 1, 2]"];
502 -> 503;
504 [label="gini = 0.6667\nsamples = 6\nvalue = [2, 2, 2]"];
502 -> 504;
505 [label="X[2] <= 7.5\ngini = 0.6111\nsamples = 12\nvalue = [4, 2, 6]"];
501 -> 505;
506 [label="gini = 0.0\nsamples = 2\nvalue = [0, 0, 2]"];
505 -> 506;
507 [label="X[1] <= 12.0\ngini = 0.64\nsamples = 10\nvalue = [4, 2, 4]"];
505 -> 507;
508 [label="gini = 0.64\nsamples = 5\nvalue = [2, 1, 2]"];
507 -> 508;
509 [label="gini = 0.64\nsamples = 5\nvalue = [2, 1, 2]"];
507 -> 509;
510 [label="gini = 0.0\nsamples = 6\nvalue = [0, 0, 6]"];
500 -> 510;
511 [label="X[4] <= 220.5\ngini = 0.0233\nsamples = 255\nvalue = [2, 1, 252]"];
477 -> 511;
512 [label="X[0] <= 31.5\ngini = 0.145\nsamples = 26\nvalue = [1, 1, 24]"];
511 -> 512;
513 [label="X[0] <= 14.5\ngini = 0.0768\nsamples = 25\nvalue = [1, 0, 24]"];
512 -> 513;
514 [label="gini = 0.0\nsamples = 20\nvalue = [0, 0, 20]"];
513 -> 514;
515 [label="X[0] <= 23.0\ngini = 0.32\nsamples = 5\nvalue = [1, 0, 4]"];
513 -> 515;
516 [label="gini = 0.0\nsamples = 1\nvalue = [1, 0, 0]"];
515 -> 516;
517 [label="gini = 0.0\nsamples = 4\nvalue = [0, 0, 4]"];
515 -> 517;
518 [label="gini = 0.0\nsamples = 1\nvalue = [0, 1, 0]"];
512 -> 518;
519 [label="X[1] <= 29.5\ngini = 0.0087\nsamples = 229\nvalue = [1, 0, 228]"];
511 -> 519;
520 [label="gini = 0.0\nsamples = 205\nvalue = [0, 0, 205]"];
519 -> 520;
521 [label="X[0] <= 23.5\ngini = 0.0799\nsamples = 24\nvalue = [1, 0, 23]"];
519 -> 521;
522 [label="gini = 0.0\nsamples = 1\nvalue = [1, 0, 0]"];
521 -> 522;
523 [label="gini = 0.0\nsamples = 23\nvalue = [0, 0, 23]"];
521 -> 523;
524 [label="gini = 0.0\nsamples = 6\nvalue = [6, 0, 0]"];
476 -> 524;
525 [label="gini = 0.0\nsamples = 24\nvalue = [24, 0, 0]"];
223 -> 525;
526 [label="X[0] <= 63.5\ngini = 0.6608\nsamples = 95\nvalue = [36, 33, 26]"];
222 -> 526;
527 [label="X[0] <= 50.5\ngini = 0.5261\nsamples = 71\nvalue = [36, 33, 2]"];
526 -> 527;
528 [label="X[4] <= 48.0\ngini = 0.2509\nsamples = 34\nvalue = [29, 5, 0]"];
527 -> 528;
529 [label="gini = 0.0\nsamples = 1\nvalue = [0, 1, 0]"];
528 -> 529;
530 [label="X[0] <= 42.5\ngini = 0.213\nsamples = 33\nvalue = [29, 4, 0]"];
528 -> 530;
531 [label="X[0] <= 36.5\ngini = 0.32\nsamples = 20\nvalue = [16, 4, 0]"];
530 -> 531;
532 [label="X[1] <= 15.5\ngini = 0.1244\nsamples = 15\nvalue = [14, 1, 0]"];
531 -> 532;
533 [label="X[0] <= 35.0\ngini = 0.32\nsamples = 5\nvalue = [4, 1, 0]"];
532 -> 533;
534 [label="gini = 0.0\nsamples = 4\nvalue = [4, 0, 0]"];
533 -> 534;
535 [label="gini = 0.0\nsamples = 1\nvalue = [0, 1, 0]"];
533 -> 535;
536 [label="gini = 0.0\nsamples = 10\nvalue = [10, 0, 0]"];
532 -> 536;
537 [label="X[1] <= 15.5\ngini = 0.48\nsamples = 5\nvalue = [2, 3, 0]"];
531 -> 537;
538 [label="X[0] <= 38.0\ngini = 0.4444\nsamples = 3\nvalue = [2, 1, 0]"];
537 -> 538;
539 [label="gini = 0.0\nsamples = 1\nvalue = [0, 1, 0]"];
538 -> 539;
540 [label="gini = 0.0\nsamples = 2\nvalue = [2, 0, 0]"];
538 -> 540;
541 [label="gini = 0.0\nsamples = 2\nvalue = [0, 2, 0]"];
537 -> 541;
542 [label="gini = 0.0\nsamples = 13\nvalue = [13, 0, 0]"];
530 -> 542;
543 [label="X[4] <= 109.0\ngini = 0.3886\nsamples = 37\nvalue = [7, 28, 2]"];
527 -> 543;
544 [label="gini = 0.0\nsamples = 14\nvalue = [0, 14, 0]"];
543 -> 544;
545 [label="X[4] <= 145.0\ngini = 0.5293\nsamples = 23\nvalue = [7, 14, 2]"];
543 -> 545;
546 [label="X[0] <= 52.0\ngini = 0.4444\nsamples = 6\nvalue = [4, 2, 0]"];
545 -> 546;
547 [label="gini = 0.0\nsamples = 3\nvalue = [3, 0, 0]"];
546 -> 547;
548 [label="X[0] <= 55.0\ngini = 0.4444\nsamples = 3\nvalue = [1, 2, 0]"];
546 -> 548;
549 [label="gini = 0.0\nsamples = 1\nvalue = [0, 1, 0]"];
548 -> 549;
550 [label="X[0] <= 59.5\ngini = 0.5\nsamples = 2\nvalue = [1, 1, 0]"];
548 -> 550;
551 [label="gini = 0.0\nsamples = 1\nvalue = [1, 0, 0]"];
550 -> 551;
552 [label="gini = 0.0\nsamples = 1\nvalue = [0, 1, 0]"];
550 -> 552;
553 [label="X[4] <= 212.0\ngini = 0.4567\nsamples = 17\nvalue = [3, 12, 2]"];
545 -> 553;
554 [label="X[2] <= 5.0\ngini = 0.2778\nsamples = 12\nvalue = [0, 10, 2]"];
553 -> 554;
555 [label="gini = 0.0\nsamples = 4\nvalue = [0, 4, 0]"];
554 -> 555;
556 [label="X[1] <= 32.5\ngini = 0.375\nsamples = 8\nvalue = [0, 6, 2]"];
554 -> 556;
557 [label="X[4] <= 161.5\ngini = 0.4444\nsamples = 6\nvalue = [0, 4, 2]"];
556 -> 557;
558 [label="gini = 0.0\nsamples = 1\nvalue = [0, 1, 0]"];
557 -> 558;
559 [label="X[0] <= 54.0\ngini = 0.48\nsamples = 5\nvalue = [0, 3, 2]"];
557 -> 559;
560 [label="gini = 0.0\nsamples = 1\nvalue = [0, 1, 0]"];
559 -> 560;
561 [label="X[4] <= 188.0\ngini = 0.5\nsamples = 4\nvalue = [0, 2, 2]"];
559 -> 561;
562 [label="X[4] <= 169.0\ngini = 0.4444\nsamples = 3\nvalue = [0, 2, 1]"];
561 -> 562;
563 [label="gini = 0.5\nsamples = 2\nvalue = [0, 1, 1]"];
562 -> 563;
564 [label="gini = 0.0\nsamples = 1\nvalue = [0, 1, 0]"];
562 -> 564;
565 [label="gini = 0.0\nsamples = 1\nvalue = [0, 0, 1]"];
561 -> 565;
566 [label="gini = 0.0\nsamples = 2\nvalue = [0, 2, 0]"];
556 -> 566;
567 [label="X[0] <= 52.0\ngini = 0.48\nsamples = 5\nvalue = [3, 2, 0]"];
553 -> 567;
568 [label="gini = 0.0\nsamples = 2\nvalue = [2, 0, 0]"];
567 -> 568;
569 [label="X[0] <= 55.0\ngini = 0.4444\nsamples = 3\nvalue = [1, 2, 0]"];
567 -> 569;
570 [label="gini = 0.0\nsamples = 1\nvalue = [0, 1, 0]"];
569 -> 570;
571 [label="X[0] <= 59.5\ngini = 0.5\nsamples = 2\nvalue = [1, 1, 0]"];
569 -> 571;
572 [label="gini = 0.0\nsamples = 1\nvalue = [1, 0, 0]"];
571 -> 572;
573 [label="gini = 0.0\nsamples = 1\nvalue = [0, 1, 0]"];
571 -> 573;
574 [label="gini = 0.0\nsamples = 24\nvalue = [0, 0, 24]"];
526 -> 574;
575 [label="X[3] <= 3.5\ngini = 0.4121\nsamples = 124\nvalue = [88, 36, 0]"];
219 -> 575;
576 [label="X[0] <= 53.0\ngini = 0.115\nsamples = 49\nvalue = [46, 3, 0]"];
575 -> 576;
577 [label="X[1] <= 12.5\ngini = 0.0425\nsamples = 46\nvalue = [45, 1, 0]"];
576 -> 577;
578 [label="X[4] <= 189.0\ngini = 0.1528\nsamples = 12\nvalue = [11, 1, 0]"];
577 -> 578;
579 [label="gini = 0.0\nsamples = 11\nvalue = [11, 0, 0]"];
578 -> 579;
580 [label="gini = 0.0\nsamples = 1\nvalue = [0, 1, 0]"];
578 -> 580;
581 [label="gini = 0.0\nsamples = 34\nvalue = [34, 0, 0]"];
577 -> 581;
582 [label="X[0] <= 61.0\ngini = 0.4444\nsamples = 3\nvalue = [1, 2, 0]"];
576 -> 582;
583 [label="gini = 0.0\nsamples = 2\nvalue = [0, 2, 0]"];
582 -> 583;
584 [label="gini = 0.0\nsamples = 1\nvalue = [1, 0, 0]"];
582 -> 584;
585 [label="X[3] <= 4.5\ngini = 0.4928\nsamples = 75\nvalue = [42, 33, 0]"];
575 -> 585;
586 [label="X[4] <= 61.0\ngini = 0.4872\nsamples = 50\nvalue = [21, 29, 0]"];
585 -> 586;
587 [label="gini = 0.0\nsamples = 7\nvalue = [7, 0, 0]"];
586 -> 587;
588 [label="X[4] <= 196.0\ngini = 0.4392\nsamples = 43\nvalue = [14, 29, 0]"];
586 -> 588;
589 [label="X[2] <= 3.5\ngini = 0.1049\nsamples = 18\nvalue = [1, 17, 0]"];
588 -> 589;
590 [label="X[0] <= 35.5\ngini = 0.2778\nsamples = 6\nvalue = [1, 5, 0]"];
589 -> 590;
591 [label="X[0] <= 29.5\ngini = 0.5\nsamples = 2\nvalue = [1, 1, 0]"];
590 -> 591;
592 [label="gini = 0.0\nsamples = 1\nvalue = [0, 1, 0]"];
591 -> 592;
593 [label="gini = 0.0\nsamples = 1\nvalue = [1, 0, 0]"];
591 -> 593;
594 [label="gini = 0.0\nsamples = 4\nvalue = [0, 4, 0]"];
590 -> 594;
595 [label="gini = 0.0\nsamples = 12\nvalue = [0, 12, 0]"];
589 -> 595;
596 [label="X[0] <= 14.5\ngini = 0.4992\nsamples = 25\nvalue = [13, 12, 0]"];
588 -> 596;
597 [label="X[4] <= 305.5\ngini = 0.4567\nsamples = 17\nvalue = [11, 6, 0]"];
596 -> 597;
598 [label="X[4] <= 263.5\ngini = 0.48\nsamples = 10\nvalue = [6, 4, 0]"];
597 -> 598;
599 [label="X[1] <= 22.5\ngini = 0.4444\nsamples = 6\nvalue = [4, 2, 0]"];
598 -> 599;
600 [label="gini = 0.4444\nsamples = 3\nvalue = [2, 1, 0]"];
599 -> 600;
601 [label="gini = 0.4444\nsamples = 3\nvalue = [2, 1, 0]"];
599 -> 601;
602 [label="X[1] <= 22.5\ngini = 0.5\nsamples = 4\nvalue = [2, 2, 0]"];
598 -> 602;
603 [label="gini = 0.5\nsamples = 2\nvalue = [1, 1, 0]"];
602 -> 603;
604 [label="gini = 0.5\nsamples = 2\nvalue = [1, 1, 0]"];
602 -> 604;
605 [label="X[1] <= 22.5\ngini = 0.4082\nsamples = 7\nvalue = [5, 2, 0]"];
597 -> 605;
606 [label="gini = 0.4444\nsamples = 3\nvalue = [2, 1, 0]"];
605 -> 606;
607 [label="gini = 0.375\nsamples = 4\nvalue = [3, 1, 0]"];
605 -> 607;
608 [label="X[4] <= 363.5\ngini = 0.375\nsamples = 8\nvalue = [2, 6, 0]"];
596 -> 608;
609 [label="gini = 0.0\nsamples = 6\nvalue = [0, 6, 0]"];
608 -> 609;
610 [label="gini = 0.0\nsamples = 2\nvalue = [2, 0, 0]"];
608 -> 610;
611 [label="X[0] <= 35.5\ngini = 0.2688\nsamples = 25\nvalue = [21, 4, 0]"];
585 -> 611;
612 [label="gini = 0.0\nsamples = 4\nvalue = [0, 4, 0]"];
611 -> 612;
613 [label="gini = 0.0\nsamples = 21\nvalue = [21, 0, 0]"];
611 -> 613;
614 [label="X[3] <= 1.5\ngini = 0.3747\nsamples = 1077\nvalue = [162, 832, 83]"];
2 -> 614;
615 [label="X[0] <= 73.5\ngini = 0.3183\nsamples = 931\nvalue = [89, 759, 83]"];
614 -> 615;
616 [label="X[4] <= 268.5\ngini = 0.453\nsamples = 487\nvalue = [77, 346, 64]"];
615 -> 616;
617 [label="X[1] <= 28.5\ngini = 0.4232\nsamples = 471\nvalue = [77, 346, 48]"];
616 -> 617;
618 [label="X[4] <= 142.0\ngini = 0.4623\nsamples = 417\nvalue = [77, 292, 48]"];
617 -> 618;
619 [label="X[4] <= 133.5\ngini = 0.515\nsamples = 249\nvalue = [39, 162, 48]"];
618 -> 619;
620 [label="X[4] <= 91.0\ngini = 0.4666\nsamples = 232\nvalue = [38, 162, 32]"];
619 -> 620;
621 [label="X[1] <= 27.5\ngini = 0.5266\nsamples = 166\nvalue = [28, 106, 32]"];
620 -> 621;
622 [label="X[1] <= 15.5\ngini = 0.5633\nsamples = 124\nvalue = [19, 73, 32]"];
621 -> 622;
623 [label="X[1] <= 8.0\ngini = 0.4902\nsamples = 108\nvalue = [19, 73, 16]"];
622 -> 623;
624 [label="gini = 0.0\nsamples = 8\nvalue = [0, 8, 0]"];
623 -> 624;
625 [label="X[2] <= 2.5\ngini = 0.5158\nsamples = 100\nvalue = [19, 65, 16]"];
623 -> 625;
626 [label="X[2] <= 1.5\ngini = 0.5\nsamples = 8\nvalue = [0, 4, 4]"];
625 -> 626;
627 [label="gini = 0.0\nsamples = 4\nvalue = [0, 4, 0]"];
626 -> 627;
628 [label="gini = 0.0\nsamples = 4\nvalue = [0, 0, 4]"];
626 -> 628;
629 [label="X[5] <= 1.5\ngini = 0.5007\nsamples = 92\nvalue = [19, 61, 12]"];
625 -> 629;
630 [label="X[0] <= 72.5\ngini = 0.4941\nsamples = 91\nvalue = [18, 61, 12]"];
629 -> 630;
631 [label="gini = 0.0\nsamples = 3\nvalue = [0, 3, 0]"];
630 -> 631;
632 [label="X[4] <= 36.5\ngini = 0.5052\nsamples = 88\nvalue = [18, 58, 12]"];
630 -> 632;
633 [label="X[1] <= 10.5\ngini = 0.5391\nsamples = 32\nvalue = [6, 20, 6]"];
632 -> 633;
634 [label="X[2] <= 5.5\ngini = 0.519\nsamples = 17\nvalue = [3, 11, 3]"];
633 -> 634;
635 [label="gini = 0.5\nsamples = 6\nvalue = [1, 4, 1]"];
634 -> 635;
636 [label="X[2] <= 8.5\ngini = 0.5289\nsamples = 11\nvalue = [2, 7, 2]"];
634 -> 636;
637 [label="gini = 0.56\nsamples = 5\nvalue = [1, 3, 1]"];
636 -> 637;
638 [label="gini = 0.5\nsamples = 6\nvalue = [1, 4, 1]"];
636 -> 638;
639 [label="X[2] <= 5.5\ngini = 0.56\nsamples = 15\nvalue = [3, 9, 3]"];
633 -> 639;
640 [label="gini = 0.56\nsamples = 5\nvalue = [1, 3, 1]"];
639 -> 640;
641 [label="X[2] <= 8.5\ngini = 0.56\nsamples = 10\nvalue = [2, 6, 2]"];
639 -> 641;
642 [label="gini = 0.56\nsamples = 5\nvalue = [1, 3, 1]"];
641 -> 642;
643 [label="gini = 0.56\nsamples = 5\nvalue = [1, 3, 1]"];
641 -> 643;
644 [label="X[4] <= 47.0\ngini = 0.4821\nsamples = 56\nvalue = [12, 38, 6]"];
632 -> 644;
645 [label="X[4] <= 38.5\ngini = 0.42\nsamples = 20\nvalue = [6, 14, 0]"];
644 -> 645;
646 [label="gini = 0.0\nsamples = 2\nvalue = [0, 2, 0]"];
645 -> 646;
647 [label="X[2] <= 5.5\ngini = 0.4444\nsamples = 18\nvalue = [6, 12, 0]"];
645 -> 647;
648 [label="X[1] <= 10.5\ngini = 0.4444\nsamples = 6\nvalue = [2, 4, 0]"];
647 -> 648;
649 [label="gini = 0.4444\nsamples = 3\nvalue = [1, 2, 0]"];
648 -> 649;
650 [label="gini = 0.4444\nsamples = 3\nvalue = [1, 2, 0]"];
648 -> 650;
651 [label="X[1] <= 10.5\ngini = 0.4444\nsamples = 12\nvalue = [4, 8, 0]"];
647 -> 651;
652 [label="X[2] <= 8.5\ngini = 0.4444\nsamples = 6\nvalue = [2, 4, 0]"];
651 -> 652;
653 [label="gini = 0.4444\nsamples = 3\nvalue = [1, 2, 0]"];
652 -> 653;
654 [label="gini = 0.4444\nsamples = 3\nvalue = [1, 2, 0]"];
652 -> 654;
655 [label="X[2] <= 8.5\ngini = 0.4444\nsamples = 6\nvalue = [2, 4, 0]"];
651 -> 655;
656 [label="gini = 0.4444\nsamples = 3\nvalue = [1, 2, 0]"];
655 -> 656;
657 [label="gini = 0.4444\nsamples = 3\nvalue = [1, 2, 0]"];
655 -> 657;
658 [label="X[2] <= 5.5\ngini = 0.5\nsamples = 36\nvalue = [6, 24, 6]"];
644 -> 658;
659 [label="X[1] <= 10.5\ngini = 0.5\nsamples = 12\nvalue = [2, 8, 2]"];
658 -> 659;
660 [label="gini = 0.5\nsamples = 6\nvalue = [1, 4, 1]"];
659 -> 660;
661 [label="gini = 0.5\nsamples = 6\nvalue = [1, 4, 1]"];
659 -> 661;
662 [label="X[1] <= 10.5\ngini = 0.5\nsamples = 24\nvalue = [4, 16, 4]"];
658 -> 662;
663 [label="X[2] <= 8.5\ngini = 0.5\nsamples = 12\nvalue = [2, 8, 2]"];
662 -> 663;
664 [label="gini = 0.5\nsamples = 6\nvalue = [1, 4, 1]"];
663 -> 664;
665 [label="gini = 0.5\nsamples = 6\nvalue = [1, 4, 1]"];
663 -> 665;
666 [label="X[2] <= 8.5\ngini = 0.5\nsamples = 12\nvalue = [2, 8, 2]"];
662 -> 666;
667 [label="gini = 0.5\nsamples = 6\nvalue = [1, 4, 1]"];
666 -> 667;
668 [label="gini = 0.5\nsamples = 6\nvalue = [1, 4, 1]"];
666 -> 668;
669 [label="gini = 0.0\nsamples = 1\nvalue = [1, 0, 0]"];
629 -> 669;
670 [label="gini = 0.0\nsamples = 16\nvalue = [0, 0, 16]"];
622 -> 670;
671 [label="X[2] <= 2.0\ngini = 0.3367\nsamples = 42\nvalue = [9, 33, 0]"];
621 -> 671;
672 [label="gini = 0.0\nsamples = 2\nvalue = [0, 2, 0]"];
671 -> 672;
673 [label="X[4] <= 38.5\ngini = 0.3488\nsamples = 40\nvalue = [9, 31, 0]"];
671 -> 673;
674 [label="X[4] <= 36.5\ngini = 0.3047\nsamples = 16\nvalue = [3, 13, 0]"];
673 -> 674;
675 [label="X[2] <= 5.5\ngini = 0.3367\nsamples = 14\nvalue = [3, 11, 0]"];
674 -> 675;
676 [label="gini = 0.32\nsamples = 5\nvalue = [1, 4, 0]"];
675 -> 676;
677 [label="X[2] <= 8.5\ngini = 0.3457\nsamples = 9\nvalue = [2, 7, 0]"];
675 -> 677;
678 [label="gini = 0.375\nsamples = 4\nvalue = [1, 3, 0]"];
677 -> 678;
679 [label="gini = 0.32\nsamples = 5\nvalue = [1, 4, 0]"];
677 -> 679;
680 [label="gini = 0.0\nsamples = 2\nvalue = [0, 2, 0]"];
674 -> 680;
681 [label="X[4] <= 47.0\ngini = 0.375\nsamples = 24\nvalue = [6, 18, 0]"];
673 -> 681;
682 [label="X[2] <= 5.5\ngini = 0.4444\nsamples = 9\nvalue = [3, 6, 0]"];
681 -> 682;
683 [label="gini = 0.4444\nsamples = 3\nvalue = [1, 2, 0]"];
682 -> 683;
684 [label="X[2] <= 8.5\ngini = 0.4444\nsamples = 6\nvalue = [2, 4, 0]"];
682 -> 684;
685 [label="gini = 0.4444\nsamples = 3\nvalue = [1, 2, 0]"];
684 -> 685;
686 [label="gini = 0.4444\nsamples = 3\nvalue = [1, 2, 0]"];
684 -> 686;
687 [label="X[2] <= 5.5\ngini = 0.32\nsamples = 15\nvalue = [3, 12, 0]"];
681 -> 687;
688 [label="gini = 0.32\nsamples = 5\nvalue = [1, 4, 0]"];
687 -> 688;
689 [label="X[2] <= 8.5\ngini = 0.32\nsamples = 10\nvalue = [2, 8, 0]"];
687 -> 689;
690 [label="gini = 0.32\nsamples = 5\nvalue = [1, 4, 0]"];
689 -> 690;
691 [label="gini = 0.32\nsamples = 5\nvalue = [1, 4, 0]"];
689 -> 691;
692 [label="X[4] <= 129.5\ngini = 0.2571\nsamples = 66\nvalue = [10, 56, 0]"];
620 -> 692;
693 [label="X[2] <= 2.0\ngini = 0.3299\nsamples = 48\nvalue = [10, 38, 0]"];
692 -> 693;
694 [label="gini = 0.0\nsamples = 4\nvalue = [0, 4, 0]"];
693 -> 694;
695 [label="X[1] <= 8.0\ngini = 0.3512\nsamples = 44\nvalue = [10, 34, 0]"];
693 -> 695;
696 [label="gini = 0.0\nsamples = 3\nvalue = [0, 3, 0]"];
695 -> 696;
697 [label="X[1] <= 10.5\ngini = 0.3688\nsamples = 41\nvalue = [10, 31, 0]"];
695 -> 697;
698 [label="X[2] <= 5.5\ngini = 0.3367\nsamples = 14\nvalue = [3, 11, 0]"];
697 -> 698;
699 [label="gini = 0.32\nsamples = 5\nvalue = [1, 4, 0]"];
698 -> 699;
700 [label="X[2] <= 8.5\ngini = 0.3457\nsamples = 9\nvalue = [2, 7, 0]"];
698 -> 700;
701 [label="gini = 0.375\nsamples = 4\nvalue = [1, 3, 0]"];
700 -> 701;
702 [label="gini = 0.32\nsamples = 5\nvalue = [1, 4, 0]"];
700 -> 702;
703 [label="X[2] <= 8.5\ngini = 0.3841\nsamples = 27\nvalue = [7, 20, 0]"];
697 -> 703;
704 [label="X[1] <= 19.5\ngini = 0.3599\nsamples = 17\nvalue = [4, 13, 0]"];
703 -> 704;
705 [label="X[2] <= 5.5\ngini = 0.375\nsamples = 8\nvalue = [2, 6, 0]"];
704 -> 705;
706 [label="gini = 0.375\nsamples = 4\nvalue = [1, 3, 0]"];
705 -> 706;
707 [label="gini = 0.375\nsamples = 4\nvalue = [1, 3, 0]"];
705 -> 707;
708 [label="X[2] <= 5.5\ngini = 0.3457\nsamples = 9\nvalue = [2, 7, 0]"];
704 -> 708;
709 [label="gini = 0.32\nsamples = 5\nvalue = [1, 4, 0]"];
708 -> 709;
710 [label="gini = 0.375\nsamples = 4\nvalue = [1, 3, 0]"];
708 -> 710;
711 [label="X[1] <= 19.5\ngini = 0.42\nsamples = 10\nvalue = [3, 7, 0]"];
703 -> 711;
712 [label="gini = 0.375\nsamples = 4\nvalue = [1, 3, 0]"];
711 -> 712;
713 [label="gini = 0.4444\nsamples = 6\nvalue = [2, 4, 0]"];
711 -> 713;
714 [label="gini = 0.0\nsamples = 18\nvalue = [0, 18, 0]"];
692 -> 714;
715 [label="X[0] <= 72.5\ngini = 0.1107\nsamples = 17\nvalue = [1, 0, 16]"];
619 -> 715;
716 [label="gini = 0.0\nsamples = 1\nvalue = [1, 0, 0]"];
715 -> 716;
717 [label="gini = 0.0\nsamples = 16\nvalue = [0, 0, 16]"];
715 -> 717;
718 [label="X[4] <= 214.5\ngini = 0.3501\nsamples = 168\nvalue = [38, 130, 0]"];
618 -> 718;
719 [label="X[2] <= 2.0\ngini = 0.3783\nsamples = 150\nvalue = [38, 112, 0]"];
718 -> 719;
720 [label="gini = 0.0\nsamples = 12\nvalue = [0, 12, 0]"];
719 -> 720;
721 [label="X[1] <= 8.0\ngini = 0.3991\nsamples = 138\nvalue = [38, 100, 0]"];
719 -> 721;
722 [label="gini = 0.0\nsamples = 9\nvalue = [0, 9, 0]"];
721 -> 722;
723 [label="X[0] <= 67.5\ngini = 0.4156\nsamples = 129\nvalue = [38, 91, 0]"];
721 -> 723;
724 [label="gini = 0.0\nsamples = 1\nvalue = [1, 0, 0]"];
723 -> 724;
725 [label="X[4] <= 153.5\ngini = 0.411\nsamples = 128\nvalue = [37, 91, 0]"];
723 -> 725;
726 [label="X[4] <= 151.5\ngini = 0.3488\nsamples = 40\nvalue = [9, 31, 0]"];
725 -> 726;
727 [label="X[1] <= 10.5\ngini = 0.4121\nsamples = 31\nvalue = [9, 22, 0]"];
726 -> 727;
728 [label="X[2] <= 5.5\ngini = 0.3967\nsamples = 11\nvalue = [3, 8, 0]"];
727 -> 728;
729 [label="gini = 0.375\nsamples = 4\nvalue = [1, 3, 0]"];
728 -> 729;
730 [label="X[2] <= 8.5\ngini = 0.4082\nsamples = 7\nvalue = [2, 5, 0]"];
728 -> 730;
731 [label="gini = 0.4444\nsamples = 3\nvalue = [1, 2, 0]"];
730 -> 731;
732 [label="gini = 0.375\nsamples = 4\nvalue = [1, 3, 0]"];
730 -> 732;
733 [label="X[1] <= 19.5\ngini = 0.42\nsamples = 20\nvalue = [6, 14, 0]"];
727 -> 733;
734 [label="X[2] <= 5.5\ngini = 0.4444\nsamples = 9\nvalue = [3, 6, 0]"];
733 -> 734;
735 [label="gini = 0.4444\nsamples = 3\nvalue = [1, 2, 0]"];
734 -> 735;
736 [label="X[2] <= 8.5\ngini = 0.4444\nsamples = 6\nvalue = [2, 4, 0]"];
734 -> 736;
737 [label="gini = 0.4444\nsamples = 3\nvalue = [1, 2, 0]"];
736 -> 737;
738 [label="gini = 0.4444\nsamples = 3\nvalue = [1, 2, 0]"];
736 -> 738;
739 [label="X[2] <= 5.5\ngini = 0.3967\nsamples = 11\nvalue = [3, 8, 0]"];
733 -> 739;
740 [label="gini = 0.375\nsamples = 4\nvalue = [1, 3, 0]"];
739 -> 740;
741 [label="X[2] <= 8.5\ngini = 0.4082\nsamples = 7\nvalue = [2, 5, 0]"];
739 -> 741;
742 [label="gini = 0.4444\nsamples = 3\nvalue = [1, 2, 0]"];
741 -> 742;
743 [label="gini = 0.375\nsamples = 4\nvalue = [1, 3, 0]"];
741 -> 743;
744 [label="gini = 0.0\nsamples = 9\nvalue = [0, 9, 0]"];
726 -> 744;
745 [label="X[4] <= 162.5\ngini = 0.4339\nsamples = 88\nvalue = [28, 60, 0]"];
725 -> 745;
746 [label="X[1] <= 10.5\ngini = 0.5\nsamples = 18\nvalue = [9, 9, 0]"];
745 -> 746;
747 [label="X[2] <= 5.5\ngini = 0.5\nsamples = 6\nvalue = [3, 3, 0]"];
746 -> 747;
748 [label="gini = 0.5\nsamples = 2\nvalue = [1, 1, 0]"];
747 -> 748;
749 [label="X[2] <= 8.5\ngini = 0.5\nsamples = 4\nvalue = [2, 2, 0]"];
747 -> 749;
750 [label="gini = 0.5\nsamples = 2\nvalue = [1, 1, 0]"];
749 -> 750;
751 [label="gini = 0.5\nsamples = 2\nvalue = [1, 1, 0]"];
749 -> 751;
752 [label="X[2] <= 5.5\ngini = 0.5\nsamples = 12\nvalue = [6, 6, 0]"];
746 -> 752;
753 [label="X[1] <= 19.5\ngini = 0.5\nsamples = 4\nvalue = [2, 2, 0]"];
752 -> 753;
754 [label="gini = 0.5\nsamples = 2\nvalue = [1, 1, 0]"];
753 -> 754;
755 [label="gini = 0.5\nsamples = 2\nvalue = [1, 1, 0]"];
753 -> 755;
756 [label="X[2] <= 8.5\ngini = 0.5\nsamples = 8\nvalue = [4, 4, 0]"];
752 -> 756;
757 [label="X[1] <= 19.5\ngini = 0.5\nsamples = 4\nvalue = [2, 2, 0]"];
756 -> 757;
758 [label="gini = 0.5\nsamples = 2\nvalue = [1, 1, 0]"];
757 -> 758;
759 [label="gini = 0.5\nsamples = 2\nvalue = [1, 1, 0]"];
757 -> 759;
760 [label="X[1] <= 19.5\ngini = 0.5\nsamples = 4\nvalue = [2, 2, 0]"];
756 -> 760;
761 [label="gini = 0.5\nsamples = 2\nvalue = [1, 1, 0]"];
760 -> 761;
762 [label="gini = 0.5\nsamples = 2\nvalue = [1, 1, 0]"];
760 -> 762;
763 [label="X[0] <= 72.5\ngini = 0.3955\nsamples = 70\nvalue = [19, 51, 0]"];
745 -> 763;
764 [label="gini = 0.0\nsamples = 2\nvalue = [0, 2, 0]"];
763 -> 764;
765 [label="X[4] <= 191.5\ngini = 0.4027\nsamples = 68\nvalue = [19, 49, 0]"];
763 -> 765;
766 [label="X[2] <= 5.5\ngini = 0.4444\nsamples = 27\nvalue = [9, 18, 0]"];
765 -> 766;
767 [label="X[1] <= 10.5\ngini = 0.4444\nsamples = 9\nvalue = [3, 6, 0]"];
766 -> 767;
768 [label="gini = 0.4444\nsamples = 3\nvalue = [1, 2, 0]"];
767 -> 768;
769 [label="X[1] <= 19.5\ngini = 0.4444\nsamples = 6\nvalue = [2, 4, 0]"];
767 -> 769;
770 [label="gini = 0.4444\nsamples = 3\nvalue = [1, 2, 0]"];
769 -> 770;
771 [label="gini = 0.4444\nsamples = 3\nvalue = [1, 2, 0]"];
769 -> 771;
772 [label="X[1] <= 10.5\ngini = 0.4444\nsamples = 18\nvalue = [6, 12, 0]"];
766 -> 772;
773 [label="X[2] <= 8.5\ngini = 0.4444\nsamples = 6\nvalue = [2, 4, 0]"];
772 -> 773;
774 [label="gini = 0.4444\nsamples = 3\nvalue = [1, 2, 0]"];
773 -> 774;
775 [label="gini = 0.4444\nsamples = 3\nvalue = [1, 2, 0]"];
773 -> 775;
776 [label="X[1] <= 19.5\ngini = 0.4444\nsamples = 12\nvalue = [4, 8, 0]"];
772 -> 776;
777 [label="X[2] <= 8.5\ngini = 0.4444\nsamples = 6\nvalue = [2, 4, 0]"];
776 -> 777;
778 [label="gini = 0.4444\nsamples = 3\nvalue = [1, 2, 0]"];
777 -> 778;
779 [label="gini = 0.4444\nsamples = 3\nvalue = [1, 2, 0]"];
777 -> 779;
780 [label="X[2] <= 8.5\ngini = 0.4444\nsamples = 6\nvalue = [2, 4, 0]"];
776 -> 780;
781 [label="gini = 0.4444\nsamples = 3\nvalue = [1, 2, 0]"];
780 -> 781;
782 [label="gini = 0.4444\nsamples = 3\nvalue = [1, 2, 0]"];
780 -> 782;
783 [label="X[1] <= 10.5\ngini = 0.3688\nsamples = 41\nvalue = [10, 31, 0]"];
765 -> 783;
784 [label="X[2] <= 5.5\ngini = 0.3367\nsamples = 14\nvalue = [3, 11, 0]"];
783 -> 784;
785 [label="gini = 0.32\nsamples = 5\nvalue = [1, 4, 0]"];
784 -> 785;
786 [label="X[2] <= 8.5\ngini = 0.3457\nsamples = 9\nvalue = [2, 7, 0]"];
784 -> 786;
787 [label="gini = 0.375\nsamples = 4\nvalue = [1, 3, 0]"];
786 -> 787;
788 [label="gini = 0.32\nsamples = 5\nvalue = [1, 4, 0]"];
786 -> 788;
789 [label="X[2] <= 8.5\ngini = 0.3841\nsamples = 27\nvalue = [7, 20, 0]"];
783 -> 789;
790 [label="X[2] <= 5.5\ngini = 0.3599\nsamples = 17\nvalue = [4, 13, 0]"];
789 -> 790;
791 [label="X[1] <= 19.5\ngini = 0.3457\nsamples = 9\nvalue = [2, 7, 0]"];
790 -> 791;
792 [label="gini = 0.375\nsamples = 4\nvalue = [1, 3, 0]"];
791 -> 792;
793 [label="gini = 0.32\nsamples = 5\nvalue = [1, 4, 0]"];
791 -> 793;
794 [label="X[1] <= 19.5\ngini = 0.375\nsamples = 8\nvalue = [2, 6, 0]"];
790 -> 794;
795 [label="gini = 0.375\nsamples = 4\nvalue = [1, 3, 0]"];
794 -> 795;
796 [label="gini = 0.375\nsamples = 4\nvalue = [1, 3, 0]"];
794 -> 796;
797 [label="X[1] <= 19.5\ngini = 0.42\nsamples = 10\nvalue = [3, 7, 0]"];
789 -> 797;
798 [label="gini = 0.375\nsamples = 4\nvalue = [1, 3, 0]"];
797 -> 798;
799 [label="gini = 0.4444\nsamples = 6\nvalue = [2, 4, 0]"];
797 -> 799;
800 [label="gini = 0.0\nsamples = 18\nvalue = [0, 18, 0]"];
718 -> 800;
801 [label="gini = 0.0\nsamples = 54\nvalue = [0, 54, 0]"];
617 -> 801;
802 [label="gini = 0.0\nsamples = 16\nvalue = [0, 0, 16]"];
616 -> 802;
803 [label="X[0] <= 84.5\ngini = 0.1322\nsamples = 444\nvalue = [12, 413, 19]"];
615 -> 803;
804 [label="X[4] <= 40.0\ngini = 0.0616\nsamples = 377\nvalue = [12, 365, 0]"];
803 -> 804;
805 [label="X[1] <= 23.0\ngini = 0.2\nsamples = 71\nvalue = [8, 63, 0]"];
804 -> 805;
806 [label="X[2] <= 5.5\ngini = 0.32\nsamples = 40\nvalue = [8, 32, 0]"];
805 -> 806;
807 [label="X[4] <= 36.5\ngini = 0.3995\nsamples = 29\nvalue = [8, 21, 0]"];
806 -> 807;
808 [label="gini = 0.0\nsamples = 6\nvalue = [0, 6, 0]"];
807 -> 808;
809 [label="X[4] <= 38.5\ngini = 0.4537\nsamples = 23\nvalue = [8, 15, 0]"];
807 -> 809;
810 [label="gini = 0.0\nsamples = 4\nvalue = [4, 0, 0]"];
809 -> 810;
811 [label="X[1] <= 15.5\ngini = 0.3324\nsamples = 19\nvalue = [4, 15, 0]"];
809 -> 811;
812 [label="X[1] <= 10.5\ngini = 0.2604\nsamples = 13\nvalue = [2, 11, 0]"];
811 -> 812;
813 [label="X[0] <= 76.5\ngini = 0.32\nsamples = 10\nvalue = [2, 8, 0]"];
812 -> 813;
814 [label="gini = 0.0\nsamples = 1\nvalue = [0, 1, 0]"];
813 -> 814;
815 [label="X[0] <= 80.0\ngini = 0.3457\nsamples = 9\nvalue = [2, 7, 0]"];
813 -> 815;
816 [label="X[2] <= 2.5\ngini = 0.375\nsamples = 8\nvalue = [2, 6, 0]"];
815 -> 816;
817 [label="gini = 0.375\nsamples = 4\nvalue = [1, 3, 0]"];
816 -> 817;
818 [label="gini = 0.375\nsamples = 4\nvalue = [1, 3, 0]"];
816 -> 818;
819 [label="gini = 0.0\nsamples = 1\nvalue = [0, 1, 0]"];
815 -> 819;
820 [label="gini = 0.0\nsamples = 3\nvalue = [0, 3, 0]"];
812 -> 820;
821 [label="X[2] <= 2.5\ngini = 0.4444\nsamples = 6\nvalue = [2, 4, 0]"];
811 -> 821;
822 [label="gini = 0.4444\nsamples = 3\nvalue = [1, 2, 0]"];
821 -> 822;
823 [label="gini = 0.4444\nsamples = 3\nvalue = [1, 2, 0]"];
821 -> 823;
824 [label="gini = 0.0\nsamples = 11\nvalue = [0, 11, 0]"];
806 -> 824;
825 [label="gini = 0.0\nsamples = 31\nvalue = [0, 31, 0]"];
805 -> 825;
826 [label="X[4] <= 142.0\ngini = 0.0258\nsamples = 306\nvalue = [4, 302, 0]"];
804 -> 826;
827 [label="X[4] <= 133.5\ngini = 0.0807\nsamples = 95\nvalue = [4, 91, 0]"];
826 -> 827;
828 [label="gini = 0.0\nsamples = 52\nvalue = [0, 52, 0]"];
827 -> 828;
829 [label="X[1] <= 23.0\ngini = 0.1687\nsamples = 43\nvalue = [4, 39, 0]"];
827 -> 829;
830 [label="X[2] <= 5.5\ngini = 0.2524\nsamples = 27\nvalue = [4, 23, 0]"];
829 -> 830;
831 [label="X[1] <= 10.5\ngini = 0.2975\nsamples = 22\nvalue = [4, 18, 0]"];
830 -> 831;
832 [label="X[2] <= 2.5\ngini = 0.32\nsamples = 10\nvalue = [2, 8, 0]"];
831 -> 832;
833 [label="gini = 0.32\nsamples = 5\nvalue = [1, 4, 0]"];
832 -> 833;
834 [label="gini = 0.32\nsamples = 5\nvalue = [1, 4, 0]"];
832 -> 834;
835 [label="X[1] <= 15.5\ngini = 0.2778\nsamples = 12\nvalue = [2, 10, 0]"];
831 -> 835;
836 [label="gini = 0.0\nsamples = 2\nvalue = [0, 2, 0]"];
835 -> 836;
837 [label="X[2] <= 2.5\ngini = 0.32\nsamples = 10\nvalue = [2, 8, 0]"];
835 -> 837;
838 [label="gini = 0.32\nsamples = 5\nvalue = [1, 4, 0]"];
837 -> 838;
839 [label="gini = 0.32\nsamples = 5\nvalue = [1, 4, 0]"];
837 -> 839;
840 [label="gini = 0.0\nsamples = 5\nvalue = [0, 5, 0]"];
830 -> 840;
841 [label="gini = 0.0\nsamples = 16\nvalue = [0, 16, 0]"];
829 -> 841;
842 [label="gini = 0.0\nsamples = 211\nvalue = [0, 211, 0]"];
826 -> 842;
843 [label="X[0] <= 86.5\ngini = 0.4063\nsamples = 67\nvalue = [0, 48, 19]"];
803 -> 843;
844 [label="gini = 0.0\nsamples = 18\nvalue = [0, 0, 18]"];
843 -> 844;
845 [label="X[4] <= 91.0\ngini = 0.04\nsamples = 49\nvalue = [0, 48, 1]"];
843 -> 845;
846 [label="X[4] <= 47.0\ngini = 0.32\nsamples = 5\nvalue = [0, 4, 1]"];
845 -> 846;
847 [label="gini = 0.0\nsamples = 4\nvalue = [0, 4, 0]"];
846 -> 847;
848 [label="gini = 0.0\nsamples = 1\nvalue = [0, 0, 1]"];
846 -> 848;
849 [label="gini = 0.0\nsamples = 44\nvalue = [0, 44, 0]"];
845 -> 849;
850 [label="X[0] <= 80.5\ngini = 0.5\nsamples = 146\nvalue = [73, 73, 0]"];
614 -> 850;
851 [label="X[0] <= 73.0\ngini = 0.2486\nsamples = 55\nvalue = [47, 8, 0]"];
850 -> 851;
852 [label="X[4] <= 113.0\ngini = 0.32\nsamples = 5\nvalue = [1, 4, 0]"];
851 -> 852;
853 [label="X[0] <= 69.5\ngini = 0.4444\nsamples = 3\nvalue = [1, 2, 0]"];
852 -> 853;
854 [label="gini = 0.0\nsamples = 1\nvalue = [0, 1, 0]"];
853 -> 854;
855 [label="gini = 0.5\nsamples = 2\nvalue = [1, 1, 0]"];
853 -> 855;
856 [label="gini = 0.0\nsamples = 2\nvalue = [0, 2, 0]"];
852 -> 856;
857 [label="X[3] <= 3.0\ngini = 0.1472\nsamples = 50\nvalue = [46, 4, 0]"];
851 -> 857;
858 [label="X[4] <= 162.5\ngini = 0.0799\nsamples = 48\nvalue = [46, 2, 0]"];
857 -> 858;
859 [label="X[0] <= 76.0\ngini = 0.0416\nsamples = 47\nvalue = [46, 1, 0]"];
858 -> 859;
860 [label="gini = 0.0\nsamples = 28\nvalue = [28, 0, 0]"];
859 -> 860;
861 [label="X[0] <= 78.5\ngini = 0.0997\nsamples = 19\nvalue = [18, 1, 0]"];
859 -> 861;
862 [label="gini = 0.0\nsamples = 1\nvalue = [0, 1, 0]"];
861 -> 862;
863 [label="gini = 0.0\nsamples = 18\nvalue = [18, 0, 0]"];
861 -> 863;
864 [label="gini = 0.0\nsamples = 1\nvalue = [0, 1, 0]"];
858 -> 864;
865 [label="gini = 0.0\nsamples = 2\nvalue = [0, 2, 0]"];
857 -> 865;
866 [label="X[0] <= 86.5\ngini = 0.4082\nsamples = 91\nvalue = [26, 65, 0]"];
850 -> 866;
867 [label="gini = 0.0\nsamples = 21\nvalue = [0, 21, 0]"];
866 -> 867;
868 [label="X[4] <= 152.0\ngini = 0.4669\nsamples = 70\nvalue = [26, 44, 0]"];
866 -> 868;
869 [label="X[3] <= 3.0\ngini = 0.142\nsamples = 13\nvalue = [12, 1, 0]"];
868 -> 869;
870 [label="gini = 0.0\nsamples = 12\nvalue = [12, 0, 0]"];
869 -> 870;
871 [label="gini = 0.0\nsamples = 1\nvalue = [0, 1, 0]"];
869 -> 871;
872 [label="X[5] <= 1.5\ngini = 0.3706\nsamples = 57\nvalue = [14, 43, 0]"];
868 -> 872;
873 [label="X[5] <= 0.5\ngini = 0.2311\nsamples = 45\nvalue = [6, 39, 0]"];
872 -> 873;
874 [label="X[4] <= 312.5\ngini = 0.2717\nsamples = 37\nvalue = [6, 31, 0]"];
873 -> 874;
875 [label="X[4] <= 271.0\ngini = 0.3282\nsamples = 29\nvalue = [6, 23, 0]"];
874 -> 875;
876 [label="X[4] <= 232.5\ngini = 0.2076\nsamples = 17\nvalue = [2, 15, 0]"];
875 -> 876;
877 [label="X[4] <= 229.5\ngini = 0.2975\nsamples = 11\nvalue = [2, 9, 0]"];
876 -> 877;
878 [label="gini = 0.0\nsamples = 3\nvalue = [0, 3, 0]"];
877 -> 878;
879 [label="X[1] <= 34.5\ngini = 0.375\nsamples = 8\nvalue = [2, 6, 0]"];
877 -> 879;
880 [label="gini = 0.375\nsamples = 4\nvalue = [1, 3, 0]"];
879 -> 880;
881 [label="gini = 0.375\nsamples = 4\nvalue = [1, 3, 0]"];
879 -> 881;
882 [label="gini = 0.0\nsamples = 6\nvalue = [0, 6, 0]"];
876 -> 882;
883 [label="X[4] <= 309.5\ngini = 0.4444\nsamples = 12\nvalue = [4, 8, 0]"];
875 -> 883;
884 [label="X[1] <= 34.5\ngini = 0.5\nsamples = 4\nvalue = [2, 2, 0]"];
883 -> 884;
885 [label="gini = 0.5\nsamples = 2\nvalue = [1, 1, 0]"];
884 -> 885;
886 [label="gini = 0.5\nsamples = 2\nvalue = [1, 1, 0]"];
884 -> 886;
887 [label="X[1] <= 34.5\ngini = 0.375\nsamples = 8\nvalue = [2, 6, 0]"];
883 -> 887;
888 [label="gini = 0.375\nsamples = 4\nvalue = [1, 3, 0]"];
887 -> 888;
889 [label="gini = 0.375\nsamples = 4\nvalue = [1, 3, 0]"];
887 -> 889;
890 [label="gini = 0.0\nsamples = 8\nvalue = [0, 8, 0]"];
874 -> 890;
891 [label="gini = 0.0\nsamples = 8\nvalue = [0, 8, 0]"];
873 -> 891;
892 [label="X[4] <= 229.5\ngini = 0.4444\nsamples = 12\nvalue = [8, 4, 0]"];
872 -> 892;
893 [label="gini = 0.0\nsamples = 2\nvalue = [0, 2, 0]"];
892 -> 893;
894 [label="X[4] <= 270.0\ngini = 0.32\nsamples = 10\nvalue = [8, 2, 0]"];
892 -> 894;
895 [label="gini = 0.0\nsamples = 4\nvalue = [4, 0, 0]"];
894 -> 895;
896 [label="X[4] <= 309.5\ngini = 0.4444\nsamples = 6\nvalue = [4, 2, 0]"];
894 -> 896;
897 [label="gini = 0.0\nsamples = 2\nvalue = [0, 2, 0]"];
896 -> 897;
898 [label="gini = 0.0\nsamples = 4\nvalue = [4, 0, 0]"];
896 -> 898;
899 [label="X[0] <= 460.5\ngini = 0.2855\nsamples = 26663\nvalue = [22077, 4533, 53]"];
1 -> 899;
900 [label="X[0] <= 158.5\ngini = 0.3889\nsamples = 17034\nvalue = [12559, 4427, 48]"];
899 -> 900;
901 [label="X[0] <= 129.0\ngini = 0.1916\nsamples = 6682\nvalue = [5965, 717, 0]"];
900 -> 901;
902 [label="X[0] <= 121.0\ngini = 0.1445\nsamples = 5064\nvalue = [4667, 397, 0]"];
901 -> 902;
903 [label="X[5] <= 0.5\ngini = 0.2729\nsamples = 2239\nvalue = [1874, 365, 0]"];
902 -> 903;
904 [label="X[0] <= 106.5\ngini = 0.3044\nsamples = 1885\nvalue = [1532, 353, 0]"];
903 -> 904;
905 [label="X[3] <= 1.5\ngini = 0.2557\nsamples = 1402\nvalue = [1191, 211, 0]"];
904 -> 905;
906 [label="X[4] <= 220.0\ngini = 0.0133\nsamples = 149\nvalue = [148, 1, 0]"];
905 -> 906;
907 [label="X[4] <= 176.5\ngini = 0.0425\nsamples = 46\nvalue = [45, 1, 0]"];
906 -> 907;
908 [label="gini = 0.0\nsamples = 25\nvalue = [25, 0, 0]"];
907 -> 908;
909 [label="X[1] <= 27.0\ngini = 0.0907\nsamples = 21\nvalue = [20, 1, 0]"];
907 -> 909;
910 [label="X[0] <= 101.0\ngini = 0.18\nsamples = 10\nvalue = [9, 1, 0]"];
909 -> 910;
911 [label="X[0] <= 99.5\ngini = 0.32\nsamples = 5\nvalue = [4, 1, 0]"];
910 -> 911;
912 [label="gini = 0.0\nsamples = 3\nvalue = [3, 0, 0]"];
911 -> 912;
913 [label="gini = 0.5\nsamples = 2\nvalue = [1, 1, 0]"];
911 -> 913;
914 [label="gini = 0.0\nsamples = 5\nvalue = [5, 0, 0]"];
910 -> 914;
915 [label="gini = 0.0\nsamples = 11\nvalue = [11, 0, 0]"];
909 -> 915;
916 [label="gini = 0.0\nsamples = 103\nvalue = [103, 0, 0]"];
906 -> 916;
917 [label="X[0] <= 98.0\ngini = 0.279\nsamples = 1253\nvalue = [1043, 210, 0]"];
905 -> 917;
918 [label="X[0] <= 96.0\ngini = 0.3562\nsamples = 483\nvalue = [371, 112, 0]"];
917 -> 918;
919 [label="X[0] <= 92.5\ngini = 0.3253\nsamples = 450\nvalue = [358, 92, 0]"];
918 -> 919;
920 [label="X[0] <= 91.5\ngini = 0.255\nsamples = 240\nvalue = [204, 36, 0]"];
919 -> 920;
921 [label="X[4] <= 314.5\ngini = 0.2798\nsamples = 214\nvalue = [178, 36, 0]"];
920 -> 921;
922 [label="X[4] <= 271.0\ngini = 0.2714\nsamples = 210\nvalue = [176, 34, 0]"];
921 -> 922;
923 [label="X[4] <= 234.5\ngini = 0.3249\nsamples = 98\nvalue = [78, 20, 0]"];
922 -> 923;
924 [label="X[0] <= 90.5\ngini = 0.3096\nsamples = 94\nvalue = [76, 18, 0]"];
923 -> 924;
925 [label="gini = 0.0\nsamples = 6\nvalue = [6, 0, 0]"];
924 -> 925;
926 [label="X[4] <= 232.5\ngini = 0.3254\nsamples = 88\nvalue = [70, 18, 0]"];
924 -> 926;
927 [label="X[1] <= 34.5\ngini = 0.3527\nsamples = 70\nvalue = [54, 16, 0]"];
926 -> 927;
928 [label="X[4] <= 228.0\ngini = 0.375\nsamples = 36\nvalue = [27, 9, 0]"];
927 -> 928;
929 [label="gini = 0.3911\nsamples = 15\nvalue = [11, 4, 0]"];
928 -> 929;
930 [label="X[4] <= 230.5\ngini = 0.3628\nsamples = 21\nvalue = [16, 5, 0]"];
928 -> 930;
931 [label="gini = 0.0\nsamples = 1\nvalue = [1, 0, 0]"];
930 -> 931;
932 [label="gini = 0.375\nsamples = 20\nvalue = [15, 5, 0]"];
930 -> 932;
933 [label="X[4] <= 228.0\ngini = 0.327\nsamples = 34\nvalue = [27, 7, 0]"];
927 -> 933;
934 [label="gini = 0.3367\nsamples = 14\nvalue = [11, 3, 0]"];
933 -> 934;
935 [label="X[4] <= 230.5\ngini = 0.32\nsamples = 20\nvalue = [16, 4, 0]"];
933 -> 935;
936 [label="gini = 0.0\nsamples = 1\nvalue = [1, 0, 0]"];
935 -> 936;
937 [label="gini = 0.3324\nsamples = 19\nvalue = [15, 4, 0]"];
935 -> 937;
938 [label="X[4] <= 233.5\ngini = 0.1975\nsamples = 18\nvalue = [16, 2, 0]"];
926 -> 938;
939 [label="X[1] <= 34.5\ngini = 0.2449\nsamples = 14\nvalue = [12, 2, 0]"];
938 -> 939;
940 [label="gini = 0.2449\nsamples = 7\nvalue = [6, 1, 0]"];
939 -> 940;
941 [label="gini = 0.2449\nsamples = 7\nvalue = [6, 1, 0]"];
939 -> 941;
942 [label="gini = 0.0\nsamples = 4\nvalue = [4, 0, 0]"];
938 -> 942;
943 [label="X[1] <= 34.5\ngini = 0.5\nsamples = 4\nvalue = [2, 2, 0]"];
923 -> 943;
944 [label="gini = 0.5\nsamples = 2\nvalue = [1, 1, 0]"];
943 -> 944;
945 [label="gini = 0.5\nsamples = 2\nvalue = [1, 1, 0]"];
943 -> 945;
946 [label="X[0] <= 90.5\ngini = 0.2188\nsamples = 112\nvalue = [98, 14, 0]"];
922 -> 946;
947 [label="gini = 0.0\nsamples = 4\nvalue = [4, 0, 0]"];
946 -> 947;
948 [label="X[4] <= 313.5\ngini = 0.2257\nsamples = 108\nvalue = [94, 14, 0]"];
946 -> 948;
949 [label="X[3] <= 3.0\ngini = 0.233\nsamples = 104\nvalue = [90, 14, 0]"];
948 -> 949;
950 [label="X[4] <= 310.5\ngini = 0.2368\nsamples = 102\nvalue = [88, 14, 0]"];
949 -> 950;
951 [label="X[4] <= 308.0\ngini = 0.2268\nsamples = 46\nvalue = [40, 6, 0]"];
950 -> 951;
952 [label="X[1] <= 34.5\ngini = 0.2355\nsamples = 44\nvalue = [38, 6, 0]"];
951 -> 952;
953 [label="gini = 0.2355\nsamples = 22\nvalue = [19, 3, 0]"];
952 -> 953;
954 [label="gini = 0.2355\nsamples = 22\nvalue = [19, 3, 0]"];
952 -> 954;
955 [label="gini = 0.0\nsamples = 2\nvalue = [2, 0, 0]"];
951 -> 955;
956 [label="X[4] <= 312.5\ngini = 0.2449\nsamples = 56\nvalue = [48, 8, 0]"];
950 -> 956;
957 [label="X[1] <= 34.5\ngini = 0.2449\nsamples = 42\nvalue = [36, 6, 0]"];
956 -> 957;
958 [label="gini = 0.2449\nsamples = 21\nvalue = [18, 3, 0]"];
957 -> 958;
959 [label="gini = 0.2449\nsamples = 21\nvalue = [18, 3, 0]"];
957 -> 959;
960 [label="X[1] <= 34.5\ngini = 0.2449\nsamples = 14\nvalue = [12, 2, 0]"];
956 -> 960;
961 [label="gini = 0.2449\nsamples = 7\nvalue = [6, 1, 0]"];
960 -> 961;
962 [label="gini = 0.2449\nsamples = 7\nvalue = [6, 1, 0]"];
960 -> 962;
963 [label="gini = 0.0\nsamples = 2\nvalue = [2, 0, 0]"];
949 -> 963;
964 [label="gini = 0.0\nsamples = 4\nvalue = [4, 0, 0]"];
948 -> 964;
965 [label="X[1] <= 34.5\ngini = 0.5\nsamples = 4\nvalue = [2, 2, 0]"];
921 -> 965;
966 [label="gini = 0.5\nsamples = 2\nvalue = [1, 1, 0]"];
965 -> 966;
967 [label="gini = 0.5\nsamples = 2\nvalue = [1, 1, 0]"];
965 -> 967;
968 [label="gini = 0.0\nsamples = 26\nvalue = [26, 0, 0]"];
920 -> 968;
969 [label="X[4] <= 312.5\ngini = 0.3911\nsamples = 210\nvalue = [154, 56, 0]"];
919 -> 969;
970 [label="X[3] <= 3.0\ngini = 0.4057\nsamples = 198\nvalue = [142, 56, 0]"];
969 -> 970;
971 [label="X[0] <= 94.0\ngini = 0.4132\nsamples = 192\nvalue = [136, 56, 0]"];
970 -> 971;
972 [label="X[1] <= 34.5\ngini = 0.5\nsamples = 8\nvalue = [4, 4, 0]"];
971 -> 972;
973 [label="X[4] <= 267.0\ngini = 0.5\nsamples = 4\nvalue = [2, 2, 0]"];
972 -> 973;
974 [label="gini = 0.5\nsamples = 2\nvalue = [1, 1, 0]"];
973 -> 974;
975 [label="gini = 0.5\nsamples = 2\nvalue = [1, 1, 0]"];
973 -> 975;
976 [label="X[4] <= 267.0\ngini = 0.5\nsamples = 4\nvalue = [2, 2, 0]"];
972 -> 976;
977 [label="gini = 0.5\nsamples = 2\nvalue = [1, 1, 0]"];
976 -> 977;
978 [label="gini = 0.5\nsamples = 2\nvalue = [1, 1, 0]"];
976 -> 978;
979 [label="X[4] <= 232.5\ngini = 0.4055\nsamples = 184\nvalue = [132, 52, 0]"];
971 -> 979;
980 [label="X[4] <= 228.5\ngini = 0.4274\nsamples = 84\nvalue = [58, 26, 0]"];
979 -> 980;
981 [label="X[4] <= 227.5\ngini = 0.3878\nsamples = 38\nvalue = [28, 10, 0]"];
980 -> 981;
982 [label="X[1] <= 34.5\ngini = 0.42\nsamples = 20\nvalue = [14, 6, 0]"];
981 -> 982;
983 [label="gini = 0.42\nsamples = 10\nvalue = [7, 3, 0]"];
982 -> 983;
984 [label="gini = 0.42\nsamples = 10\nvalue = [7, 3, 0]"];
982 -> 984;
985 [label="X[1] <= 34.5\ngini = 0.3457\nsamples = 18\nvalue = [14, 4, 0]"];
981 -> 985;
986 [label="gini = 0.3457\nsamples = 9\nvalue = [7, 2, 0]"];
985 -> 986;
987 [label="gini = 0.3457\nsamples = 9\nvalue = [7, 2, 0]"];
985 -> 987;
988 [label="X[4] <= 229.5\ngini = 0.4537\nsamples = 46\nvalue = [30, 16, 0]"];
980 -> 988;
989 [label="X[1] <= 34.5\ngini = 0.48\nsamples = 10\nvalue = [6, 4, 0]"];
988 -> 989;
990 [label="gini = 0.48\nsamples = 5\nvalue = [3, 2, 0]"];
989 -> 990;
991 [label="gini = 0.48\nsamples = 5\nvalue = [3, 2, 0]"];
989 -> 991;
992 [label="X[4] <= 231.0\ngini = 0.4444\nsamples = 36\nvalue = [24, 12, 0]"];
988 -> 992;
993 [label="X[1] <= 34.5\ngini = 0.4444\nsamples = 12\nvalue = [8, 4, 0]"];
992 -> 993;
994 [label="gini = 0.4444\nsamples = 6\nvalue = [4, 2, 0]"];
993 -> 994;
995 [label="gini = 0.4444\nsamples = 6\nvalue = [4, 2, 0]"];
993 -> 995;
996 [label="X[1] <= 34.5\ngini = 0.4444\nsamples = 24\nvalue = [16, 8, 0]"];
992 -> 996;
997 [label="gini = 0.4444\nsamples = 12\nvalue = [8, 4, 0]"];
996 -> 997;
998 [label="gini = 0.4444\nsamples = 12\nvalue = [8, 4, 0]"];
996 -> 998;
999 [label="X[4] <= 270.5\ngini = 0.3848\nsamples = 100\nvalue = [74, 26, 0]"];
979 -> 999;
1000 [label="gini = 0.0\nsamples = 8\nvalue = [8, 0, 0]"];
999 -> 1000;
1001 [label="X[4] <= 308.5\ngini = 0.4055\nsamples = 92\nvalue = [66, 26, 0]"];
999 -> 1001;
1002 [label="X[4] <= 307.5\ngini = 0.3628\nsamples = 42\nvalue = [32, 10, 0]"];
1001 -> 1002;
1003 [label="X[1] <= 34.5\ngini = 0.3967\nsamples = 22\nvalue = [16, 6, 0]"];
1002 -> 1003;
1004 [label="gini = 0.3967\nsamples = 11\nvalue = [8, 3, 0]"];
1003 -> 1004;
1005 [label="gini = 0.3967\nsamples = 11\nvalue = [8, 3, 0]"];
1003 -> 1005;
1006 [label="X[1] <= 34.5\ngini = 0.32\nsamples = 20\nvalue = [16, 4, 0]"];
1002 -> 1006;
1007 [label="gini = 0.32\nsamples = 10\nvalue = [8, 2, 0]"];
1006 -> 1007;
1008 [label="gini = 0.32\nsamples = 10\nvalue = [8, 2, 0]"];
1006 -> 1008;
1009 [label="X[4] <= 309.5\ngini = 0.4352\nsamples = 50\nvalue = [34, 16, 0]"];
1001 -> 1009;
1010 [label="X[1] <= 34.5\ngini = 0.48\nsamples = 10\nvalue = [6, 4, 0]"];
1009 -> 1010;
1011 [label="gini = 0.48\nsamples = 5\nvalue = [3, 2, 0]"];
1010 -> 1011;
1012 [label="gini = 0.48\nsamples = 5\nvalue = [3, 2, 0]"];
1010 -> 1012;
1013 [label="X[4] <= 311.0\ngini = 0.42\nsamples = 40\nvalue = [28, 12, 0]"];
1009 -> 1013;
1014 [label="X[1] <= 34.5\ngini = 0.375\nsamples = 16\nvalue = [12, 4, 0]"];
1013 -> 1014;
1015 [label="gini = 0.375\nsamples = 8\nvalue = [6, 2, 0]"];
1014 -> 1015;
1016 [label="gini = 0.375\nsamples = 8\nvalue = [6, 2, 0]"];
1014 -> 1016;
1017 [label="X[1] <= 34.5\ngini = 0.4444\nsamples = 24\nvalue = [16, 8, 0]"];
1013 -> 1017;
1018 [label="gini = 0.4444\nsamples = 12\nvalue = [8, 4, 0]"];
1017 -> 1018;
1019 [label="gini = 0.4444\nsamples = 12\nvalue = [8, 4, 0]"];
1017 -> 1019;
1020 [label="gini = 0.0\nsamples = 6\nvalue = [6, 0, 0]"];
970 -> 1020;
1021 [label="gini = 0.0\nsamples = 12\nvalue = [12, 0, 0]"];
969 -> 1021;
1022 [label="X[3] <= 3.0\ngini = 0.4775\nsamples = 33\nvalue = [13, 20, 0]"];
918 -> 1022;
1023 [label="X[4] <= 229.5\ngini = 0.4444\nsamples = 30\nvalue = [10, 20, 0]"];
1022 -> 1023;
1024 [label="gini = 0.0\nsamples = 5\nvalue = [0, 5, 0]"];
1023 -> 1024;
1025 [label="X[4] <= 312.5\ngini = 0.48\nsamples = 25\nvalue = [10, 15, 0]"];
1023 -> 1025;
1026 [label="X[4] <= 232.5\ngini = 0.4915\nsamples = 23\nvalue = [10, 13, 0]"];
1025 -> 1026;
1027 [label="X[1] <= 34.5\ngini = 0.4082\nsamples = 7\nvalue = [2, 5, 0]"];
1026 -> 1027;
1028 [label="gini = 0.375\nsamples = 4\nvalue = [1, 3, 0]"];
1027 -> 1028;
1029 [label="gini = 0.4444\nsamples = 3\nvalue = [1, 2, 0]"];
1027 -> 1029;
1030 [label="X[4] <= 271.0\ngini = 0.5\nsamples = 16\nvalue = [8, 8, 0]"];
1026 -> 1030;
1031 [label="X[4] <= 234.0\ngini = 0.4444\nsamples = 6\nvalue = [4, 2, 0]"];
1030 -> 1031;
1032 [label="X[1] <= 34.5\ngini = 0.5\nsamples = 4\nvalue = [2, 2, 0]"];
1031 -> 1032;
1033 [label="gini = 0.5\nsamples = 2\nvalue = [1, 1, 0]"];
1032 -> 1033;
1034 [label="gini = 0.5\nsamples = 2\nvalue = [1, 1, 0]"];
1032 -> 1034;
1035 [label="gini = 0.0\nsamples = 2\nvalue = [2, 0, 0]"];
1031 -> 1035;
1036 [label="X[4] <= 309.5\ngini = 0.48\nsamples = 10\nvalue = [4, 6, 0]"];
1030 -> 1036;
1037 [label="X[1] <= 34.5\ngini = 0.5\nsamples = 4\nvalue = [2, 2, 0]"];
1036 -> 1037;
1038 [label="gini = 0.5\nsamples = 2\nvalue = [1, 1, 0]"];
1037 -> 1038;
1039 [label="gini = 0.5\nsamples = 2\nvalue = [1, 1, 0]"];
1037 -> 1039;
1040 [label="X[1] <= 34.5\ngini = 0.4444\nsamples = 6\nvalue = [2, 4, 0]"];
1036 -> 1040;
1041 [label="gini = 0.4444\nsamples = 3\nvalue = [1, 2, 0]"];
1040 -> 1041;
1042 [label="gini = 0.4444\nsamples = 3\nvalue = [1, 2, 0]"];
1040 -> 1042;
1043 [label="gini = 0.0\nsamples = 2\nvalue = [0, 2, 0]"];
1025 -> 1043;
1044 [label="gini = 0.0\nsamples = 3\nvalue = [3, 0, 0]"];
1022 -> 1044;
1045 [label="X[0] <= 102.5\ngini = 0.2221\nsamples = 770\nvalue = [672, 98, 0]"];
917 -> 1045;
1046 [label="X[0] <= 101.5\ngini = 0.2468\nsamples = 652\nvalue = [558, 94, 0]"];
1045 -> 1046;
1047 [label="X[4] <= 311.0\ngini = 0.0868\nsamples = 88\nvalue = [84, 4, 0]"];
1046 -> 1047;
1048 [label="X[4] <= 269.5\ngini = 0.0571\nsamples = 68\nvalue = [66, 2, 0]"];
1047 -> 1048;
1049 [label="X[4] <= 231.0\ngini = 0.0997\nsamples = 38\nvalue = [36, 2, 0]"];
1048 -> 1049;
1050 [label="gini = 0.0\nsamples = 22\nvalue = [22, 0, 0]"];
1049 -> 1050;
1051 [label="X[0] <= 100.5\ngini = 0.2188\nsamples = 16\nvalue = [14, 2, 0]"];
1049 -> 1051;
1052 [label="X[1] <= 34.5\ngini = 0.2449\nsamples = 14\nvalue = [12, 2, 0]"];
1051 -> 1052;
1053 [label="gini = 0.2449\nsamples = 7\nvalue = [6, 1, 0]"];
1052 -> 1053;
1054 [label="gini = 0.2449\nsamples = 7\nvalue = [6, 1, 0]"];
1052 -> 1054;
1055 [label="gini = 0.0\nsamples = 2\nvalue = [2, 0, 0]"];
1051 -> 1055;
1056 [label="gini = 0.0\nsamples = 30\nvalue = [30, 0, 0]"];
1048 -> 1056;
1057 [label="X[3] <= 3.0\ngini = 0.18\nsamples = 20\nvalue = [18, 2, 0]"];
1047 -> 1057;
1058 [label="X[0] <= 100.5\ngini = 0.2188\nsamples = 16\nvalue = [14, 2, 0]"];
1057 -> 1058;
1059 [label="X[1] <= 34.5\ngini = 0.2449\nsamples = 14\nvalue = [12, 2, 0]"];
1058 -> 1059;
1060 [label="gini = 0.2449\nsamples = 7\nvalue = [6, 1, 0]"];
1059 -> 1060;
1061 [label="gini = 0.2449\nsamples = 7\nvalue = [6, 1, 0]"];
1059 -> 1061;
1062 [label="gini = 0.0\nsamples = 2\nvalue = [2, 0, 0]"];
1058 -> 1062;
1063 [label="gini = 0.0\nsamples = 4\nvalue = [4, 0, 0]"];
1057 -> 1063;
1064 [label="X[4] <= 271.0\ngini = 0.2682\nsamples = 564\nvalue = [474, 90, 0]"];
1046 -> 1064;
1065 [label="X[4] <= 232.5\ngini = 0.32\nsamples = 280\nvalue = [224, 56, 0]"];
1064 -> 1065;
1066 [label="X[4] <= 227.5\ngini = 0.2803\nsamples = 178\nvalue = [148, 30, 0]"];
1065 -> 1066;
1067 [label="X[1] <= 34.5\ngini = 0.375\nsamples = 16\nvalue = [12, 4, 0]"];
1066 -> 1067;
1068 [label="gini = 0.375\nsamples = 8\nvalue = [6, 2, 0]"];
1067 -> 1068;
1069 [label="gini = 0.375\nsamples = 8\nvalue = [6, 2, 0]"];
1067 -> 1069;
1070 [label="X[4] <= 229.5\ngini = 0.2695\nsamples = 162\nvalue = [136, 26, 0]"];
1066 -> 1070;
1071 [label="X[4] <= 228.5\ngini = 0.2032\nsamples = 61\nvalue = [54, 7, 0]"];
1070 -> 1071;
1072 [label="X[1] <= 34.5\ngini = 0.2535\nsamples = 47\nvalue = [40, 7, 0]"];
1071 -> 1072;
1073 [label="gini = 0.2778\nsamples = 24\nvalue = [20, 4, 0]"];
1072 -> 1073;
1074 [label="gini = 0.2268\nsamples = 23\nvalue = [20, 3, 0]"];
1072 -> 1074;
1075 [label="gini = 0.0\nsamples = 14\nvalue = [14, 0, 0]"];
1071 -> 1075;
1076 [label="X[1] <= 34.5\ngini = 0.3055\nsamples = 101\nvalue = [82, 19, 0]"];
1070 -> 1076;
1077 [label="X[4] <= 231.0\ngini = 0.3153\nsamples = 51\nvalue = [41, 10, 0]"];
1076 -> 1077;
1078 [label="gini = 0.32\nsamples = 25\nvalue = [20, 5, 0]"];
1077 -> 1078;
1079 [label="gini = 0.3107\nsamples = 26\nvalue = [21, 5, 0]"];
1077 -> 1079;
1080 [label="X[4] <= 231.0\ngini = 0.2952\nsamples = 50\nvalue = [41, 9, 0]"];
1076 -> 1080;
1081 [label="gini = 0.2778\nsamples = 24\nvalue = [20, 4, 0]"];
1080 -> 1081;
1082 [label="gini = 0.3107\nsamples = 26\nvalue = [21, 5, 0]"];
1080 -> 1082;
1083 [label="X[1] <= 34.5\ngini = 0.3799\nsamples = 102\nvalue = [76, 26, 0]"];
1065 -> 1083;
1084 [label="X[4] <= 233.5\ngini = 0.3935\nsamples = 52\nvalue = [38, 14, 0]"];
1083 -> 1084;
1085 [label="gini = 0.3856\nsamples = 23\nvalue = [17, 6, 0]"];
1084 -> 1085;
1086 [label="X[4] <= 234.5\ngini = 0.3995\nsamples = 29\nvalue = [21, 8, 0]"];
1084 -> 1086;
1087 [label="gini = 0.3967\nsamples = 11\nvalue = [8, 3, 0]"];
1086 -> 1087;
1088 [label="gini = 0.4012\nsamples = 18\nvalue = [13, 5, 0]"];
1086 -> 1088;
1089 [label="X[4] <= 233.5\ngini = 0.3648\nsamples = 50\nvalue = [38, 12, 0]"];
1083 -> 1089;
1090 [label="gini = 0.3512\nsamples = 22\nvalue = [17, 5, 0]"];
1089 -> 1090;
1091 [label="X[4] <= 234.5\ngini = 0.375\nsamples = 28\nvalue = [21, 7, 0]"];
1089 -> 1091;
1092 [label="gini = 0.3967\nsamples = 11\nvalue = [8, 3, 0]"];
1091 -> 1092;
1093 [label="gini = 0.3599\nsamples = 17\nvalue = [13, 4, 0]"];
1091 -> 1093;
1094 [label="X[4] <= 309.5\ngini = 0.2108\nsamples = 284\nvalue = [250, 34, 0]"];
1064 -> 1094;
1095 [label="X[4] <= 308.5\ngini = 0.1388\nsamples = 80\nvalue = [74, 6, 0]"];
1094 -> 1095;
1096 [label="X[3] <= 3.0\ngini = 0.1653\nsamples = 66\nvalue = [60, 6, 0]"];
1095 -> 1096;
1097 [label="X[4] <= 307.5\ngini = 0.1699\nsamples = 64\nvalue = [58, 6, 0]"];
1096 -> 1097;
1098 [label="X[1] <= 34.5\ngini = 0.1975\nsamples = 18\nvalue = [16, 2, 0]"];
1097 -> 1098;
1099 [label="gini = 0.1975\nsamples = 9\nvalue = [8, 1, 0]"];
1098 -> 1099;
1100 [label="gini = 0.1975\nsamples = 9\nvalue = [8, 1, 0]"];
1098 -> 1100;
1101 [label="X[1] <= 34.5\ngini = 0.1588\nsamples = 46\nvalue = [42, 4, 0]"];
1097 -> 1101;
1102 [label="gini = 0.1588\nsamples = 23\nvalue = [21, 2, 0]"];
1101 -> 1102;
1103 [label="gini = 0.1588\nsamples = 23\nvalue = [21, 2, 0]"];
1101 -> 1103;
1104 [label="gini = 0.0\nsamples = 2\nvalue = [2, 0, 0]"];
1096 -> 1104;
1105 [label="gini = 0.0\nsamples = 14\nvalue = [14, 0, 0]"];
1095 -> 1105;
1106 [label="X[4] <= 314.5\ngini = 0.2368\nsamples = 204\nvalue = [176, 28, 0]"];
1094 -> 1106;
1107 [label="X[4] <= 313.5\ngini = 0.2591\nsamples = 170\nvalue = [144, 26, 0]"];
1106 -> 1107;
1108 [label="X[3] <= 3.0\ngini = 0.2364\nsamples = 146\nvalue = [126, 20, 0]"];
1107 -> 1108;
1109 [label="X[4] <= 312.5\ngini = 0.242\nsamples = 142\nvalue = [122, 20, 0]"];
1108 -> 1109;
1110 [label="X[4] <= 311.0\ngini = 0.2604\nsamples = 104\nvalue = [88, 16, 0]"];
1109 -> 1110;
1111 [label="X[1] <= 34.5\ngini = 0.2112\nsamples = 50\nvalue = [44, 6, 0]"];
1110 -> 1111;
1112 [label="gini = 0.2112\nsamples = 25\nvalue = [22, 3, 0]"];
1111 -> 1112;
1113 [label="gini = 0.2112\nsamples = 25\nvalue = [22, 3, 0]"];
1111 -> 1113;
1114 [label="X[1] <= 34.5\ngini = 0.3018\nsamples = 54\nvalue = [44, 10, 0]"];
1110 -> 1114;
1115 [label="gini = 0.3018\nsamples = 27\nvalue = [22, 5, 0]"];
1114 -> 1115;
1116 [label="gini = 0.3018\nsamples = 27\nvalue = [22, 5, 0]"];
1114 -> 1116;
1117 [label="X[1] <= 34.5\ngini = 0.1884\nsamples = 38\nvalue = [34, 4, 0]"];
1109 -> 1117;
1118 [label="gini = 0.1884\nsamples = 19\nvalue = [17, 2, 0]"];
1117 -> 1118;
1119 [label="gini = 0.1884\nsamples = 19\nvalue = [17, 2, 0]"];
1117 -> 1119;
1120 [label="gini = 0.0\nsamples = 4\nvalue = [4, 0, 0]"];
1108 -> 1120;
1121 [label="X[1] <= 34.5\ngini = 0.375\nsamples = 24\nvalue = [18, 6, 0]"];
1107 -> 1121;
1122 [label="gini = 0.375\nsamples = 12\nvalue = [9, 3, 0]"];
1121 -> 1122;
1123 [label="gini = 0.375\nsamples = 12\nvalue = [9, 3, 0]"];
1121 -> 1123;
1124 [label="X[3] <= 3.0\ngini = 0.1107\nsamples = 34\nvalue = [32, 2, 0]"];
1106 -> 1124;
1125 [label="X[1] <= 34.5\ngini = 0.1172\nsamples = 32\nvalue = [30, 2, 0]"];
1124 -> 1125;
1126 [label="gini = 0.1172\nsamples = 16\nvalue = [15, 1, 0]"];
1125 -> 1126;
1127 [label="gini = 0.1172\nsamples = 16\nvalue = [15, 1, 0]"];
1125 -> 1127;
1128 [label="gini = 0.0\nsamples = 2\nvalue = [2, 0, 0]"];
1124 -> 1128;
1129 [label="X[0] <= 103.5\ngini = 0.0655\nsamples = 118\nvalue = [114, 4, 0]"];
1045 -> 1129;
1130 [label="gini = 0.0\nsamples = 70\nvalue = [70, 0, 0]"];
1129 -> 1130;
1131 [label="X[4] <= 229.5\ngini = 0.1528\nsamples = 48\nvalue = [44, 4, 0]"];
1129 -> 1131;
1132 [label="gini = 0.0\nsamples = 24\nvalue = [24, 0, 0]"];
1131 -> 1132;
1133 [label="X[2] <= 5.0\ngini = 0.2778\nsamples = 24\nvalue = [20, 4, 0]"];
1131 -> 1133;
1134 [label="X[1] <= 22.5\ngini = 0.3911\nsamples = 15\nvalue = [11, 4, 0]"];
1133 -> 1134;
1135 [label="gini = 0.0\nsamples = 3\nvalue = [3, 0, 0]"];
1134 -> 1135;
1136 [label="X[0] <= 105.0\ngini = 0.4444\nsamples = 12\nvalue = [8, 4, 0]"];
1134 -> 1136;
1137 [label="X[4] <= 269.5\ngini = 0.48\nsamples = 10\nvalue = [6, 4, 0]"];
1136 -> 1137;
1138 [label="X[1] <= 34.5\ngini = 0.5\nsamples = 4\nvalue = [2, 2, 0]"];
1137 -> 1138;
1139 [label="gini = 0.5\nsamples = 2\nvalue = [1, 1, 0]"];
1138 -> 1139;
1140 [label="gini = 0.5\nsamples = 2\nvalue = [1, 1, 0]"];
1138 -> 1140;
1141 [label="X[4] <= 309.5\ngini = 0.4444\nsamples = 6\nvalue = [4, 2, 0]"];
1137 -> 1141;
1142 [label="gini = 0.0\nsamples = 2\nvalue = [2, 0, 0]"];
1141 -> 1142;
1143 [label="X[1] <= 34.5\ngini = 0.5\nsamples = 4\nvalue = [2, 2, 0]"];
1141 -> 1143;
1144 [label="gini = 0.5\nsamples = 2\nvalue = [1, 1, 0]"];
1143 -> 1144;
1145 [label="gini = 0.5\nsamples = 2\nvalue = [1, 1, 0]"];
1143 -> 1145;
1146 [label="gini = 0.0\nsamples = 2\nvalue = [2, 0, 0]"];
1136 -> 1146;
1147 [label="gini = 0.0\nsamples = 9\nvalue = [9, 0, 0]"];
1133 -> 1147;
1148 [label="X[0] <= 116.5\ngini = 0.4151\nsamples = 483\nvalue = [341, 142, 0]"];
904 -> 1148;
1149 [label="X[0] <= 109.0\ngini = 0.4926\nsamples = 246\nvalue = [138, 108, 0]"];
1148 -> 1149;
1150 [label="X[3] <= 1.5\ngini = 0.4926\nsamples = 82\nvalue = [36, 46, 0]"];
1149 -> 1150;
1151 [label="gini = 0.0\nsamples = 18\nvalue = [18, 0, 0]"];
1150 -> 1151;
1152 [label="X[4] <= 229.5\ngini = 0.4043\nsamples = 64\nvalue = [18, 46, 0]"];
1150 -> 1152;
1153 [label="X[4] <= 224.0\ngini = 0.48\nsamples = 10\nvalue = [4, 6, 0]"];
1152 -> 1153;
1154 [label="gini = 0.0\nsamples = 2\nvalue = [0, 2, 0]"];
1153 -> 1154;
1155 [label="X[0] <= 107.5\ngini = 0.5\nsamples = 8\nvalue = [4, 4, 0]"];
1153 -> 1155;
1156 [label="gini = 0.0\nsamples = 2\nvalue = [2, 0, 0]"];
1155 -> 1156;
1157 [label="X[1] <= 34.5\ngini = 0.4444\nsamples = 6\nvalue = [2, 4, 0]"];
1155 -> 1157;
1158 [label="gini = 0.4444\nsamples = 3\nvalue = [1, 2, 0]"];
1157 -> 1158;
1159 [label="gini = 0.4444\nsamples = 3\nvalue = [1, 2, 0]"];
1157 -> 1159;
1160 [label="X[4] <= 314.0\ngini = 0.3841\nsamples = 54\nvalue = [14, 40, 0]"];
1152 -> 1160;
1161 [label="X[4] <= 234.0\ngini = 0.3935\nsamples = 52\nvalue = [14, 38, 0]"];
1160 -> 1161;
1162 [label="X[0] <= 107.5\ngini = 0.42\nsamples = 20\nvalue = [6, 14, 0]"];
1161 -> 1162;
1163 [label="X[4] <= 232.5\ngini = 0.48\nsamples = 10\nvalue = [4, 6, 0]"];
1162 -> 1163;
1164 [label="X[1] <= 34.5\ngini = 0.4444\nsamples = 6\nvalue = [2, 4, 0]"];
1163 -> 1164;
1165 [label="gini = 0.4444\nsamples = 3\nvalue = [1, 2, 0]"];
1164 -> 1165;
1166 [label="gini = 0.4444\nsamples = 3\nvalue = [1, 2, 0]"];
1164 -> 1166;
1167 [label="X[1] <= 34.5\ngini = 0.5\nsamples = 4\nvalue = [2, 2, 0]"];
1163 -> 1167;
1168 [label="gini = 0.5\nsamples = 2\nvalue = [1, 1, 0]"];
1167 -> 1168;
1169 [label="gini = 0.5\nsamples = 2\nvalue = [1, 1, 0]"];
1167 -> 1169;
1170 [label="X[4] <= 232.5\ngini = 0.32\nsamples = 10\nvalue = [2, 8, 0]"];
1162 -> 1170;
1171 [label="X[1] <= 34.5\ngini = 0.375\nsamples = 8\nvalue = [2, 6, 0]"];
1170 -> 1171;
1172 [label="gini = 0.375\nsamples = 4\nvalue = [1, 3, 0]"];
1171 -> 1172;
1173 [label="gini = 0.375\nsamples = 4\nvalue = [1, 3, 0]"];
1171 -> 1173;
1174 [label="gini = 0.0\nsamples = 2\nvalue = [0, 2, 0]"];
1170 -> 1174;
1175 [label="X[4] <= 304.0\ngini = 0.375\nsamples = 32\nvalue = [8, 24, 0]"];
1161 -> 1175;
1176 [label="gini = 0.0\nsamples = 4\nvalue = [0, 4, 0]"];
1175 -> 1176;
1177 [label="X[4] <= 312.5\ngini = 0.4082\nsamples = 28\nvalue = [8, 20, 0]"];
1175 -> 1177;
1178 [label="X[0] <= 107.5\ngini = 0.3967\nsamples = 22\nvalue = [6, 16, 0]"];
1177 -> 1178;
1179 [label="X[4] <= 309.5\ngini = 0.32\nsamples = 10\nvalue = [2, 8, 0]"];
1178 -> 1179;
1180 [label="gini = 0.0\nsamples = 4\nvalue = [0, 4, 0]"];
1179 -> 1180;
1181 [label="X[1] <= 34.5\ngini = 0.4444\nsamples = 6\nvalue = [2, 4, 0]"];
1179 -> 1181;
1182 [label="gini = 0.4444\nsamples = 3\nvalue = [1, 2, 0]"];
1181 -> 1182;
1183 [label="gini = 0.4444\nsamples = 3\nvalue = [1, 2, 0]"];
1181 -> 1183;
1184 [label="X[4] <= 309.5\ngini = 0.4444\nsamples = 12\nvalue = [4, 8, 0]"];
1178 -> 1184;
1185 [label="X[1] <= 34.5\ngini = 0.5\nsamples = 4\nvalue = [2, 2, 0]"];
1184 -> 1185;
1186 [label="gini = 0.5\nsamples = 2\nvalue = [1, 1, 0]"];
1185 -> 1186;
1187 [label="gini = 0.5\nsamples = 2\nvalue = [1, 1, 0]"];
1185 -> 1187;
1188 [label="X[1] <= 34.5\ngini = 0.375\nsamples = 8\nvalue = [2, 6, 0]"];
1184 -> 1188;
1189 [label="gini = 0.375\nsamples = 4\nvalue = [1, 3, 0]"];
1188 -> 1189;
1190 [label="gini = 0.375\nsamples = 4\nvalue = [1, 3, 0]"];
1188 -> 1190;
1191 [label="X[0] <= 107.5\ngini = 0.4444\nsamples = 6\nvalue = [2, 4, 0]"];
1177 -> 1191;
1192 [label="X[1] <= 34.5\ngini = 0.5\nsamples = 4\nvalue = [2, 2, 0]"];
1191 -> 1192;
1193 [label="gini = 0.5\nsamples = 2\nvalue = [1, 1, 0]"];
1192 -> 1193;
1194 [label="gini = 0.5\nsamples = 2\nvalue = [1, 1, 0]"];
1192 -> 1194;
1195 [label="gini = 0.0\nsamples = 2\nvalue = [0, 2, 0]"];
1191 -> 1195;
1196 [label="gini = 0.0\nsamples = 2\nvalue = [0, 2, 0]"];
1160 -> 1196;
1197 [label="X[3] <= 1.5\ngini = 0.4703\nsamples = 164\nvalue = [102, 62, 0]"];
1149 -> 1197;
1198 [label="X[2] <= 5.0\ngini = 0.4518\nsamples = 58\nvalue = [20, 38, 0]"];
1197 -> 1198;
1199 [label="X[4] <= 114.0\ngini = 0.4976\nsamples = 43\nvalue = [20, 23, 0]"];
1198 -> 1199;
1200 [label="gini = 0.0\nsamples = 6\nvalue = [0, 6, 0]"];
1199 -> 1200;
1201 [label="X[1] <= 15.5\ngini = 0.4967\nsamples = 37\nvalue = [20, 17, 0]"];
1199 -> 1201;
1202 [label="gini = 0.0\nsamples = 3\nvalue = [0, 3, 0]"];
1201 -> 1202;
1203 [label="X[0] <= 115.0\ngini = 0.4844\nsamples = 34\nvalue = [20, 14, 0]"];
1201 -> 1203;
1204 [label="X[4] <= 260.0\ngini = 0.4444\nsamples = 12\nvalue = [4, 8, 0]"];
1203 -> 1204;
1205 [label="X[4] <= 176.5\ngini = 0.375\nsamples = 8\nvalue = [2, 6, 0]"];
1204 -> 1205;
1206 [label="X[1] <= 27.5\ngini = 0.48\nsamples = 5\nvalue = [2, 3, 0]"];
1205 -> 1206;
1207 [label="gini = 0.4444\nsamples = 3\nvalue = [1, 2, 0]"];
1206 -> 1207;
1208 [label="gini = 0.5\nsamples = 2\nvalue = [1, 1, 0]"];
1206 -> 1208;
1209 [label="gini = 0.0\nsamples = 3\nvalue = [0, 3, 0]"];
1205 -> 1209;
1210 [label="X[1] <= 27.5\ngini = 0.5\nsamples = 4\nvalue = [2, 2, 0]"];
1204 -> 1210;
1211 [label="gini = 0.5\nsamples = 2\nvalue = [1, 1, 0]"];
1210 -> 1211;
1212 [label="gini = 0.5\nsamples = 2\nvalue = [1, 1, 0]"];
1210 -> 1212;
1213 [label="X[1] <= 27.0\ngini = 0.3967\nsamples = 22\nvalue = [16, 6, 0]"];
1203 -> 1213;
1214 [label="gini = 0.0\nsamples = 6\nvalue = [6, 0, 0]"];
1213 -> 1214;
1215 [label="X[4] <= 147.0\ngini = 0.4688\nsamples = 16\nvalue = [10, 6, 0]"];
1213 -> 1215;
1216 [label="gini = 0.0\nsamples = 3\nvalue = [3, 0, 0]"];
1215 -> 1216;
1217 [label="X[4] <= 215.0\ngini = 0.497\nsamples = 13\nvalue = [7, 6, 0]"];
1215 -> 1217;
1218 [label="gini = 0.0\nsamples = 4\nvalue = [0, 4, 0]"];
1217 -> 1218;
1219 [label="X[4] <= 306.5\ngini = 0.3457\nsamples = 9\nvalue = [7, 2, 0]"];
1217 -> 1219;
1220 [label="gini = 0.0\nsamples = 5\nvalue = [5, 0, 0]"];
1219 -> 1220;
1221 [label="X[1] <= 34.5\ngini = 0.5\nsamples = 4\nvalue = [2, 2, 0]"];
1219 -> 1221;
1222 [label="gini = 0.5\nsamples = 2\nvalue = [1, 1, 0]"];
1221 -> 1222;
1223 [label="gini = 0.5\nsamples = 2\nvalue = [1, 1, 0]"];
1221 -> 1223;
1224 [label="gini = 0.0\nsamples = 15\nvalue = [0, 15, 0]"];
1198 -> 1224;
1225 [label="X[0] <= 114.5\ngini = 0.3503\nsamples = 106\nvalue = [82, 24, 0]"];
1197 -> 1225;
1226 [label="X[0] <= 113.5\ngini = 0.4334\nsamples = 63\nvalue = [43, 20, 0]"];
1225 -> 1226;
1227 [label="X[4] <= 206.5\ngini = 0.2499\nsamples = 41\nvalue = [35, 6, 0]"];
1226 -> 1227;
1228 [label="gini = 0.0\nsamples = 18\nvalue = [18, 0, 0]"];
1227 -> 1228;
1229 [label="X[2] <= 5.0\ngini = 0.3856\nsamples = 23\nvalue = [17, 6, 0]"];
1227 -> 1229;
1230 [label="X[0] <= 112.5\ngini = 0.4567\nsamples = 17\nvalue = [11, 6, 0]"];
1229 -> 1230;
1231 [label="X[1] <= 22.5\ngini = 0.497\nsamples = 13\nvalue = [7, 6, 0]"];
1230 -> 1231;
1232 [label="gini = 0.0\nsamples = 2\nvalue = [2, 0, 0]"];
1231 -> 1232;
1233 [label="X[3] <= 3.0\ngini = 0.4959\nsamples = 11\nvalue = [5, 6, 0]"];
1231 -> 1233;
1234 [label="X[4] <= 269.5\ngini = 0.48\nsamples = 10\nvalue = [4, 6, 0]"];
1233 -> 1234;
1235 [label="X[1] <= 34.5\ngini = 0.5\nsamples = 4\nvalue = [2, 2, 0]"];
1234 -> 1235;
1236 [label="gini = 0.5\nsamples = 2\nvalue = [1, 1, 0]"];
1235 -> 1236;
1237 [label="gini = 0.5\nsamples = 2\nvalue = [1, 1, 0]"];
1235 -> 1237;
1238 [label="X[4] <= 309.5\ngini = 0.4444\nsamples = 6\nvalue = [2, 4, 0]"];
1234 -> 1238;
1239 [label="gini = 0.0\nsamples = 2\nvalue = [0, 2, 0]"];
1238 -> 1239;
1240 [label="X[1] <= 34.5\ngini = 0.5\nsamples = 4\nvalue = [2, 2, 0]"];
1238 -> 1240;
1241 [label="gini = 0.5\nsamples = 2\nvalue = [1, 1, 0]"];
1240 -> 1241;
1242 [label="gini = 0.5\nsamples = 2\nvalue = [1, 1, 0]"];
1240 -> 1242;
1243 [label="gini = 0.0\nsamples = 1\nvalue = [1, 0, 0]"];
1233 -> 1243;
1244 [label="gini = 0.0\nsamples = 4\nvalue = [4, 0, 0]"];
1230 -> 1244;
1245 [label="gini = 0.0\nsamples = 6\nvalue = [6, 0, 0]"];
1229 -> 1245;
